svm_type c_svc
kernel_type rbf
gamma 0.5
nr_class 2
total_sv 637
rho 9.01727
label 0 1
nr_sv 319 318
SV
512 1:-0.0629105 
512 1:-0.143716 
512 1:-0.49457 
512 1:-0.692555 
512 1:0.0622895 
512 1:-0.584116 
512 1:-0.893404 
512 1:0.103822 
512 1:-0.683449 
512 1:-0.724232 
512 1:-0.542126 
512 1:-0.79022 
512 1:-0.577859 
512 1:-0.599221 
512 1:-0.737645 
512 1:-0.676907 
512 1:-0.660396 
512 1:-0.517103 
512 1:-0.596605 
512 1:-0.653718 
512 1:-0.555786 
512 1:-0.624449 
512 1:-0.586894 
512 1:-0.663555 
512 1:-0.533725 
512 1:-0.48631 
512 1:-0.664005 
512 1:-0.642672 
512 1:-0.670623 
512 1:-0.512681 
512 1:-0.67002 
512 1:-0.547063 
512 1:-0.588281 
512 1:-0.52078 
512 1:-0.113618 
512 1:-0.661772 
512 1:-0.544913 
512 1:-0.752604 
174.2462696401521 1:-0.149877 
512 1:-0.638368 
512 1:-0.494113 
512 1:-0.537003 
512 1:-0.606243 
512 1:-0.521819 
512 1:-0.686536 
512 1:-0.598041 
512 1:-0.699225 
512 1:-0.139871 
512 1:-0.495988 
512 1:-0.696158 
512 1:-0.566659 
512 1:-0.0988792 
512 1:-0.656866 
512 1:-0.705529 
512 1:-0.692182 
512 1:-0.659109 
512 1:-0.536402 
512 1:-0.533214 
512 1:-0.595657 
512 1:-0.617281 
512 1:-0.734912 
512 1:-0.674069 
512 1:-0.708143 
512 1:0.113362 
512 1:0.250398 
512 1:-0.48567 
512 1:-0.513202 
512 1:-0.577005 
512 1:-0.775571 
512 1:-0.555595 
512 1:-0.510537 
512 1:-0.536508 
512 1:-0.752563 
512 1:-0.563391 
512 1:-0.496877 
512 1:-0.575644 
512 1:-0.51273 
512 1:-0.564831 
512 1:-0.738891 
512 1:-0.636548 
512 1:-0.570125 
512 1:-0.626989 
512 1:-0.711295 
512 1:-0.609684 
512 1:-0.739808 
512 1:-0.490578 
512 1:-0.497666 
512 1:-0.728342 
512 1:-0.625757 
512 1:-0.672274 
512 1:-0.59481 
512 1:-0.571849 
512 1:-0.662455 
512 1:-0.771346 
512 1:-0.706559 
512 1:-0.711392 
512 1:-0.525342 
512 1:-0.652648 
512 1:-0.805486 
512 1:-0.604796 
512 1:-0.556805 
512 1:-0.671025 
512 1:-0.620306 
512 1:-0.749169 
512 1:-0.63682 
512 1:-0.679572 
512 1:-0.546433 
512 1:-0.0257563 
512 1:-0.738296 
512 1:-0.781742 
512 1:-0.702055 
512 1:-0.803277 
512 1:-0.581708 
512 1:-0.496335 
512 1:-0.55132 
512 1:-0.700368 
512 1:-0.592001 
512 1:-0.668529 
512 1:-0.504844 
512 1:-0.771721 
512 1:-0.671487 
512 1:-0.577242 
512 1:-0.507365 
512 1:-0.674907 
512 1:-0.59254 
512 1:-0.485437 
512 1:-0.583993 
512 1:-0.616903 
512 1:-0.694266 
512 1:-0.644573 
512 1:-0.62327 
512 1:-0.543319 
512 1:-0.7464 
512 1:-0.839965 
512 1:-0.502793 
512 1:-0.657923 
512 1:-0.541113 
512 1:-0.568407 
512 1:-0.734334 
512 1:-0.518105 
512 1:-0.65081 
512 1:-0.619167 
512 1:-0.497549 
512 1:-0.501051 
512 1:-0.79657 
512 1:-0.529772 
512 1:-0.677843 
512 1:-0.561794 
512 1:-0.635547 
512 1:-0.614098 
512 1:-0.593594 
512 1:-0.52504 
512 1:-0.531119 
512 1:-0.637136 
512 1:-0.546328 
512 1:-0.487094 
512 1:-0.688493 
512 1:-0.616279 
512 1:-0.589901 
512 1:-0.828132 
512 1:-0.722944 
512 1:-0.501641 
512 1:-0.683345 
512 1:0.127643 
512 1:-0.511493 
512 1:-0.485268 
512 1:-0.682023 
512 1:-0.789695 
512 1:-0.764874 
512 1:-0.0439348 
512 1:-0.548988 
512 1:-0.731652 
512 1:-0.766162 
512 1:-0.572707 
512 1:-0.556257 
512 1:-0.48521 
512 1:-0.511233 
512 1:-0.575737 
512 1:0.265812 
512 1:0.274536 
512 1:-0.496939 
512 1:-0.565854 
512 1:-0.693445 
512 1:-0.0341433 
512 1:-0.488226 
512 1:-0.547607 
512 1:-0.592545 
512 1:-0.594316 
512 1:-0.681259 
512 1:-0.531757 
512 1:-0.638612 
512 1:-0.509804 
512 1:-0.58502 
512 1:-0.654196 
512 1:-0.627544 
512 1:-0.586915 
512 1:0.0950203 
512 1:-0.0896686 
512 1:-0.538274 
512 1:-0.610252 
512 1:-0.148021 
512 1:-0.637028 
512 1:-0.554709 
512 1:-0.586845 
512 1:-0.610516 
512 1:-0.641964 
512 1:-0.488822 
512 1:-0.691092 
512 1:-0.667738 
512 1:-0.48297 
512 1:-0.672312 
512 1:-0.775208 
512 1:-0.597244 
512 1:-0.858545 
512 1:-0.543215 
512 1:-0.584011 
512 1:-0.61048 
512 1:-0.501204 
512 1:-0.688801 
512 1:0.113129 
512 1:-0.959042 
512 1:-0.532763 
512 1:-0.733172 
512 1:-0.538262 
512 1:-0.0501674 
512 1:-0.0167055 
512 1:-0.13411 
512 1:-0.483099 
512 1:-0.668772 
512 1:-0.07652 
512 1:-0.62933 
512 1:-0.497423 
512 1:-0.582957 
512 1:-0.568709 
512 1:-0.102729 
512 1:-0.568716 
512 1:-0.559658 
512 1:-0.603306 
512 1:-0.635989 
512 1:-0.654036 
512 1:-0.562512 
512 1:-0.499232 
512 1:-0.674508 
512 1:-0.590696 
512 1:-0.704441 
512 1:-0.552601 
512 1:-0.50928 
512 1:-0.529556 
512 1:-0.580064 
512 1:-0.523108 
512 1:-0.762088 
512 1:-0.627023 
512 1:-0.637168 
512 1:-0.638854 
512 1:-0.0916265 
512 1:-0.536097 
512 1:-0.0916282 
512 1:-0.519844 
512 1:-0.807517 
512 1:-0.583154 
512 1:-0.659371 
92.46119301650157 1:0.285456 
512 1:-0.50622 
512 1:-0.129041 
512 1:-0.571429 
512 1:-0.608775 
512 1:-0.546682 
512 1:-0.578499 
512 1:-0.517813 
512 1:-0.623252 
512 1:-0.572104 
512 1:-0.495226 
512 1:-0.558186 
512 1:-0.590316 
512 1:-0.626308 
512 1:-0.62705 
512 1:-0.588269 
512 1:-0.519686 
512 1:-0.14345 
512 1:-0.701219 
512 1:-0.507586 
512 1:-0.519877 
274.6703794756177 1:-0.481049 
512 1:-0.68 
512 1:-0.509466 
512 1:-0.610591 
512 1:-0.73082 
512 1:0.251734 
512 1:-0.493974 
512 1:-0.7414 
512 1:-0.813007 
512 1:-0.591733 
512 1:-0.513279 
512 1:0.197289 
512 1:-0.584855 
512 1:-0.666972 
512 1:-0.667065 
512 1:-0.620316 
512 1:-0.136622 
512 1:-0.563231 
512 1:-0.736311 
512 1:-0.679216 
512 1:-0.866103 
512 1:0.00977873 
512 1:-0.566938 
512 1:-0.126271 
512 1:-0.0260262 
512 1:-0.695775 
512 1:-0.640465 
512 1:-0.612447 
512 1:-0.540147 
499.5462130649234 1:1 
512 1:-0.71091 
512 1:-0.710504 
512 1:-0.0197085 
512 1:-0.577549 
512 1:-0.628704 
512 1:-0.55836 
512 1:-0.584712 
-512 1:-0.35223 
-512 1:-0.605843 
-512 1:-0.636326 
-512 1:-0.596458 
-512 1:-0.715212 
-512 1:-0.47489 
-512 1:-0.684494 
-512 1:-0.612285 
-512 1:-0.770131 
-512 1:-0.545972 
-512 1:-0.652321 
-512 1:-0.379153 
-512 1:-0.668099 
-512 1:-0.734774 
-512 1:-0.724569 
-512 1:-0.585332 
-512 1:-0.274144 
-512 1:-0.674233 
-512 1:-0.768194 
-512 1:-0.674869 
-512 1:-0.374767 
-512 1:0.358515 
-512 1:-0.720609 
-512 1:-0.236888 
-512 1:-0.573905 
-512 1:-0.638869 
-512 1:-0.751563 
-512 1:-0.708853 
-512 1:-0.669577 
-512 1:-0.743994 
-512 1:0.798783 
-512 1:-0.288493 
-512 1:-0.73179 
-512 1:-0.371552 
-512 1:-0.748969 
-512 1:-0.546253 
-512 1:-0.63881 
-512 1:-0.530898 
-512 1:-0.626382 
-512 1:-0.596615 
-512 1:-0.568606 
-512 1:-0.605315 
-512 1:-0.175672 
-512 1:-0.518977 
-512 1:-0.164107 
-512 1:-0.740983 
-512 1:-0.752701 
-512 1:-0.708669 
-512 1:-0.460735 
-512 1:-0.512883 
-512 1:-0.720224 
-16.92405519719618 1:-0.772389 
-512 1:-0.702938 
-512 1:-0.671473 
-512 1:-0.0164371 
-512 1:-0.662025 
-512 1:-0.572757 
-512 1:-0.549878 
-512 1:-0.642787 
-512 1:-0.657048 
-512 1:-0.508225 
-512 1:-0.548102 
-512 1:-0.642784 
-512 1:-0.637543 
-512 1:0.23924 
-512 1:-0.732996 
-512 1:-0.668559 
-512 1:-0.727776 
-512 1:-0.494798 
-512 1:-0.555114 
-512 1:-0.681304 
-512 1:-0.770499 
-512 1:-0.740943 
-512 1:-0.739385 
-512 1:-0.366798 
-512 1:-0.745342 
-512 1:-0.761612 
-512 1:-0.598006 
-512 1:-0.520384 
-512 1:-0.234384 
-512 1:-0.359928 
-512 1:-0.08037 
-512 1:-0.6183 
-512 1:-0.555785 
-512 1:-0.68674 
-512 1:-0.55317 
-512 1:-0.698679 
-512 1:-0.465026 
-512 1:-0.762815 
-512 1:-0.752121 
-512 1:-0.554879 
-512 1:-0.695662 
-512 1:-0.432101 
-512 1:-0.404427 
-512 1:-0.489756 
-512 1:-0.411164 
-512 1:-0.511895 
-512 1:-0.563562 
-512 1:-0.67263 
-512 1:-0.547965 
-512 1:-0.730611 
-512 1:-0.595106 
-512 1:-0.259397 
-512 1:-0.669536 
-512 1:-0.631068 
-512 1:-0.631497 
-512 1:-0.437909 
-512 1:-0.722942 
-512 1:-0.425172 
-512 1:-0.536234 
-512 1:-0.478853 
-512 1:-0.761829 
-512 1:-0.749277 
-512 1:-0.556231 
-512 1:-0.699867 
-512 1:-0.419209 
-512 1:-0.705485 
-512 1:-0.684647 
-512 1:-0.38382 
-512 1:-0.500975 
-512 1:-0.610406 
-512 1:-0.58848 
-512 1:-0.450537 
-512 1:-0.55883 
-512 1:-0.184543 
-512 1:0.0927257 
-512 1:-0.739574 
-512 1:-0.732869 
-512 1:0.098657 
-512 1:-0.502845 
-512 1:-0.514255 
-512 1:-0.663703 
-512 1:-0.432966 
-512 1:-0.690869 
-512 1:-0.347703 
-512 1:-0.735898 
-512 1:-0.566451 
-512 1:-0.653318 
-512 1:-0.649017 
-512 1:-0.614744 
-512 1:-0.552849 
-512 1:-0.74525 
-512 1:-0.487678 
-512 1:-0.610442 
-512 1:-0.703547 
-512 1:-0.76912 
-512 1:-0.536264 
-512 1:-0.736084 
-512 1:-0.532122 
-512 1:-0.596677 
-512 1:-0.702773 
-512 1:-0.743208 
-512 1:-0.69811 
-512 1:-0.594737 
-512 1:-0.66215 
-512 1:-0.718334 
-512 1:-0.52626 
-512 1:-0.257695 
-512 1:-0.627683 
-512 1:-0.634585 
-512 1:-0.710938 
-512 1:-0.765351 
-512 1:-0.606201 
-512 1:-0.736 
-512 1:-0.538697 
-512 1:-0.705501 
-512 1:-0.107664 
-512 1:-0.548061 
-512 1:-0.316397 
-512 1:-0.57612 
-512 1:-0.756755 
-512 1:-0.661742 
-512 1:-0.466149 
-512 1:-0.443793 
-512 1:-0.254109 
-512 1:-0.768569 
-512 1:-0.735979 
-512 1:-0.6848 
-512 1:-0.732953 
-512 1:-0.243754 
-512 1:-0.551041 
-512 1:-0.510498 
-512 1:-0.743203 
-512 1:-0.30591 
-512 1:0.142657 
-512 1:-0.625771 
-512 1:-0.689064 
-512 1:-0.659331 
-512 1:-0.373776 
-512 1:-0.551541 
-512 1:-0.691522 
-512 1:-0.439307 
-512 1:-0.637143 
-512 1:-0.651943 
-512 1:-0.517231 
-512 1:-0.689211 
-512 1:-0.12332 
-512 1:-0.555663 
-512 1:-0.550935 
-512 1:-0.60935 
-512 1:-0.647788 
-512 1:-0.743325 
-512 1:-0.657831 
-512 1:-0.765925 
-512 1:-0.757186 
-512 1:-0.722854 
-512 1:-0.526073 
-512 1:-0.212196 
-512 1:-0.69956 
-512 1:-0.501607 
-512 1:-0.505637 
-512 1:-0.733174 
-512 1:-0.76009 
-512 1:-0.437566 
-512 1:-0.679877 
-512 1:-0.677864 
-512 1:-0.550688 
-512 1:-0.581529 
-512 1:0.334977 
-512 1:-0.494154 
-512 1:-0.0294137 
-512 1:0.113795 
-512 1:-0.762779 
-512 1:-0.591959 
-512 1:-0.348685 
-512 1:-0.479354 
-512 1:-0.609819 
-512 1:-0.533967 
-512 1:-0.543642 
-512 1:-0.755205 
-512 1:-0.299563 
-512 1:-0.352161 
-512 1:-0.653585 
-512 1:-0.342311 
-512 1:-0.506692 
-512 1:-0.65294 
-512 1:-0.0927496 
-512 1:-0.522647 
-512 1:-0.427923 
-512 1:-0.582063 
-512 1:-0.68087 
-512 1:-0.753752 
-512 1:-0.501728 
-512 1:-0.569781 
-512 1:-0.60643 
-512 1:-0.417147 
-512 1:-0.679464 
-512 1:-0.720368 
-512 1:-0.379699 
-512 1:-0.755346 
-512 1:-0.683574 
-512 1:0.527288 
-512 1:-0.724192 
-512 1:-0.673222 
-512 1:-0.663607 
-512 1:-0.669153 
-512 1:-0.697098 
-512 1:-0.492455 
-512 1:-0.714621 
-512 1:-0.758416 
-512 1:-0.659724 
-512 1:-0.763496 
-512 1:-0.522044 
-512 1:-0.639514 
-512 1:-0.698172 
-512 1:-0.707127 
-512 1:-0.701411 
-512 1:-0.438518 
-512 1:-0.431506 
-512 1:-0.146411 
-512 1:-0.211931 
-512 1:-0.312148 
-512 1:-0.601683 
-512 1:-0.441973 
-512 1:-0.738287 
-512 1:-0.593735 
-512 1:-0.293986 
-512 1:-0.658974 
-512 1:-0.672862 
-512 1:-0.370745 
-512 1:-0.601844 
-512 1:-0.704039 
-512 1:-0.714335 
-512 1:-0.392066 
-512 1:-0.531597 
-512 1:-0.011271 
-512 1:-0.680176 
-512 1:-0.450774 
-512 1:-0.73976 
-512 1:-0.685399 
-512 1:-0.358622 
-512 1:-0.680952 
-512 1:-0.262587 
-512 1:-0.312867 
-512 1:-0.638353 
-512 1:-0.747318 
-512 1:-0.750784 
-512 1:-0.632261 
-512 1:-0.716083 
-512 1:-0.673838 
-512 1:-0.519742 
-512 1:0.0850098 
-512 1:-0.67544 
-512 1:-0.467865 
-512 1:-0.717817 
-512 1:-0.661155 
-512 1:-0.699801 
-512 1:-0.767079 
-512 1:-0.462949 
-512 1:-0.600711 
-512 1:-0.740028 
-512 1:0.536611 
-512 1:-0.093663 
-512 1:-0.596639 
-512 1:-0.483585 
-512 1:-0.496455 
-512 1:-0.597826 
-512 1:-0.594116 
