svm_type c_svc
kernel_type rbf
gamma 0.125
nr_class 2
total_sv 620
rho 11.5583
label 0 1
nr_sv 310 310
SV
8192 1:-0.399289 
8192 1:-0.0166376 
8192 1:-0.0407767 
8192 1:0.427273 
8192 1:0.212285 
8192 1:-0.409002 
8192 1:-0.240434 
8192 1:0.280782 
8192 1:-0.173848 
8192 1:0.256875 
8192 1:-0.0655773 
8192 1:-0.0604039 
8192 1:0.209857 
8192 1:-0.0556627 
8192 1:0.353006 
8192 1:0.216453 
8192 1:0.49351 
8192 1:-0.00302664 
8192 1:0.389755 
8192 1:0.275481 
8192 1:0.298076 
8192 1:0.312947 
8192 1:0.000921172 
8192 1:0.375695 
8192 1:-0.0464982 
8192 1:0.398061 
8192 1:-0.457854 
8192 1:0.23286 
8192 1:-0.318881 
8192 1:0.207769 
8192 1:0.269637 
8192 1:0.393701 
8192 1:-0.0438971 
8192 1:0.332669 
8192 1:0.377965 
8192 1:0.244121 
8192 1:0.222 
8192 1:0.227969 
8192 1:0.00305728 
8192 1:0.242796 
8192 1:0.62983 
8192 1:0.32892 
8192 1:0.388386 
8192 1:0.300242 
8192 1:0.437804 
8192 1:0.000284674 
8192 1:0.409707 
8192 1:0.646905 
8192 1:0.237535 
8192 1:0.250654 
8192 1:-0.117786 
8192 1:-0.222708 
8192 1:0.266323 
8192 1:0.670169 
8192 1:-0.0301412 
8192 1:0.288369 
8192 1:0.312086 
8192 1:0.345183 
8192 1:-0.00488308 
8192 1:0.297134 
8192 1:0.202833 
8192 1:0.290234 
8192 1:0.333348 
8192 1:-0.100137 
8192 1:-0.046922 
8192 1:0.342828 
8192 1:0.230898 
8192 1:0.2448 
8192 1:-0.0527696 
8192 1:0.489204 
8192 1:-0.0634318 
8192 1:0.359277 
8192 1:0.294167 
8192 1:-0.0694633 
8192 1:0.0100824 
8192 1:0.307366 
8192 1:0.276197 
8192 1:0.366971 
8192 1:-0.346957 
8192 1:0.0159265 
8192 1:0.289958 
8192 1:0.47924 
8192 1:0.26604 
8192 1:0.290786 
8192 1:0.297565 
8192 1:0.437633 
8192 1:0.253848 
8192 1:0.326836 
8192 1:0.276033 
8192 1:-0.406008 
8192 1:0.343032 
8192 1:0.662465 
8192 1:0.238772 
8192 1:0.247828 
8192 1:0.422272 
8192 1:-0.261575 
8192 1:0.00738161 
8192 1:0.258231 
8192 1:-0.00816277 
8192 1:0.388551 
8192 1:0.249964 
8192 1:0.297061 
8192 1:-0.0149723 
8192 1:0.344557 
8192 1:0.349124 
8192 1:0.296922 
8192 1:0.479108 
8192 1:0.206509 
8192 1:0.216331 
8192 1:0.376195 
8192 1:0.397274 
8192 1:0.450031 
8192 1:0.282283 
8192 1:-0.156758 
8192 1:0.395161 
8192 1:0.218463 
8192 1:0.0151427 
8192 1:0.22765 
8192 1:0.016806 
8192 1:0.423545 
8192 1:0.20426 
8192 1:0.00436046 
8192 1:0.394607 
8192 1:0.406886 
8192 1:-0.0504825 
8192 1:0.296393 
8192 1:0.239196 
8192 1:-0.556739 
8192 1:0.238488 
8192 1:0.251932 
8192 1:0.656222 
8192 1:0.345637 
8192 1:0.367735 
8192 1:0.4399 
8192 1:0.327218 
8192 1:0.314845 
8192 1:0.216961 
8192 1:0.32529 
8192 1:0.347042 
8192 1:0.300856 
8192 1:-0.194894 
8192 1:0.21158 
8192 1:-0.121206 
8192 1:0.376454 
8192 1:0.260141 
8192 1:-0.187484 
8192 1:0.0147159 
8192 1:0.282748 
8192 1:0.204439 
8192 1:-0.0394216 
8192 1:0.252669 
8192 1:-0.0403221 
8192 1:-0.0479803 
8192 1:-0.191504 
8192 1:0.260379 
8192 1:0.307271 
8192 1:0.387046 
8192 1:-0.05837 
8192 1:0.396349 
8192 1:0.358348 
8192 1:-0.0882203 
8192 1:0.222699 
8192 1:0.217457 
8192 1:0.305903 
8192 1:0.230621 
8192 1:-0.278374 
8192 1:-0.310287 
8192 1:-0.0994669 
8192 1:0.319807 
8192 1:0.238479 
8192 1:-0.0720094 
8192 1:-0.0206934 
8192 1:0.314552 
8192 1:-0.127202 
8192 1:0.358335 
8192 1:-0.345643 
8192 1:-0.179168 
8192 1:-0.0725461 
8192 1:0.267019 
8192 1:-0.0586572 
8192 1:0.308406 
8192 1:0.00276116 
8192 1:-0.0208134 
8192 1:0.254893 
8192 1:0.32663 
8192 1:-0.00733978 
8192 1:-0.0321274 
8192 1:-0.0902086 
8192 1:0.406794 
8192 1:0.309496 
8192 1:-0.00861523 
8192 1:0.00996904 
8192 1:0.296476 
8192 1:-0.0915243 
8192 1:0.274776 
8192 1:0.263771 
8192 1:-0.0470986 
8192 1:0.322351 
8192 1:0.344536 
8192 1:0.288089 
8192 1:-0.104582 
8192 1:-0.0856869 
8192 1:0.396637 
8192 1:0.235095 
8192 1:-0.0656914 
8192 1:0.446162 
8192 1:-0.00210643 
8192 1:0.253801 
8192 1:-0.122078 
8192 1:0.279178 
8192 1:-0.727841 
8192 1:0.24324 
8192 1:-0.161042 
8192 1:0.588758 
8192 1:0.265301 
8192 1:0.367794 
8192 1:-0.370266 
8192 1:0.275578 
8192 1:0.00361283 
8192 1:-0.0131049 
8192 1:-0.208937 
8192 1:0.308537 
8192 1:0.205737 
8192 1:-0.323287 
8192 1:-0.399143 
8192 1:0.302887 
8192 1:0.309158 
8192 1:-0.298551 
8192 1:0.62845 
8192 1:-0.0272545 
8192 1:0.230766 
8192 1:0.380514 
8192 1:0.235214 
8192 1:0.367819 
8192 1:0.446893 
8192 1:0.273551 
8192 1:-0.0578808 
8192 1:-0.181652 
8192 1:-0.0899522 
8192 1:0.275083 
8192 1:-0.0308503 
8192 1:0.206217 
8192 1:0.284481 
8192 1:0.24058 
8192 1:0.287513 
8192 1:0.33377 
8192 1:0.403587 
8192 1:-0.47901 
8192 1:0.531564 
8192 1:0.210494 
8192 1:-0.0212329 
8192 1:-0.00770159 
8192 1:-0.0326849 
8192 1:0.0113455 
8192 1:-0.0900776 
8192 1:0.288817 
8192 1:0.229678 
8192 1:0.381287 
8192 1:-0.048592 
8192 1:0.538973 
8192 1:-0.0986918 
8192 1:0.588502 
8192 1:0.320778 
8192 1:0.287905 
8192 1:0.25492 
8192 1:0.300021 
8192 1:-0.1969 
8192 1:0.237468 
8192 1:0.229286 
8192 1:-0.147064 
8192 1:-0.199618 
8192 1:0.403204 
8192 1:0.434172 
8192 1:0.498896 
8192 1:-0.0760854 
8192 1:-0.0220341 
8192 1:-0.0451714 
8192 1:-0.373282 
8192 1:0.373677 
8192 1:-0.165673 
8192 1:0.372759 
8192 1:0.257684 
8192 1:0.222243 
8192 1:0.310673 
8192 1:0.378293 
8192 1:0.39126 
8192 1:0.254241 
8192 1:-0.23767 
8192 1:0.00651444 
8192 1:0.360508 
8192 1:0.456302 
8192 1:0.277092 
8192 1:-0.00159641 
8192 1:0.229078 
6635.774218868128 1:0.0204545 
8192 1:-0.0509613 
8192 1:0.205809 
8192 1:0.257336 
8192 1:0.380753 
8192 1:0.00997672 
8192 1:0.370257 
8192 1:0.270516 
8192 1:0.403857 
1340.235008163045 1:0.199389 
8192 1:-0.015561 
8192 1:-0.471664 
8192 1:0.0165254 
8192 1:0.295303 
8192 1:-0.162308 
8192 1:0.309218 
-8192 1:0.00762681 
-8192 1:-0.0869841 
-8192 1:0.17866 
-8192 1:0.196225 
-8192 1:0.400312 
-8192 1:-0.0133359 
-8192 1:0.3674 
-8192 1:0.0157136 
-8192 1:-0.179878 
-8192 1:0.428832 
-8192 1:-0.181071 
-8192 1:0.0576751 
-8192 1:0.0630941 
-8192 1:0.382525 
-8192 1:0.261704 
-8192 1:0.233939 
-8192 1:0.424929 
-8192 1:0.336772 
-8192 1:0.163429 
-8192 1:-0.0947771 
-8192 1:0.135884 
-8192 1:-0.154672 
-8192 1:-0.262783 
-8192 1:0.381514 
-8192 1:0.314503 
-8192 1:0.272179 
-8192 1:0.383422 
-8192 1:0.247833 
-8192 1:0.515276 
-8192 1:0.402969 
-8192 1:0.159364 
-8192 1:0.21103 
-8192 1:0.434706 
-8192 1:-0.362301 
-8192 1:0.331319 
-8192 1:0.306012 
-8192 1:0.210809 
-8192 1:0.0578957 
-8192 1:0.229498 
-8192 1:0.0945369 
-8192 1:-0.0509261 
-8192 1:0.435975 
-8192 1:-0.0310412 
-8192 1:0.389191 
-8192 1:0.291513 
-8192 1:-0.113879 
-8192 1:-0.226794 
-8192 1:-0.0931284 
-8192 1:0.0674903 
-8192 1:0.358557 
-8192 1:-0.08886 
-8192 1:0.223088 
-8192 1:0.431128 
-8192 1:-0.199579 
-8192 1:0.0250875 
-8192 1:-0.133182 
-8192 1:-0.371901 
-8192 1:0.0390139 
-8192 1:0.219996 
-8192 1:-0.0769835 
-8192 1:0.475975 
-8192 1:0.272263 
-8192 1:0.449875 
-8192 1:0.112825 
-8192 1:-0.192751 
-8192 1:0.504465 
-8192 1:0.463493 
-8192 1:0.423456 
-8192 1:0.390366 
-8192 1:0.48107 
-8192 1:0.332011 
-8192 1:0.0517317 
-8192 1:0.0797255 
-8192 1:-0.375138 
-8192 1:-0.236021 
-8192 1:0.0483997 
-8192 1:0.390319 
-8192 1:0.289663 
-8192 1:-0.242046 
-8192 1:0.412523 
-8192 1:0.214526 
-8192 1:-0.389898 
-8192 1:0.0677252 
-8192 1:-0.326641 
-8192 1:-0.272829 
-8192 1:-0.315306 
-8192 1:0.0364806 
-8192 1:0.264013 
-8192 1:0.0708634 
-8192 1:0.467887 
-8192 1:-0.0478138 
-8192 1:0.00149078 
-8192 1:0.439394 
-8192 1:0.206324 
-8192 1:0.0779295 
-8192 1:-0.0249 
-8192 1:0.0668984 
-8192 1:0.188047 
-8192 1:0.3381 
-8192 1:-0.292814 
-8192 1:0.442632 
-8192 1:0.337803 
-8192 1:0.349361 
-8192 1:0.129842 
-8192 1:0.301997 
-8192 1:-0.451634 
-8192 1:0.345021 
-8192 1:0.451973 
-8192 1:-0.0552297 
-8192 1:0.404384 
-8192 1:-0.0695721 
-8192 1:0.383798 
-8192 1:0.251116 
-8192 1:0.337106 
-8192 1:-0.169613 
-8192 1:0.00385114 
-8192 1:0.346185 
-8192 1:-0.0368472 
-8192 1:0.506646 
-8192 1:-0.401533 
-8192 1:0.0577374 
-8192 1:0.248972 
-8192 1:0.0461608 
-8192 1:0.402615 
-8192 1:0.15185 
-8192 1:0.425849 
-8192 1:0.147213 
-8192 1:0.261414 
-8192 1:0.450587 
-8192 1:0.00705327 
-8192 1:0.196953 
-8192 1:-0.12771 
-8192 1:0.369944 
-8192 1:0.0811711 
-8192 1:0.299075 
-8192 1:0.272405 
-8192 1:0.405615 
-8192 1:0.152636 
-8192 1:0.0273467 
-8192 1:0.0705368 
-8192 1:0.19694 
-8192 1:0.0780051 
-8192 1:0.0885789 
-8192 1:0.431174 
-6441.2829891777 1:0.521033 
-8192 1:-0.129416 
-8192 1:0.197488 
-8192 1:0.471382 
-8192 1:0.332995 
-8192 1:0.4468 
-8192 1:0.220246 
-8192 1:0.362936 
-8192 1:0.512218 
-8192 1:0.0373917 
-8192 1:0.33772 
-8192 1:0.17189 
-8192 1:-0.13693 
-8192 1:0.132339 
-8192 1:0.479516 
-8192 1:-0.467154 
-8192 1:0.45417 
-8192 1:-0.0650255 
-8192 1:0.282274 
-8192 1:0.0344726 
-8192 1:0.488358 
-8192 1:-0.00599984 
-8192 1:-0.146818 
-8192 1:0.336933 
-8192 1:-0.156866 
-8192 1:0.469565 
-8192 1:-0.00422631 
-8192 1:-0.294869 
-8192 1:0.367798 
-8192 1:0.469326 
-8192 1:0.0137764 
-8192 1:0.188662 
-8192 1:0.307425 
-8192 1:0.145578 
-8192 1:0.219234 
-8192 1:0.116465 
-8192 1:0.10899 
-8192 1:0.482269 
-8192 1:0.258752 
-8192 1:-0.0730566 
-8192 1:0.149274 
-8192 1:-0.146088 
-8192 1:0.0468315 
-8192 1:0.25429 
-8192 1:0.162722 
-8192 1:0.198399 
-8192 1:-0.112887 
-8192 1:0.333372 
-8192 1:0.198461 
-8192 1:0.225346 
-8192 1:0.32687 
-8192 1:0.111178 
-8192 1:0.316334 
-8192 1:-0.162138 
-8192 1:0.416458 
-8192 1:0.513122 
-8192 1:0.1437 
-8192 1:0.0896596 
-8192 1:-0.0209934 
-8192 1:0.269968 
-8192 1:-0.407317 
-8192 1:-0.0233677 
-8192 1:-0.279183 
-8192 1:-0.089576 
-8192 1:0.0160073 
-8192 1:0.263827 
-8192 1:0.307042 
-8192 1:-0.283609 
-8192 1:-0.369237 
-8192 1:0.205502 
-8192 1:0.196334 
-8192 1:0.210984 
-8192 1:0.387083 
-8192 1:0.223993 
-8192 1:0.45758 
-8192 1:-0.0519293 
-8192 1:0.326386 
-8192 1:0.397084 
-8192 1:-0.12629 
-8192 1:-0.00619638 
-8192 1:0.378607 
-8192 1:0.152977 
-8192 1:0.266515 
-8192 1:0.467583 
-8192 1:-0.00224527 
-8192 1:0.213737 
-8192 1:0.51221 
-8192 1:0.449117 
-8192 1:0.0699043 
-8192 1:0.256963 
-8192 1:-0.131728 
-8192 1:0.272507 
-8192 1:0.205854 
-8192 1:0.425006 
-8192 1:0.445716 
-8192 1:-0.21265 
-8192 1:0.310255 
-8192 1:0.30702 
-8192 1:0.423294 
-8192 1:0.241681 
-8192 1:0.362358 
-8192 1:-0.0204144 
-8192 1:0.118315 
-8192 1:0.41893 
-8192 1:0.504381 
-8192 1:0.0350515 
-8192 1:-0.0268912 
-8192 1:0.242136 
-8192 1:0.439284 
-8192 1:0.0548819 
-8192 1:0.49576 
-8192 1:-0.0241241 
-8192 1:-0.117855 
-8192 1:-0.113106 
-8192 1:-0.331505 
-8192 1:0.49384 
-8192 1:-0.328533 
-8192 1:0.197062 
-8192 1:0.445684 
-8192 1:0.436836 
-8192 1:-0.047492 
-8192 1:0.36562 
-8192 1:0.448861 
-8192 1:0.485068 
-8192 1:0.380468 
-8192 1:0.259474 
-8192 1:0.415867 
-8192 1:0.215573 
-8192 1:-0.0459354 
-8192 1:0.0043561 
-1534.726237853496 1:-1 
-8192 1:-0.282446 
-8192 1:0.416685 
-8192 1:0.499749 
-8192 1:0.219733 
-8192 1:0.45213 
-8192 1:-0.504091 
-8192 1:0.0592436 
-8192 1:0.465017 
-8192 1:0.425792 
-8192 1:0.132036 
-8192 1:0.278785 
-8192 1:0.35131 
-8192 1:0.156483 
-8192 1:0.485951 
-8192 1:-0.128819 
-8192 1:0.192372 
-8192 1:-0.135115 
-8192 1:-0.0128814 
-8192 1:0.373068 
-8192 1:0.390482 
-8192 1:-0.0589201 
-8192 1:0.327043 
-8192 1:-0.261748 
-8192 1:-0.0478572 
-8192 1:0.259343 
-8192 1:0.205991 
-8192 1:0.245053 
-8192 1:-0.442844 
-8192 1:0.488712 
-8192 1:0.483291 
-8192 1:-0.0084318 
-8192 1:0.338365 
-8192 1:0.290925 
-8192 1:0.263895 
-8192 1:0.257683 
