svm_type c_svc
kernel_type rbf
gamma 0.03125
nr_class 2
total_sv 48
rho 17.5586
label 0 1
nr_sv 23 25
SV
512 1:0.216453 2:-0.542126 3:-0.607016 4:0.906845 5:-0.248625 6:0.0680167 7:-0.59137 8:-0.787916 9:-0.875 10:-0.435223 
512 1:0.290234 2:-0.617281 3:-0.71874 4:0.835471 5:-0.112562 6:0.39502 7:-0.694618 8:-0.622684 9:-0.941964 10:-0.29674 
512 1:-0.100137 2:-0.708143 3:-0.685557 4:0.662552 5:-0.16875 6:0.779807 7:-0.670675 8:0.0907908 9:-0.991071 10:-0.268765 
512 1:0.342828 2:-0.775571 3:-0.488534 4:0.734733 5:-0.33366 6:0.524973 7:-0.536569 8:-0.0733677 9:-0.984375 10:-0.29092 
512 1:0.47924 2:-0.728342 3:-0.547041 4:0.831416 5:-0.283916 6:0.177627 7:-0.564255 8:-0.684447 9:-0.921875 10:-0.457576 
416.9851908237198 1:0.437633 2:-0.771346 3:-0.736067 4:0.918368 5:-0.493861 6:0.374259 7:-0.774479 8:-0.587242 9:-0.946429 10:-0.418292 
150.5680949738282 1:0.216331 2:-0.496335 3:-0.422018 4:0.922917 5:-0.230087 6:-0.18439 7:-0.432836 8:-0.893063 9:-0.734375 10:-0.270749 
512 1:0.450031 2:-0.771721 3:-0.167909 4:0.574448 5:-0.531094 6:0.305592 7:-0.197704 8:-0.238639 9:-0.975446 10:-0.401428 
220.7219961576444 1:-0.156758 2:0.971173 3:-0.641682 4:0.803649 5:-0.577643 6:0.471305 7:-0.680306 8:-0.382999 9:-0.970982 10:-0.282058 
495.2702347814846 1:0.376454 2:-0.593594 3:-0.406287 4:0.529494 5:-0.00867532 6:0.474894 7:-0.506811 8:-0.311164 9:-0.975446 10:-0.345943 
128.4775057778775 1:0.358335 2:0.274536 3:-0.524139 4:0.886 5:-0.497089 6:-0.00576981 7:-0.521509 8:-0.802263 9:-0.861607 10:-0.467628 
377.8533931575332 1:0.308406 2:-0.0341433 3:-0.83151 4:0.891455 5:-0.226827 6:0.637533 7:-0.941542 8:-0.338987 9:-0.975446 10:-0.467429 
39.75875627064845 1:-0.104582 2:-0.691092 3:-0.275099 4:0.184129 5:-0.362994 6:0.74205 7:-0.290972 8:0.21991 9:-0.993304 10:-0.0773758 
512 1:0.279178 2:-0.501204 3:-0.65331 4:0.949006 5:-0.396734 6:0.0819781 7:-0.672132 8:-0.803639 9:-0.866071 10:-0.408835 
22.93042727032391 1:-0.727841 2:-0.210859 3:0.417005 4:-1 5:0.364104 6:1 7:0.442612 8:0.466436 9:-0.997768 10:0.183916 
512 1:-0.298551 2:-0.212419 3:-0.523578 4:0.715276 5:0.146214 6:0.515099 7:-0.414851 8:-0.533661 9:-0.959821 10:0.309503 
512 1:0.162208 2:-0.552601 3:-0.559714 4:0.942374 5:-0.301627 6:-0.101777 7:-0.590651 8:-0.888075 9:-0.756696 10:-0.346207 
512 1:0.24058 2:-0.627023 3:-0.74411 4:0.909865 5:-0.446326 6:0.339293 7:-0.837403 8:-0.585503 9:-0.946429 10:-0.434098 
512 1:0.0747226 2:-0.380055 3:-0.567296 4:0.963553 5:-0.155161 6:-0.218372 7:-0.520635 8:-0.933898 9:-0.604911 10:-0.271807 
107.5976762029263 1:0.172108 2:-0.301221 3:-0.556734 4:0.956589 5:-0.251735 6:-0.291772 7:-0.530044 8:-0.943213 9:-0.533482 10:-0.325375 
512 1:0.129499 2:-0.558186 3:-0.599683 4:0.929767 5:-0.199663 6:-0.0103679 7:-0.564803 8:-0.878467 9:-0.785714 10:-0.325772 
512 1:0.295303 2:-0.628704 3:-0.476311 4:0.917811 5:-0.20499 6:-0.0252856 7:-0.46857 8:-0.828456 9:-0.839286 10:-0.225514 
512 1:0.178023 2:-0.55836 3:-0.564497 4:0.924703 5:-0.232089 6:-0.052957 7:-0.566066 8:-0.861188 9:-0.801339 10:-0.388995 
-512 1:0.524613 2:-0.605843 3:-0.74846 4:0.946175 5:-0.331049 6:0.166418 7:-0.741041 8:-0.690529 9:-0.919643 10:-0.929767 
-512 1:0.196225 2:-0.47489 3:-0.790377 4:0.919876 5:-0.0280125 6:0.296194 7:-0.763457 8:-0.633873 9:-0.9375 10:-0.381787 
-512 1:0.336772 2:-0.274144 3:-0.58026 4:0.86598 5:-0.324659 6:0.112158 7:-0.591773 8:-0.618825 9:-0.935268 10:-0.394881 
-157.6553760661721 1:-0.0947771 2:-0.768194 3:-0.24841 4:0.680585 5:-0.186866 6:0.352379 7:-0.349445 8:-0.262418 9:-0.975446 10:0.297665 
-157.4725843680211 1:0.159364 2:0.798783 3:-0.867825 4:0.866983 5:-0.705814 6:0.270089 7:-0.861781 8:-0.634226 9:-0.9375 10:-0.317241 
-512 1:0.223088 2:-0.671473 3:-0.768839 4:0.9186 5:-0.0369883 6:0.282969 7:-0.723515 8:-0.664945 9:-0.930804 10:-0.340652 
-512 1:0.219996 2:-0.637543 3:-0.632054 4:0.923936 5:-0.430237 6:0.227805 7:-0.746071 8:-0.566203 9:-0.948661 10:-0.285629 
-512 1:0.0797255 2:-0.234384 3:-0.853667 4:0.928878 5:-0.226197 6:0.343733 7:-0.805678 8:-0.632354 9:-0.939732 10:-0.249587 
-314.7859950644909 1:-0.236021 2:-0.08037 3:-0.395036 4:0.84469 5:-0.210184 6:0.277522 7:-0.538528 8:-0.448914 9:-0.962054 10:0.398122 
-512 1:-0.292814 2:-0.478853 3:-0.600754 4:0.629716 5:-0.0448545 6:0.5623 7:-0.414659 8:-0.457228 9:-0.96875 10:0.120561 
-512 1:0.383798 2:-0.55883 3:-0.514169 4:0.784264 5:-0.0296773 6:0.000873627 7:-0.447306 8:-0.777305 9:-0.879464 10:-0.57893 
-512 1:0.337106 2:-0.732869 3:-0.71078 4:0.886797 5:-0.59274 6:0.331557 7:-0.828807 8:-0.458567 9:-0.962054 10:-0.232061 
-512 1:0.0780051 2:-0.594737 3:-0.597678 4:0.737293 5:-0.141207 6:0.243118 7:-0.445843 8:-0.597888 9:-0.944196 10:-0.481913 
-0.8186237995937918 1:0.471382 2:-0.815721 3:-0.210089 4:0.720848 5:-0.670771 6:-0.0966923 7:-0.297835 8:-0.559844 9:-0.9375 10:-0.400833 
-512 1:0.132339 2:-0.538697 3:-0.60339 4:0.907067 5:-0.166687 6:0.0499139 7:-0.51652 8:-0.794693 9:-0.875 10:-0.0939091 
-512 1:0.336933 2:-0.874364 3:-0.437717 4:0.766936 5:0.339346 6:0.368955 7:-0.459413 8:-0.421837 9:-0.966518 10:-0.427617 
-512 1:0.258752 2:-0.659331 3:-0.433252 4:0.821976 5:-0.626269 6:0.136057 7:-0.446155 8:-0.5082 9:-0.953125 10:-0.244428 
-329.7863210481603 1:-0.146088 2:-0.439307 3:-0.508555 4:0.446709 5:-0.363683 6:0.369349 7:-0.402776 8:-0.380193 9:-0.96875 10:-0.108194 
-238.9796442127889 1:0.5878 2:-0.832995 3:0.364954 4:0.618084 5:-0.223921 6:-0.137028 7:0.373867 8:-0.446873 9:-0.953125 10:-0.410224 
-317.3894162209647 1:0.263827 2:-0.762779 3:-0.658149 4:0.889302 5:0.000302386 6:0.310883 7:-0.656047 8:-0.500447 9:-0.957589 10:-0.530124 
-6.66011558880034 1:0.649839 2:-0.900868 3:-0.923692 4:0.970929 5:-0.624013 6:0.215771 7:-0.967188 8:-0.725442 9:-0.910714 10:-0.969645 
-224.0488156735542 1:0.49384 2:-0.312148 3:-0.510654 4:1 5:-0.685191 6:-0.94849 7:-0.558753 8:-0.989896 9:0.997768 10:-0.438463 
-512 1:0.259474 2:-0.370745 3:-0.524427 4:0.729266 5:-0.645289 6:0.123829 7:-0.634201 8:-0.599545 9:-0.939732 10:-0.353085 
-171.2984226835135 1:0.794861 2:-0.392066 3:-0.538966 4:0.859035 5:-0.477105 6:0.39326 7:-0.808195 8:-0.0733677 9:-0.984375 10:-0.607235 
-41.26796068992621 1:0.263895 2:-0.597826 3:-0.650513 4:0.82531 5:-0.46409 6:0.181573 7:-0.665491 8:-0.609111 9:-0.939732 10:-0.0727465 
