svm_type c_svc
kernel_type rbf
gamma 2
nr_class 2
total_sv 671
rho -0.112709
label 1 0
nr_sv 334 337
SV
0.5 1:-0.419355 2:0.418403 3:-1 4:1 5:-1 
0.5 1:-0.548387 2:1 3:-1 4:1 5:-1 
0.5 1:-0.729032 2:1 3:-1 4:1 5:-1 
0.5 1:-0.561969 2:0.632675 3:-1 4:1 5:-1 
0.5 1:-0.120235 2:0.36553 3:-1 4:1 5:-1 
0.5 1:-0.270471 2:1 3:-1 4:1 5:-1 
0.5 1:0.00848896 2:0.816338 3:-1 4:1 5:-1 
0.5 1:0.00645161 2:0.651042 3:-1 4:1 5:-1 
0.5 1:-0.0322581 2:1 3:-1 4:1 5:-1 
0.5 1:0.410138 2:1 3:-1 4:1 5:-1 
0.5 1:-0.1067 2:0.597356 3:-1 4:1 5:-1 
0.5 1:-0.264516 2:1 3:-1 4:1 5:-1 
0.5 1:-0.40176 2:0.682765 3:-1 4:1 5:-1 
0.5 1:-0.0752688 2:0.612269 3:-1 4:1 5:-1 
0.5 1:-0.245161 2:0.651042 3:-1 4:1 5:-1 
0.5 1:0.354839 2:1 3:-1 4:1 5:-1 
0.5 1:0.0645161 2:1 3:-1 4:1 5:-1 
0.5 1:-0.198157 2:0.501488 3:-1 4:1 5:-1 
0.5 1:-0.0752688 2:0.515336 3:-1 4:1 5:-1 
0.5 1:-0.0730051 2:0.449013 3:-1 4:1 5:-1 
0.5 1:-0.480475 2:0.632675 3:-1 4:1 5:-1 
0.5 1:-0.290323 2:1 3:-1 4:1 5:-1 
0.5 1:0.0645161 2:1 3:-1 4:1 5:-1 
0.5 1:-0.316129 2:0.302083 3:-1 4:1 5:-1 
0.5 1:-0.33871 2:0.709201 3:-1 4:1 5:-1 
0.5 1:-0.431842 2:0.774866 3:-1 4:1 5:-1 
0.5 1:-0.225806 2:1 3:-1 4:1 5:-1 
0.5 1:-0.214421 2:0.79473 3:-1 4:1 5:-1 
0.5 1:-0.177419 2:0.345703 3:-1 4:1 5:-1 
0.5 1:-0.419355 2:1 3:-1 4:1 5:-1 
0.5 1:-0.389578 2:0.731571 3:-1 4:1 5:-1 
0.5 1:0.0451613 2:1 3:-1 4:1 5:-1 
0.5 1:-0.303226 2:0.476562 3:-1 4:1 5:-1 
0.5 1:-0.121588 2:1 3:-1 4:1 5:-1 
0.5 1:-0.212903 2:0.534722 3:-1 4:1 5:-1 
0.5 1:-0.454545 2:0.682765 3:-1 4:1 5:-1 
0.5 1:0.00460829 2:1 3:-1 4:1 5:-1 
0.5 1:-0.121588 2:0.597356 3:-1 4:1 5:-1 
0.5 1:-0.264516 2:-0.395833 3:-1 4:1 5:-1 
0.5 1:-0.243402 2:0.682765 3:-1 4:1 5:-1 
0.5 1:-0.538462 2:1 3:-1 4:1 5:-1 
0.5 1:-0.239631 2:0.626116 3:-1 4:1 5:-1 
0.5 1:-0.0322581 2:1 3:-1 4:1 5:-1 
0.5 1:-0.185296 2:0.513081 3:-1 4:1 5:-1 
0.5 1:0.0322581 2:1 3:-1 4:1 5:-1 
0.5 1:0.16129 2:0.806134 3:-1 4:1 5:-1 
0.5 1:-0.198157 2:1 3:-1 4:1 5:-1 
0.5 1:-0.240695 2:0.328926 3:-1 4:1 5:-1 
0.5 1:-0.0875576 2:0.750744 3:-1 4:1 5:-1 
0.5 1:0.0288625 2:1 3:-1 4:1 5:-1 
0.5 1:-0.0599078 2:0.750744 3:-1 4:1 5:-1 
0.5 1:0.0132827 2:1 3:-1 4:1 5:-1 
0.5 1:0.00645161 2:1 3:-1 4:1 5:-1 
0.5 1:0.112903 2:1 3:-1 4:1 5:-1 
0.5 1:-0.278592 2:1 3:-1 4:1 5:-1 
0.5 1:-0.170507 2:1 3:-1 4:1 5:-1 
0.5 1:-0.665689 2:1 3:-1 4:1 5:-1 
0.1803955583228333 1:-0.0537634 2:0.418403 3:-1 4:1 5:-1 
0.5 1:0.319648 2:1 3:-1 4:1 5:-1 
0.5 1:-0.100569 2:1 3:-1 4:1 5:-1 
0.5 1:0.42522 2:1 3:-1 4:1 5:-1 
0.5 1:-0.0322581 2:0.463141 3:-1 4:1 5:-1 
0.5 1:-0.585253 2:1 3:-1 4:1 5:-1 
0.5 1:1 2:1 3:-1 4:1 5:-1 
0.5 1:-0.253456 2:0.501488 3:-1 4:1 5:-1 
0.5 1:-0.0322581 2:1 3:-1 4:1 5:-1 
0.5 1:-0.259962 2:0.79473 3:-1 4:1 5:-1 
0.5 1:-0.419355 2:1 3:-1 4:1 5:-1 
0.5 1:-0.419355 2:1 3:-1 4:1 5:-1 
0.5 1:-0.225806 2:1 3:-1 4:1 5:-1 
0.5 1:-0.300248 2:0.731571 3:-1 4:1 5:-1 
0.5 1:0.806452 2:1 3:-1 4:1 5:-1 
0.5 1:-0.341935 2:0.767361 3:-1 4:1 5:-1 
0.5 1:-0.182796 2:1 3:-1 4:1 5:-1 
0.5 1:-0.237192 2:0.79473 3:-1 4:1 5:-1 
0.5 1:-0.548387 2:0.612269 3:-1 4:1 5:-1 
0.5 1:-0.776675 2:0.731571 3:-1 4:1 5:-1 
0.5 1:-0.419355 2:1 3:-1 4:1 5:-1 
0.5 1:0.18894 2:1 3:-1 4:1 5:-1 
0.5 1:-0.245161 2:0.825521 3:-1 4:1 5:-1 
0.5 1:0.169705 2:0.848279 3:-1 4:1 5:-1 
0.4128660677771443 1:0.266862 2:0.841383 3:-1 4:1 5:-1 
0.5 1:-0.529954 2:1 3:-1 4:1 5:-1 
0.5 1:0.078341 2:1 3:-1 4:1 5:-1 
0.1585786101691546 1:-0.466276 2:-0.0574495 3:-1 4:1 5:-1 
0.5 1:0.00460829 2:0.833829 3:-1 4:1 5:-1 
0.5 1:-0.185059 2:0.816338 3:-1 4:1 5:-1 
0.5 1:0.42522 2:1 3:-1 4:1 5:-1 
0.5 1:-0.677419 2:1 3:-1 4:1 5:-1 
0.5 1:-0.419355 2:1 3:-1 4:1 5:-1 
0.5 1:-0.187097 2:0.651042 3:-1 4:1 5:-1 
0.5 1:-0.298387 2:1 3:-1 4:1 5:-1 
0.5 1:0.180645 2:0.825521 3:-1 4:1 5:-1 
0.5 1:-0.591398 2:1 3:-1 4:1 5:-1 
0.5 1:0.0107527 2:1 3:-1 4:1 5:-1 
0.5 1:0.354839 2:1 3:-1 4:1 5:-1 
0.5 1:-0.651613 2:0.302083 3:-1 4:1 5:-1 
0.5 1:-0.362707 2:0.829776 3:-1 4:1 5:-1 
0.5 1:-0.0875576 2:1 3:-1 4:1 5:-1 
0.5 1:-0.125161 2:0.860417 3:-1 4:1 5:-1 
0.5 1:-0.348974 2:0.524148 3:-1 4:1 5:-1 
0.5 1:0.13073 2:0.816338 3:-1 4:1 5:-1 
0.5 1:-0.225806 2:1 3:-1 4:1 5:-1 
0.5 1:-0.462366 2:0.612269 3:-1 4:1 5:-1 
0.5 1:-0.102639 2:1 3:-1 4:1 5:-1 
0.5 1:-0.435484 2:0.418403 3:-1 4:1 5:-1 
0.5 1:-0.11828 2:0.806134 3:-1 4:1 5:-1 
0.5 1:0.0322581 2:1 3:-1 4:1 5:-1 
0.5 1:0.078341 2:1 3:-1 4:1 5:-1 
0.5 1:0.115207 2:0.833829 3:-1 4:1 5:-1 
0.5 1:-0.396584 2:0.486826 3:-0.78022 4:0.0428548 5:-0.894737 
0.5 1:-0.509377 2:0.513081 3:-0.934066 4:0.0189759 5:-0.894737 
0.5 1:-0.16888 2:0.315768 3:-0.406593 4:0.0365696 5:-0.894737 
0.5 1:-0.243402 2:1 3:-0.736264 4:-0.067585 5:-0.894737 
0.5 1:-0.341935 2:0.651042 3:-0.824176 4:-0.0280448 5:-0.894737 
0.5 1:-0.272886 2:0.717061 3:-0.450549 4:-0.067585 5:-0.894737 
0.5 1:0.1261 2:0.603456 3:-1 4:0.0419109 5:-0.894737 
0.5 1:-0.387097 2:0.709201 3:-0.868132 4:0.0294682 5:-0.894737 
0.5 1:-0.14956 2:0.57702 3:-0.758242 4:0.00604153 5:-0.894737 
0.5 1:-0.48129 2:0.720833 3:-0.626374 4:-0.0211683 5:-0.894737 
0.5 1:-0.129032 2:0.672852 3:-0.824176 4:-0.0307717 5:-0.894737 
0.5 1:-0.408602 2:0.515336 3:-0.956044 4:-0.0331468 5:-0.894737 
0.5 1:-0.264516 2:0.651042 3:-0.956044 4:-0.00827474 5:-0.894737 
0.5 1:-0.434839 2:0.720833 3:-0.758242 4:-0.067585 5:-0.894737 
0.5 1:-0.136879 2:0.528435 3:-0.934066 4:0.0658631 5:-0.894737 
0.5 1:-0.697581 2:0.127604 3:-0.604396 4:0.0213804 5:-0.894737 
0.5 1:-0.389578 2:0.552618 3:-0.67033 4:0.0266137 5:-0.894737 
0.5 1:-0.189964 2:0.612269 3:-0.846154 4:-0.0231023 5:-0.894737 
0.5 1:-0.391705 2:1 3:-0.868132 4:-0.067585 5:-0.894737 
0.5 1:-0.476703 2:0.483025 3:-0.824176 4:0.0252485 5:-0.894737 
0.5 1:-0.270471 2:0.731571 3:-0.604396 4:-0.067585 5:-0.894737 
0.0594984000206852 1:-0.20241 2:0.156364 3:-0.450549 4:0.00977621 5:-0.894737 
0.5 1:-0.181818 2:0.444839 3:-0.736264 4:-0.00987772 5:-0.894737 
0.5 1:-0.189964 2:0.741512 3:-0.934066 4:-0.0248816 5:-0.894737 
0.5 1:0.016129 2:1 3:-0.912088 4:-0.067585 5:-0.894737 
0.5 1:-0.103943 2:1 3:-0.89011 4:-0.067585 5:-0.894737 
0.5 1:-0.435155 2:0.359056 3:-0.362637 4:-0.0142058 5:-0.894737 
0.3641550306882217 1:-0.189516 2:-0.0904948 3:-0.340659 4:0.0537315 5:-0.894737 
0.5 1:0.133641 2:1 3:-0.978022 4:-0.067585 5:-0.894737 
0.5 1:-0.598015 2:1 3:-0.978022 4:-0.067585 5:-0.894737 
0.5 1:-0.0208729 2:0.589461 3:-0.692308 4:0.0391735 5:-0.894737 
0.5 1:-0.278592 2:1 3:-0.648352 4:-0.067585 5:-0.894737 
0.5 1:-0.477419 2:0.825521 3:-0.78022 4:-0.0113963 5:-0.894737 
0.5 1:-0.516129 2:0.825521 3:-0.868132 4:-0.067585 5:-0.894737 
0.3751896157244782 1:-0.356582 2:0.434122 3:-0.934066 4:0.0701679 5:-0.894737 
0.5 1:-0.520737 2:0.418403 3:-0.956044 4:-0.0370826 5:-0.894737 
0.5 1:-0.0322581 2:1 3:-0.78022 4:-0.067585 5:-0.894737 
0.2980476502978821 1:0.387097 2:0.418403 3:-0.516484 4:-0.067585 5:-0.894737 
0.5 1:-0.0856507 2:0.639009 3:-0.846154 4:-0.067585 5:-0.894737 
0.5 1:-0.105991 2:0.667659 3:-0.89011 4:-0.0113963 5:-0.894737 
0.5 1:-0.267882 2:1 3:-0.934066 4:-0.067585 5:-0.894737 
0.5 1:-0.40135 2:0.431928 3:-0.494505 4:-0.00827474 5:-0.894737 
0.5 1:-0.136476 2:0.731571 3:-0.78022 4:-0.0231023 5:-0.894737 
0.5 1:0.182796 2:1 3:-0.758242 4:-0.067585 5:-0.894737 
0.5 1:-0.419355 2:1 3:-1 4:-0.067585 5:-0.894737 
0.5 1:-0.221856 2:0.572704 3:-0.978022 4:0.00689766 5:-0.894737 
0.5 1:0.190616 2:0.682765 3:-0.875674 4:-0.375998 5:-0.789474 
0.5 1:-0.0909091 2:0.894255 3:-0.592368 4:-0.423447 5:-0.789474 
0.5 1:-0.709677 2:1 3:-0.905044 4:-0.423447 5:-0.789474 
0.5 1:-0.366224 2:0.384191 3:-0.627021 4:-0.338718 5:-0.789474 
0.5 1:0.0288625 2:0.510234 3:-0.65389 4:-0.365347 5:-0.789474 
0.5 1:-0.171613 2:0.58125 3:-0.783666 4:-0.37492 5:-0.789474 
0.5 1:-0.0674487 2:0.524148 3:-0.819358 4:-0.385988 5:-0.789474 
0.5 1:-0.23205 2:0.324597 3:-0.61624 4:-0.366509 5:-0.789474 
0.4005776505335958 1:-0.228695 2:0.322917 3:-0.660781 4:-0.344366 5:-0.789474 
0.5 1:-0.456576 2:0.328926 3:-0.802334 4:-0.321772 5:-0.789474 
0.5 1:-0.391705 2:0.418403 3:-0.96411 4:-0.382777 5:-0.789474 
0.5 1:0.251152 2:0.626116 3:-0.612898 4:-0.380743 5:-0.789474 
0.5 1:-0.194589 2:0.324597 3:-0.542726 4:-0.323805 5:-0.789474 
0.5 1:-0.0737327 2:0.626116 3:-0.735451 4:-0.366509 5:-0.789474 
0.5 1:-0.264516 2:0.720833 3:-0.958558 4:-0.392502 5:-0.789474 
0.5 1:-0.464896 2:1 3:-0.909679 4:-0.423447 5:-0.789474 
0.5 1:-0.148387 2:0.476562 3:-0.462449 4:-0.381581 5:-0.789474 
0.5 1:-0.21757 2:0.146166 3:-0.0116676 4:-0.363301 5:-0.789474 
0.5 1:-0.189516 2:0.890951 3:-0.945177 4:-0.423447 5:-0.789474 
0.5 1:-0.167742 2:0.476562 3:-0.544136 4:-0.360648 5:-0.789474 
0.5 1:-0.272727 2:0.36553 3:-0.657632 4:-0.331186 5:-0.789474 
0.5 1:-0.612903 2:0.651042 3:-0.917116 4:-0.364136 5:-0.789474 
0.5 1:0.169032 2:0.58125 3:-0.603041 4:-0.37492 5:-0.789474 
0.5 1:-0.0664137 2:0.486826 3:-0.542726 4:-0.374362 5:-0.789474 
0.5 1:-0.18332 2:0.744665 3:-0.822959 4:-0.404717 5:-0.789474 
0.5 1:0.00724161 2:0.64392 3:-0.745375 4:-0.358745 5:-0.789474 
0.5 1:-0.14956 2:0.471275 3:-0.52522 4:-0.398028 5:-0.789474 
0.5 1:-0.210918 2:0.731571 3:-0.909679 4:-0.364136 5:-0.789474 
0.5 1:-0.36129 2:0.476562 3:-0.838163 4:-0.297848 5:-0.789474 
0.5 1:-0.207661 2:0.236654 3:-0.212599 4:-0.352274 5:-0.789474 
0.5 1:-0.196774 2:0.738281 3:-0.822959 4:-0.384975 5:-0.789474 
0.5 1:-0.1669 2:0.620697 3:-0.678322 4:-0.371369 5:-0.789474 
0.5 1:-0.255914 2:0.457176 3:-0.551735 4:-0.329799 5:-0.789474 
0.5 1:-0.310484 2:0.345703 3:-0.551256 4:-0.341325 5:-0.789474 
0.5 1:-0.333333 2:0.612269 3:-0.835532 4:-0.334481 5:-0.789474 
0.5 1:-0.237192 2:0.315768 3:-0.657632 4:-0.35401 5:-0.789474 
0.5 1:-0.668203 2:1 3:-0.88463 4:-0.423447 5:-0.789474 
0.5 1:-0.379989 2:0.3494 3:-0.451772 4:-0.393792 5:-0.789474 
0.5 1:0.0868486 2:0.731571 3:-0.693356 4:-0.383907 5:-0.789474 
0.5 1:-0.337243 2:0.36553 3:-0.870441 4:-0.482757 5:-0.684211 
0.5 1:-0.279199 2:0.578843 3:-0.596537 4:-0.559511 5:-0.684211 
0.5 1:-0.218457 2:0.381593 3:-0.564441 4:-0.543892 5:-0.684211 
0.5 1:-0.25044 2:0.555871 3:-0.532353 4:-0.579136 5:-0.684211 
0.5 1:-0.343454 2:0.247345 3:-0.670513 4:-0.467929 5:-0.684211 
0.5 1:-0.133499 2:0.409455 3:-0.69172 4:-0.522297 5:-0.684211 
0.5 1:-0.273118 2:0.37963 3:-0.815136 4:-0.54367 5:-0.684211 
0.5 1:-0.447581 2:-0.0904948 3:-0.312682 4:-0.5205 5:-0.684211 
0.5 1:-0.144786 2:0.229046 3:-0.486918 4:-0.51374 5:-0.684211 
0.5 1:0.0907021 2:0.466299 3:-0.452421 4:-0.534653 5:-0.684211 
0.5 1:-0.00948767 2:0.538143 3:-0.816119 4:-0.556141 5:-0.684211 
0.5 1:-0.394109 2:0.317255 3:-0.779124 4:-0.485963 5:-0.684211 
0.5 1:-0.102639 2:0.603456 3:-0.738102 4:-0.54663 5:-0.684211 
0.5 1:-0.369727 2:0.23945 3:-0.726376 4:-0.496369 5:-0.684211 
0.5 1:-0.083871 2:0.37963 3:-0.508188 4:-0.54367 5:-0.684211 
0.5 1:-0.275576 2:0.202381 3:-0.280073 4:-0.551952 5:-0.684211 
0.5 1:0.122581 2:0.689815 3:-0.75062 4:-0.56232 5:-0.684211 
0.4540176268181971 1:0.18894 2:0.626116 3:-0.844592 4:-0.537322 5:-0.684211 
0.5 1:-0.239437 2:0.0661678 3:-0.485156 4:-0.50899 5:-0.684211 
0.5 1:-0.164437 2:0.659553 3:-0.701269 4:-0.558097 5:-0.684211 
0.5 1:-0.133641 2:0.750744 3:-0.595342 4:-0.601378 5:-0.684211 
0.5 1:-0.228879 2:0.390708 3:-0.817768 4:-0.519256 5:-0.684211 
0.5 1:-0.375367 2:0.0482955 3:-0.460754 4:-0.551334 5:-0.684211 
0.5 1:-0.280242 2:0.400228 3:-0.603176 4:-0.510734 5:-0.684211 
0.5 1:-0.196774 2:0.302083 3:-0.507575 4:-0.509632 5:-0.684211 
0.5 1:-0.174638 2:0.0373563 3:-0.279486 4:-0.482757 5:-0.684211 
0.5 1:-0.290323 2:0.563802 3:-0.930499 4:-0.537831 5:-0.684211 
0.5 1:-0.182796 2:0.709201 3:-0.765339 4:-0.585202 5:-0.684211 
0.5 1:-0.288018 2:0.314546 3:-0.603176 4:-0.518343 5:-0.684211 
0.5 1:-0.228458 2:0.330765 3:-0.489868 4:-0.538046 5:-0.684211 
0.5 1:-0.0777989 2:0.589461 3:-0.733757 4:-0.542067 5:-0.684211 
0.5 1:-0.367742 2:0.651042 3:-0.846154 4:-0.542067 5:-0.684211 
0.5 1:-0.132369 2:0.639009 3:-0.913864 4:-0.667075 5:-0.578947 
0.5 1:-0.117231 2:0.404217 3:-0.890904 4:-0.645337 5:-0.578947 
0.5 1:-0.217907 2:0.216624 3:-0.717038 4:-0.618234 5:-0.578947 
0.5 1:-0.0924731 2:0.457176 3:-0.782873 4:-0.64071 5:-0.578947 
0.3199956886578561 1:-0.135847 2:-0.253301 3:-0.240896 4:-0.581434 5:-0.578947 
0.5 1:-0.333333 2:0.159915 3:-0.659064 4:-0.58315 5:-0.578947 
0.5 1:-0.281834 2:0.219435 3:-0.79876 4:-0.635757 5:-0.578947 
0.5 1:-0.266317 2:0.513081 3:-0.702395 4:-0.66197 5:-0.578947 
0.5 1:-0.329593 2:0.241395 3:-0.646817 4:-0.636964 5:-0.578947 
0.5 1:-0.145161 2:0.200304 3:-0.498516 4:-0.633117 5:-0.578947 
0.5 1:-0.0705424 2:0.386447 3:-0.524624 4:-0.656892 5:-0.578947 
0.5 1:-0.446615 2:0.0661678 3:-0.771767 4:-0.593165 5:-0.578947 
0.5 1:-0.046595 2:0.439943 3:-0.821125 4:-0.664177 5:-0.578947 
0.1350735511326501 1:-0.412957 2:-0.182421 3:-0.507849 4:-0.617391 5:-0.578947 
0.5 1:-0.512792 2:0.87967 3:-0.924375 4:-0.692885 5:-0.578947 
0.325250082221322 1:-0.302053 2:0.0482955 3:-0.621263 4:-0.610274 5:-0.578947 
0.5 1:-0.182796 2:0.612269 3:-0.868425 4:-0.663653 5:-0.578947 
0.5 1:-0.278117 2:0.339809 3:-0.465685 4:-0.644081 5:-0.578947 
0.5 1:-0.24665 2:0.516827 3:-0.681812 4:-0.677634 5:-0.578947 
0.5 1:-0.167742 2:0.418403 3:-0.576559 4:-0.648351 5:-0.578947 
0.5 1:-0.120378 2:0.00702913 3:-0.297473 4:-0.635346 5:-0.578947 
0.5 1:-0.241935 2:0.200304 3:-0.578022 4:-0.621575 5:-0.578947 
0.5 1:0.299539 2:0.750744 3:-0.898234 4:-0.675287 5:-0.578947 
0.5 1:-0.307918 2:0.206913 3:-0.415269 4:-0.649524 5:-0.578947 
0.5 1:-0.511036 2:0.540844 3:-0.843724 4:-0.682255 5:-0.578947 
0.5 1:-0.354839 2:0.418403 3:-0.659972 4:-0.651198 5:-0.578947 
0.5 1:-0.263267 2:-0.181956 3:-0.240997 4:-0.593566 5:-0.578947 
0.5 1:-0.0674487 2:0.456169 3:-0.692182 4:-0.655578 5:-0.578947 
0.5 1:-0.230415 2:0.210689 3:-0.6602 4:-0.616159 5:-0.578947 
0.5 1:-0.29948 2:-0.0806452 3:-0.441801 4:-0.730371 5:-0.368421 
0.5 1:-0.152572 2:0.198339 3:-0.676259 4:-0.760579 5:-0.368421 
0.5 1:-0.272053 2:0.135324 3:-0.577454 4:-0.761964 5:-0.368421 
0.5 1:-0.152204 2:-0.0812793 3:-0.486467 4:-0.752333 5:-0.368421 
0.5 1:-0.168265 2:0.18262 3:-0.665712 4:-0.751198 5:-0.368421 
0.5 1:-0.0633388 2:0.159443 3:-0.596549 4:-0.771487 5:-0.368421 
0.5 1:-0.179088 2:0.217852 3:-0.609765 4:-0.762363 5:-0.368421 
0.5 1:-0.108722 2:0.224537 3:-0.740636 4:-0.776888 5:-0.368421 
0.5 1:-0.382488 2:0.446098 3:-0.669389 4:-0.795615 5:-0.368421 
0.5 1:-0.145555 2:0.0637703 3:-0.421678 4:-0.765752 5:-0.368421 
0.5 1:-0.431842 2:0.0431788 3:-0.794594 4:-0.728471 5:-0.368421 
0.5 1:-0.196885 2:0.278017 3:-0.739574 4:-0.785939 5:-0.368421 
0.5 1:-0.299355 2:0.197396 3:-0.876309 4:-0.766764 5:-0.368421 
0.5 1:-0.0678078 2:0.323448 3:-0.749137 4:-0.779952 5:-0.368421 
0.5 1:-0.155425 2:0.36553 3:-0.831038 4:-0.762363 5:-0.368421 
0.5 1:-0.155087 2:0.261819 3:-0.757611 4:-0.781788 5:-0.368421 
0.5 1:-0.131007 2:0.216624 3:-0.564224 4:-0.777971 5:-0.368421 
0.5 1:-0.245161 2:0.360243 3:-0.909437 4:-0.780346 5:-0.368421 
0.5 1:-0.139785 2:0.273003 3:-0.711556 4:-0.776633 5:-0.368421 
0.5 1:-0.37469 2:0.0940505 3:-0.753098 4:-0.770725 5:-0.368421 
0.5 1:-0.190616 2:0.259785 3:-0.608421 4:-0.878539 5:-0.0526316 
0.5 1:-0.238236 2:0.29568 3:-0.736667 4:-0.877477 5:-0.0526316 
0.5 1:-0.253456 2:0.194712 3:-0.619101 4:-0.872849 5:-0.0526316 
0.5 1:-0.160484 2:0.0185547 3:-0.647803 4:-0.849243 5:-0.0526316 
0.5 1:-0.0514927 2:0.0463251 3:-0.579559 4:-0.863255 5:-0.0526316 
0.5 1:-0.195909 2:0.120512 3:-0.549992 4:-0.865953 5:-0.0526316 
0.5 1:-0.295285 2:-0.0513488 3:-0.566994 4:-0.845257 5:-0.0526316 
0.5 1:-0.435945 2:0.00297619 3:-0.781101 4:-0.849057 5:-0.0526316 
0.09296079630190861 1:-0.230881 2:-0.333099 3:-0.420163 4:-0.827188 5:-0.0526316 
0.5 1:-0.08356 2:-0.135166 3:-0.391498 4:-0.858742 5:-0.0526316 
0.5 1:-0.00322581 2:0.171224 3:-0.652775 4:-0.869149 5:-0.0526316 
0.5 1:-0.211393 2:-0.336436 3:-0.3704 4:-0.824098 5:-0.0526316 
0.5 1:-0.306656 2:0.00613133 3:-0.710557 4:-0.85363 5:-0.0526316 
0.5 1:-0.29209 2:0.0917523 3:-0.831987 4:-0.858389 5:-0.0526316 
0.5 1:-0.287232 2:-0.149264 3:-0.436728 4:-0.847303 5:-0.0526316 
0.5 1:-0.232532 2:-0.522482 3:-0.079134 4:-0.832444 5:-0.0526316 
0.5 1:-0.326452 2:-0.046875 3:-0.697373 4:-0.842347 5:-0.0526316 
0.5 1:-0.103484 2:0.190417 3:-0.699134 4:-0.874946 5:-0.0526316 
0.5 1:-0.193903 2:0.0413233 3:-0.651713 4:-0.949691 5:0.473684 
0.5 1:-0.376344 2:0.0420752 3:-0.614054 4:-0.950507 5:0.473684 
0.5 1:-0.214421 2:0.127604 3:-0.674818 4:-0.955146 5:0.473684 
0.4741720764221682 1:-0.223377 2:-0.226464 3:-0.650016 4:-0.939561 5:0.473684 
0.5 1:-0.2583 2:-0.337249 3:-0.519432 4:-0.927128 5:0.473684 
0.5 1:-0.132098 2:-0.215828 3:-0.569779 4:-0.936481 5:0.473684 
0.5 1:-0.340271 2:-0.163194 3:-0.592748 4:-0.94576 5:0.473684 
0.5 1:-0.314611 2:-0.272672 3:-0.51911 4:-0.934833 5:0.473684 
0.5 1:-0.229458 2:-0.349744 3:-0.37399 4:-0.924208 5:0.473684 
0.5 1:-0.152074 2:-0.0177951 3:-0.717767 4:-0.942586 5:0.473684 
0.5 1:-0.220535 2:-0.194877 3:-0.669552 4:-0.933024 5:0.473684 
0.5 1:-0.354575 2:-0.367347 3:-0.539917 4:-0.929773 5:0.473684 
0.5 1:-0.292853 2:-0.026348 3:-0.674527 4:-0.946695 5:0.473684 
0.5 1:-0.19399 2:-0.362372 3:-0.507413 4:-0.923252 5:0.473684 
0.5 1:-0.389578 2:-0.0438925 3:-0.712791 4:-0.951164 5:0.473684 
0.2252443277336217 1:-0.254812 2:-0.702004 3:-0.208487 4:-0.908024 5:0.473684 
0.5 1:-0.193548 2:-0.14502 3:-0.625573 4:-0.933239 5:0.473684 
0.5 1:-0.260894 2:-0.163194 3:-0.715675 4:-0.934139 5:0.473684 
0.5 1:-0.201756 2:-0.135663 3:-0.71628 4:-0.944129 5:0.473684 
0.5 1:-0.101528 2:0.118421 3:-0.746389 4:-0.950723 5:0.473684 
0.5 1:-0.329875 2:-0.157349 3:-0.684105 4:-0.981053 5:1 
0.5 1:-0.196373 2:-0.125672 3:-0.631378 4:-0.984837 5:1 
0.5 1:-0.240695 2:-0.354349 3:-0.640715 4:-0.977778 5:1 
0.5 1:-0.129032 2:-0.261437 3:-0.645724 4:-0.980398 5:1 
0.5 1:-0.359971 2:-0.229285 3:-0.718681 4:-0.977842 5:1 
0.5 1:-0.223725 2:-0.703517 3:-0.308914 4:-0.961575 5:1 
0.5 1:-0.123255 2:-0.302083 3:-0.68566 4:-0.974397 5:1 
0.5 1:-0.272389 2:-0.502295 3:-0.569797 4:-0.968042 5:1 
0.5 1:-0.143286 2:-0.271399 3:-0.710791 4:-0.979589 5:1 
0.5 1:-0.248523 2:-0.261493 3:-0.634272 4:-0.979742 5:1 
0.5 1:-0.435877 2:-0.212843 3:-0.738988 4:-0.985509 5:1 
0.5 1:-0.283378 2:-0.532253 3:-0.514435 4:-0.961013 5:1 
0.5 1:-0.298387 2:-0.398399 3:-0.639829 4:-0.97143 5:1 
0.07709637067237683 1:-0.173282 2:-0.362105 3:-0.690906 4:-0.975683 5:1 
0.5 1:-0.0922731 2:-0.109092 3:-0.751386 4:-0.985344 5:1 
0.5 1:-0.374242 2:-0.666079 3:-0.39473 4:-0.959287 5:1 
0.5 1:-0.0270446 2:-0.280689 3:-0.722598 4:-0.975032 5:1 
0.5 1:-0.287221 2:-0.241486 3:-0.653221 4:-0.979813 5:1 
0.5 1:-0.125534 2:-0.282317 3:-0.654896 4:-0.98215 5:1 
0.5 1:-0.426146 2:-0.428484 3:-0.538258 4:-0.968162 5:1 
-0.5 1:-0.152392 2:1 3:-1 4:1 5:-1 
-0.5 1:0.268817 2:1 3:-1 4:1 5:-1 
-0.5 1:-0.341935 2:1 3:-1 4:1 5:-1 
-0.5 1:0.0967742 2:1 3:-1 4:1 5:-1 
-0.5 1:-0.771261 2:1 3:-1 4:1 5:-1 
-0.5 1:-0.173021 2:0.78851 3:-1 4:1 5:-1 
-0.5 1:-0.354839 2:1 3:-1 4:1 5:-1 
-0.5 1:-0.0443548 2:0.890951 3:-1 4:1 5:-1 
-0.5 1:-0.290323 2:1 3:-1 4:1 5:-1 
-0.4166941825310682 1:-0.454545 2:1 3:-1 4:1 5:-1 
-0.5 1:-0.393548 2:1 3:-1 4:1 5:-1 
-0.5 1:-0.364055 2:1 3:-1 4:1 5:-1 
-0.5 1:-0.322581 2:0.709201 3:-1 4:1 5:-1 
-0.5 1:-0.286636 2:0.60119 3:-1 4:1 5:-1 
-0.5 1:0.0967742 2:1 3:-1 4:1 5:-1 
-0.5 1:-0.34523 2:0.480275 3:-1 4:1 5:-1 
-0.5 1:-0.270471 2:0.597356 3:-1 4:1 5:-1 
-0.5 1:-0.0918114 2:1 3:-1 4:1 5:-1 
-0.5 1:-0.212903 2:1 3:-1 4:1 5:-1 
-0.5 1:-0.548387 2:0.36553 3:-1 4:1 5:-1 
-0.5 1:-0.806452 2:1 3:-1 4:1 5:-1 
-0.5 1:-0.198157 2:1 3:-1 4:1 5:-1 
-0.5 1:-0.198157 2:1 3:-1 4:1 5:-1 
-0.5 1:-0.612903 2:0.612269 3:-1 4:1 5:-1 
-0.5 1:-0.148387 2:1 3:-1 4:1 5:-1 
-0.5 1:-0.243402 2:0.444839 3:-1 4:1 5:-1 
-0.5 1:0.319648 2:0.682765 3:-1 4:1 5:-1 
-0.5 1:-0.129032 2:1 3:-1 4:1 5:-1 
-0.5 1:-0.179088 2:0.639009 3:-1 4:1 5:-1 
-0.5 1:-0.083871 2:0.767361 3:-1 4:1 5:-1 
-0.5 1:-0.16129 2:1 3:-1 4:1 5:-1 
-0.5 1:-0.322581 2:1 3:-1 4:1 5:-1 
-0.5 1:0.0967742 2:0.709201 3:-1 4:1 5:-1 
-0.5 1:-0.24618 2:0.540844 3:-1 4:1 5:-1 
-0.5 1:0.354839 2:1 3:-1 4:1 5:-1 
-0.5 1:-0.225806 2:1 3:-1 4:1 5:-1 
-0.5 1:0.225806 2:1 3:-1 4:1 5:-1 
-0.3396887614457801 1:-0.685484 2:1 3:-1 4:1 5:-1 
-0.5 1:0.016129 2:1 3:-1 4:1 5:-1 
-0.5 1:-0.187097 2:1 3:-1 4:1 5:-1 
-0.5 1:-0.348974 2:0.682765 3:-1 4:1 5:-1 
-0.5 1:-0.243402 2:1 3:-1 4:1 5:-1 
-0.5 1:-0.271889 2:0.556878 3:-1 4:1 5:-1 
-0.5 1:-0.109677 2:1 3:-1 4:1 5:-1 
-0.5 1:-0.177419 2:1 3:-1 4:1 5:-1 
-0.5 1:-0.354839 2:1 3:-1 4:1 5:-1 
-0.5 1:-0.129032 2:1 3:-1 4:1 5:-1 
-0.5 1:-0.327189 2:0.501488 3:-1 4:1 5:-1 
-0.5 1:0.509677 2:0.767361 3:-1 4:1 5:-1 
-0.5 1:0.16129 2:1 3:-1 4:1 5:-1 
-0.5 1:-0.00806452 2:0.781901 3:-1 4:1 5:-1 
-0.5 1:-0.419355 2:1 3:-1 4:1 5:-1 
-0.5 1:-0.419355 2:0.865785 3:-1 4:1 5:-1 
-0.5 1:-0.237903 2:0.454753 3:-1 4:1 5:-1 
-0.5 1:-0.322581 2:1 3:-1 4:1 5:-1 
-0.5 1:-1 2:1 3:-1 4:1 5:-1 
-0.5 1:-0.496774 2:0.651042 3:-1 4:1 5:-1 
-0.5 1:0.225806 2:1 3:-1 4:1 5:-1 
-0.5 1:-0.0564516 2:0.672852 3:-1 4:1 5:-1 
-0.5 1:-0.147341 2:0.622748 3:-1 4:1 5:-1 
-0.5 1:0.0815939 2:0.79473 3:-1 4:1 5:-1 
-0.5 1:-0.333333 2:0.418403 3:-1 4:1 5:-1 
-0.5 1:-0.5449 2:0.528435 3:-1 4:1 5:-1 
-0.5 1:-0.0875576 2:0.875372 3:-1 4:1 5:-1 
-0.5 1:-0.0709677 2:1 3:-1 4:1 5:-1 
-0.5 1:-0.290323 2:0.709201 3:-1 4:1 5:-1 
-0.5 1:-0.300248 2:1 3:-1 4:1 5:-1 
-0.5 1:-0.129032 2:0.563802 3:-1 4:1 5:-1 
-0.5 1:0.311828 2:1 3:-1 4:1 5:-1 
-0.5 1:-0.157495 2:0.589461 3:-1 4:1 5:-1 
-0.5 1:-1 2:1 3:-1 4:1 5:-1 
-0.5 1:0.83871 2:1 3:-1 4:1 5:-1 
-0.5 1:-0.384164 2:1 3:-1 4:1 5:-1 
-0.5 1:-0.0981469 2:0.406028 3:-1 4:1 5:-1 
-0.5 1:0.258065 2:1 3:-1 4:1 5:-1 
-0.5 1:-0.100569 2:1 3:-1 4:1 5:-1 
-0.5 1:-0.345622 2:0.833829 3:-1 4:1 5:-1 
-0.5 1:-0.383346 2:0.513081 3:-1 4:1 5:-1 
-0.5 1:-0.0322581 2:0.825521 3:-1 4:1 5:-1 
-0.5 1:-0.271554 2:0.555871 3:-1 4:1 5:-1 
-0.5 1:-0.0752688 2:1 3:-1 4:1 5:-1 
-0.5 1:-0.0645161 2:0.709201 3:-1 4:1 5:-1 
-0.5 1:-0.241935 2:0.709201 3:-1 4:1 5:-1 
-0.5 1:-0.419355 2:1 3:-1 4:1 5:-1 
-0.5 1:-0.345622 2:0.833829 3:-1 4:1 5:-1 
-0.5 1:-0.225806 2:0.418403 3:-1 4:1 5:-1 
-0.5 1:-0.16129 2:1 3:-1 4:1 5:-1 
-0.5 1:0.587097 2:1 3:-1 4:1 5:-1 
-0.5 1:0.0322581 2:1 3:-1 4:1 5:-1 
-0.5 1:-0.170507 2:0.750744 3:-1 4:1 5:-1 
-0.5 1:-0.0322581 2:1 3:-1 4:1 5:-1 
-0.5 1:-0.121588 2:1 3:-1 4:1 5:-1 
-0.5 1:-0.16888 2:1 3:-1 4:1 5:-1 
-0.5 1:-0.419355 2:1 3:-1 4:1 5:-1 
-0.5 1:-0.302053 2:0.36553 3:-1 4:1 5:-1 
-0.5 1:-0.00460829 2:0.501488 3:-1 4:1 5:-1 
-0.5 1:-0.225806 2:1 3:-1 4:1 5:-1 
-0.5 1:-0.0322581 2:1 3:-1 4:1 5:-1 
-0.5 1:0.645161 2:1 3:-1 4:1 5:-1 
-0.5 1:-0.238293 2:0.324597 3:-1 4:1 5:-1 
-0.5 1:-0.305503 2:0.589461 3:-1 4:1 5:-1 
-0.5 1:0.819355 2:1 3:-1 4:1 5:-1 
-0.5 1:-0.328273 2:0.589461 3:-1 4:1 5:-1 
-0.5 1:-0.210918 2:0.865785 3:-1 4:1 5:-1 
-0.5 1:-0.260997 2:1 3:-1 4:1 5:-1 
-0.5 1:-0.729032 2:0.767361 3:-1 4:1 5:-1 
-0.5 1:-0.469846 2:0.696558 3:-1 4:1 5:-1 
-0.5 1:-0.274194 2:1 3:-1 4:1 5:-1 
-0.2560444161214303 1:-0.0322581 2:0.675388 3:-0.142857 4:-0.067585 5:-0.894737 
-0.5 1:0.0107527 2:0.806134 3:-0.868132 4:-0.0047859 5:-0.894737 
-0.5 1:-0.341935 2:1 3:-0.978022 4:-0.067585 5:-0.894737 
-0.5 1:0.645161 2:1 3:-0.956044 4:-0.067585 5:-0.894737 
-0.5 1:-0.0875576 2:0.626116 3:-0.648352 4:-0.0462333 5:-0.894737 
-0.5 1:-0.493797 2:0.731571 3:-0.868132 4:-0.0231023 5:-0.894737 
-0.5 1:-0.548387 2:0.767361 3:-0.758242 4:0.00867105 5:-0.894737 
-0.5 1:-0.083871 2:0.883681 3:-0.912088 4:-0.067585 5:-0.894737 
-0.5 1:-0.506764 2:0.549731 3:-0.978022 4:0.0114954 5:-0.894737 
-0.5 1:-0.412051 2:0.407429 3:-0.362637 4:-0.0190584 5:-0.894737 
-0.08271055031745658 1:-0.0118846 2:1 3:-0.802198 4:-0.067585 5:-0.894737 
-0.5 1:0.354839 2:1 3:-0.934066 4:-0.067585 5:-0.894737 
-0.5 1:-0.190257 2:0.64392 3:-0.978022 4:-0.0190584 5:-0.894737 
-0.5 1:-0.187097 2:1 3:-0.934066 4:-0.067585 5:-0.894737 
-0.5 1:-0.173879 2:0.744665 3:-0.978022 4:-0.0394907 5:-0.894737 
-0.5 1:-0.290323 2:0.387792 3:-0.186813 4:0.000558705 5:-0.894737 
-0.5 1:-0.302053 2:0.78851 3:-0.626374 4:-0.0331468 5:-0.894737 
-0.5 1:-0.283871 2:0.651042 3:-0.736264 4:-0.067585 5:-0.894737 
-0.5 1:0.00550747 2:0.914888 3:-0.494505 4:-0.0408954 5:-0.894737 
-0.5 1:-0.297114 2:1 3:-0.978022 4:-0.067585 5:-0.894737 
-0.5 1:-0.529954 2:1 3:-0.978022 4:-0.067585 5:-0.894737 
-0.5 1:-0.510436 2:1 3:-0.978022 4:-0.067585 5:-0.894737 
-0.5 1:-0.548387 2:0.612269 3:-0.67033 4:0.0213804 5:-0.894737 
-0.5 1:0.085554 2:0.848279 3:-0.67033 4:-0.0190584 5:-0.894737 
-0.5 1:-0.496774 2:0.767361 3:-0.846154 4:-0.067585 5:-0.894737 
-0.5 1:-0.23931 2:0.269622 3:-0.142857 4:-0.0361855 5:-0.894737 
-0.5 1:-0.344913 2:0.731571 3:-0.868132 4:0.0213804 5:-0.894737 
-0.5 1:-0.0322581 2:0.612269 3:-0.538462 4:-0.0231023 5:-0.894737 
-0.5 1:-0.753666 2:0.524148 3:-0.824176 4:0.0447924 5:-0.894737 
-0.5 1:-0.0193548 2:0.883681 3:-0.868132 4:-0.0307717 5:-0.894737 
-0.5 1:-0.448029 2:0.483025 3:-0.67033 4:0.0252485 5:-0.894737 
-0.5 1:-0.358234 2:0.265351 3:1 4:-0.067585 5:-0.894737 
-0.5 1:-0.0896057 2:0.741512 3:-0.494505 4:-0.067585 5:-0.894737 
-0.5 1:-0.0154278 2:0.848279 3:-0.846154 4:-0.067585 5:-0.894737 
-0.5 1:-0.269511 2:0.662298 3:-0.626374 4:-0.067585 5:-0.894737 
-0.5 1:-0.176179 2:0.194712 3:-0.736264 4:0.0391735 5:-0.894737 
-0.5 1:-0.366328 2:0.474172 3:-0.846154 4:0.087387 5:-0.894737 
-0.5 1:-0.40176 2:0.682765 3:-0.78022 4:0.0124839 5:-0.894737 
-0.5 1:-0.124424 2:0.667659 3:-1 4:-0.0113963 5:-0.894737 
-0.5 1:-0.046595 2:0.612269 3:-0.978022 4:0.0213804 5:-0.894737 
-0.5 1:0.2 2:0.651042 3:-0.956044 4:-0.067585 5:-0.894737 
-0.5 1:-0.154499 2:0.449013 3:-0.934066 4:0.0658631 5:-0.894737 
-0.5 1:-0.322581 2:0.781901 3:-0.736264 4:0.00358732 5:-0.894737 
-0.5 1:-0.0620347 2:1 3:-0.89011 4:-0.067585 5:-0.894737 
-0.5 1:-0.66129 2:1 3:-0.912088 4:-0.067585 5:-0.894737 
-0.1391081031926855 1:-0.447005 2:1 3:-0.736264 4:-0.067585 5:-0.894737 
-0.5 1:-0.281106 2:1 3:-0.956044 4:-0.067585 5:-0.894737 
-0.5 1:-0.21659 2:0.335317 3:-0.252747 4:-0.0361855 5:-0.894737 
-0.5 1:-0.0674487 2:0.57702 3:-0.978022 4:-0.0307717 5:-0.894737 
-0.5 1:-0.0322581 2:1 3:-0.912088 4:-0.067585 5:-0.894737 
-0.5 1:-0.408602 2:0.515336 3:-0.56044 4:0.00129143 5:-0.894737 
-0.5 1:-0.152392 2:0.398348 3:-0.846154 4:0.0658631 5:-0.894737 
-0.5 1:-0.0862716 2:0.431928 3:-0.510088 4:-0.324596 5:-0.789474 
-0.03773908593109132 1:-0.218638 2:0.870756 3:-0.835532 4:-0.423447 5:-0.789474 
-0.5 1:-0.470588 2:0.230239 3:-0.585578 4:-0.329445 5:-0.789474 
-0.5 1:-0.28 2:0.720833 3:-0.721226 4:-0.392502 5:-0.789474 
-0.5 1:-0.491039 2:0.741512 3:-0.835532 4:-0.394978 5:-0.789474 
-0.5 1:-0.188805 2:0.20458 3:-0.0749483 4:-0.321772 5:-0.789474 
-0.5 1:-0.278263 2:0.152064 3:-0.0300853 4:-0.309219 5:-0.789474 
-0.5 1:-0.182796 2:0.418403 3:-0.51715 4:-0.32855 5:-0.789474 
-0.5 1:-0.24424 2:0.584573 3:-0.611791 4:-0.404211 5:-0.789474 
-0.5 1:-0.0154278 2:0.620697 3:-0.438998 4:-0.423447 5:-0.789474 
-0.5 1:-0.213377 2:0.199637 3:-0.638716 4:-0.338718 5:-0.789474 
-0.5 1:-0.122281 2:0.675388 3:-0.761033 4:-0.368699 5:-0.789474 
-0.5 1:-0.0634755 2:0.493448 3:-0.945177 4:-0.329445 5:-0.789474 
-0.5 1:-0.1537 2:0.384191 3:-0.478668 4:-0.372609 5:-0.789474 
-0.5 1:-0.634409 2:0.418403 3:-0.671063 4:-0.32855 5:-0.789474 
-0.5 1:-0.330025 2:0.373665 3:-0.71288 4:-0.289999 5:-0.789474 
-0.5 1:-0.212903 2:0.534722 3:-0.764654 4:-0.341325 5:-0.789474 
-0.5 1:0.0414747 2:1 3:-0.78169 4:-0.423447 5:-0.789474 
-0.5 1:-0.165982 2:0.746212 3:-0.730626 4:-0.381581 5:-0.789474 
-0.5 1:-0.275986 2:0.741512 3:-0.764654 4:-0.423447 5:-0.789474 
-0.2250221276539758 1:-0.340889 2:0.292652 3:-0.205272 4:-0.387257 5:-0.789474 
-0.5 1:-0.354839 2:0.636502 3:-0.741194 4:-0.390343 5:-0.789474 
-0.5 1:-0.225806 2:0.418403 3:-0.646525 4:-0.387861 5:-0.789474 
-0.5 1:-0.180266 2:0.79473 3:-0.712134 4:-0.378964 5:-0.789474 
-0.5 1:-0.225806 2:0.672852 3:-0.755702 4:-0.398905 5:-0.789474 
-0.5 1:-0.141129 2:0.781901 3:-0.694759 4:-0.375998 5:-0.789474 
-0.5 1:-0.164686 2:0.724507 3:-0.873959 4:-0.362442 5:-0.789474 
-0.5 1:-0.0322581 2:0.518678 3:-0.604667 4:-0.394978 5:-0.789474 
-0.5 1:-0.179088 2:0.759339 3:-0.958558 4:-0.370726 5:-0.789474 
-0.5 1:-0.111111 2:0.289159 3:-0.558977 4:-0.348964 5:-0.789474 
-0.5 1:-0.169615 2:0.662298 3:-0.755702 4:-0.372609 5:-0.789474 
-0.5 1:-0.362903 2:0.345703 3:-0.620176 4:-0.313951 5:-0.789474 
-0.5 1:-0.181141 2:0.463141 3:-0.567331 4:-0.37492 5:-0.789474 
-0.5 1:-0.0526316 2:0.816338 3:-0.866313 4:-0.571722 5:-0.684211 
-0.5 1:-0.147465 2:0.459945 3:-0.400519 4:-0.54875 5:-0.684211 
-0.5 1:-0.112202 2:0.431046 3:-0.743694 4:-0.552851 5:-0.684211 
-0.5 1:-0.211644 2:0.262364 3:-0.27681 4:-0.529838 5:-0.684211 
-0.2533360197531329 1:-0.524927 2:0.682765 3:-0.873746 4:-0.574688 5:-0.684211 
-0.5 1:-0.353466 2:0.406028 3:-0.804964 4:-0.54663 5:-0.684211 
-0.5 1:-0.284104 2:0.285266 3:-0.4291 4:-0.504324 5:-0.684211 
-0.5 1:-0.364055 2:0.127604 3:-0.630926 4:-0.55054 5:-0.684211 
-0.04375468257328214 1:-0.281834 2:0.449013 3:-0.51449 4:-0.542994 5:-0.684211 
-0.5 1:-0.214421 2:0.548407 3:-0.571147 4:-0.550884 5:-0.684211 
-0.5 1:-0.313783 2:0.302083 3:-0.837377 4:-0.516456 5:-0.684211 
-0.5 1:-0.342836 2:0.269622 3:-0.4648 4:-0.522879 5:-0.684211 
-0.5 1:-0.177419 2:0.194712 3:-0.353233 4:-0.514636 5:-0.684211 
-0.5 1:-0.230308 2:0.350775 3:-0.781598 4:-0.525121 5:-0.684211 
-0.5 1:-0.225806 2:0.750744 3:-0.968918 4:-0.580847 5:-0.684211 
-0.5 1:-0.0656285 2:0.578843 3:-0.644934 4:-0.538578 5:-0.684211 
-0.5 1:-0.0632258 2:0.720833 3:-0.817437 4:-0.578169 5:-0.684211 
-0.5 1:-0.260274 2:0.569777 3:-0.726597 4:-0.534653 5:-0.684211 
-0.5 1:-0.0506912 2:0.584573 3:-0.786915 4:-0.550884 5:-0.684211 
-0.5 1:-0.270968 2:0.127604 3:-0.32976 4:-0.518343 5:-0.684211 
-0.5 1:-0.0241935 2:0.636502 3:-0.738102 4:-0.539309 5:-0.684211 
-0.5 1:-0.109677 2:0.651042 3:-0.701876 4:-0.542067 5:-0.684211 
-0.1755529850465423 1:-0.290323 2:0.0306713 3:0.320329 4:-0.514693 5:-0.684211 
-0.5 1:-0.260709 2:0.485143 3:-0.726597 4:-0.519256 5:-0.684211 
-0.5 1:-0.518188 2:0.554521 3:-0.863188 4:-0.536281 5:-0.684211 
-0.5 1:-0.504032 2:0.563802 3:-0.805895 4:-0.525121 5:-0.684211 
-0.5 1:-0.375533 2:0.47327 3:-0.650591 4:-0.518343 5:-0.684211 
-0.5 1:-0.290323 2:0.521038 3:-0.770806 4:-0.516456 5:-0.684211 
-0.5 1:-0.28 2:0.511458 3:-0.647666 4:-0.564136 5:-0.684211 
-0.5 1:-0.0490884 2:0.696558 3:-0.667412 4:-0.55054 5:-0.684211 
-0.5 1:-0.147177 2:0.509277 3:-0.601961 4:-0.53344 5:-0.684211 
-0.5 1:-0.419355 2:0.589461 3:-0.870441 4:-0.530205 5:-0.684211 
-0.5 1:-0.484864 2:0.194712 3:-0.674941 4:-0.505295 5:-0.684211 
-0.5 1:-0.341935 2:0.720833 3:-0.8563 4:-0.554961 5:-0.684211 
-0.5 1:-0.268453 2:0.231109 3:-0.71281 4:-0.531752 5:-0.684211 
-0.5 1:-0.296188 2:0.524148 3:-0.756252 4:-0.526459 5:-0.684211 
-0.5 1:-0.477869 2:0.107316 3:-0.563616 4:-0.614722 5:-0.578947 
-0.5 1:-0.170507 2:0.750744 3:-0.941686 4:-0.675287 5:-0.578947 
-0.5 1:-0.182796 2:0.612269 3:-0.935398 4:-0.654757 5:-0.578947 
-0.5 1:-0.213957 2:0.216624 3:-0.499905 4:-0.64071 5:-0.578947 
-0.5 1:-0.180094 2:-0.0170645 3:0.177628 4:-0.605163 5:-0.578947 
-0.5 1:-0.247312 2:0.353781 3:-0.498516 4:-0.649904 5:-0.578947 
-0.5 1:-0.232975 2:0.439943 3:-0.808602 4:-0.664177 5:-0.578947 
-0.5 1:-0.13783 2:0.471275 3:-0.676512 4:-0.670008 5:-0.578947 
-0.5 1:-0.28536 2:0.261819 3:-0.780044 4:-0.624812 5:-0.578947 
-0.5 1:-0.317972 2:0.252232 3:-0.464963 4:-0.643434 5:-0.578947 
-0.5 1:-0.512792 2:0.157687 3:-0.829532 4:-0.601378 5:-0.578947 
-0.5 1:-0.103943 2:0.569187 3:-0.760208 4:-0.66002 5:-0.578947 
-0.5 1:-0.223226 2:0.302083 3:-0.704479 4:-0.644081 5:-0.578947 
-0.5 1:-0.348974 2:0.471275 3:-0.85662 4:-0.647131 5:-0.578947 
-0.5 1:-0.126417 2:0.575591 3:-0.621467 4:-0.675287 5:-0.578947 
-0.5 1:-0.227761 2:0.118792 3:-0.573468 4:-0.604263 5:-0.578947 
-0.5 1:-0.42768 2:0.174507 3:-0.496056 4:-0.617918 5:-0.578947 
-0.5 1:-0.13852 2:0.452614 3:-0.584482 4:-0.688274 5:-0.578947 
-0.5 1:-0.277156 2:0.145408 3:-0.500678 4:-0.621575 5:-0.578947 
-0.5 1:-0.0541692 2:0.604953 3:-0.692182 4:-0.662707 5:-0.578947 
-0.5 1:-0.286471 2:0.375 3:-0.688439 4:-0.661551 5:-0.578947 
-0.5 1:-0.184558 2:0.599556 3:-0.709225 4:-0.660688 5:-0.578947 
-0.5 1:-0.414747 2:0.210689 3:-0.757006 4:-0.629299 5:-0.578947 
-0.5 1:-0.333333 2:0.302083 3:-0.631188 4:-0.636964 5:-0.578947 
-0.5 1:-0.126973 2:0.368905 3:-0.388774 4:-0.658223 5:-0.578947 
-0.5 1:-0.295484 2:0.115972 3:-0.403751 4:-0.647131 5:-0.578947 
-0.5 1:-0.152288 2:0.242571 3:-0.320513 4:-0.653171 5:-0.578947 
-0.5 1:-0.304985 2:0.524148 3:-0.787551 4:-0.651947 5:-0.578947 
-0.5 1:-0.273206 2:0.181016 3:-0.5094 4:-0.781342 5:-0.368421 
-0.5 1:-0.13373 2:0.322411 3:-0.508436 4:-0.771346 5:-0.368421 
-0.5 1:-0.300248 2:0.418403 3:-0.758752 4:-0.787912 5:-0.368421 
-0.5 1:-0.0467742 2:0.563802 3:-0.665359 4:-0.795286 5:-0.368421 
-0.5 1:-0.079465 2:0.446773 3:-0.566947 4:-0.794781 5:-0.368421 
-0.5 1:-0.240469 2:-0.0574495 3:-0.372433 4:-0.747259 5:-0.368421 
-0.5 1:-0.313783 2:0.0709551 3:-0.599886 4:-0.746467 5:-0.368421 
-0.5 1:-0.359382 2:0.164466 3:-0.763373 4:-0.779308 5:-0.368421 
-0.08038722361080457 1:-0.159872 2:0.424794 3:-0.622606 4:-0.773957 5:-0.368421 
-0.5 1:-0.199413 2:0.444839 3:-0.717216 4:-0.793048 5:-0.368421 
-0.5 1:-0.229756 2:-0.0682398 3:-0.467839 4:-0.734452 5:-0.368421 
-0.5 1:-0.173777 2:0.362119 3:-0.70214 4:-0.76593 5:-0.368421 
-0.5 1:-0.341014 2:0.127604 3:-0.633741 4:-0.757521 5:-0.368421 
-0.5 1:-0.288136 2:0.142391 3:-0.608655 4:-0.747892 5:-0.368421 
-0.5 1:-0.364734 2:0.0152096 3:-0.353249 4:-0.751934 5:-0.368421 
-0.5 1:-0.279681 2:0.208548 3:-0.631916 4:-0.748806 5:-0.368421 
-0.5 1:-0.0843672 2:0.194712 3:-0.819746 4:-0.769141 5:-0.368421 
-0.5 1:-0.19289 2:0.0267149 3:-0.419229 4:-0.761084 5:-0.368421 
-0.5 1:-0.213957 2:0.28784 3:-0.667724 4:-0.763666 5:-0.368421 
-0.2341006745410832 1:-0.301304 2:0.0595449 3:-0.358513 4:-0.753149 5:-0.368421 
-0.5 1:-0.0795371 2:0.174221 3:-0.333906 4:-0.772191 5:-0.368421 
-0.5 1:-0.282382 2:0.141026 3:-0.496156 4:-0.774121 5:-0.368421 
-0.5 1:-0.221824 2:0.00913066 3:-0.390277 4:-0.856616 5:-0.0526316 
-0.5 1:-0.428874 2:0.0560963 3:-0.591516 4:-0.861676 5:-0.0526316 
-0.5 1:-0.314125 2:0.288532 3:-0.743657 4:-0.877387 5:-0.0526316 
-0.5 1:-0.0650629 2:0.3494 3:-0.664779 4:-0.87717 5:-0.0526316 
-0.5 1:-0.247827 2:-0.00299401 3:-0.472143 4:-0.851677 5:-0.0526316 
-0.5 1:-0.211323 2:0.145408 3:-0.57608 4:-0.87164 5:-0.0526316 
-0.4862781635625784 1:-0.163034 2:0.174761 3:-0.526253 4:-0.874415 5:-0.0526316 
-0.5 1:-0.108777 2:0.310199 3:-0.746575 4:-0.875236 5:-0.0526316 
-0.5 1:-0.18756 2:0.143276 3:-0.571998 4:-0.858954 5:-0.0526316 
-0.5 1:-0.271105 2:0.294659 3:-0.754318 4:-0.873256 5:-0.0526316 
-0.5 1:-0.298701 2:0.0709551 3:-0.541001 4:-0.866857 5:-0.0526316 
-0.5 1:-0.357143 2:0.127604 3:-0.607928 4:-0.878441 5:-0.0526316 
-0.5 1:-0.178048 2:0.0936147 3:-0.605276 4:-0.861718 5:-0.0526316 
-0.5 1:-0.248262 2:-0.118209 3:-0.350863 4:-0.847009 5:-0.0526316 
-0.5 1:-0.209598 2:-0.0657841 3:-0.283355 4:-0.861081 5:-0.0526316 
-0.07039832728956269 1:-0.326914 2:0.375 3:-0.774107 4:-0.882832 5:-0.0526316 
-0.5 1:-0.479263 2:0.169147 3:-0.825057 4:-0.861601 5:-0.0526316 
-0.5 1:-0.273232 2:0.0524972 3:-0.649204 4:-0.865362 5:-0.0526316 
-0.5 1:-0.342286 2:-0.105298 3:-0.451584 4:-0.940978 5:0.473684 
-0.5 1:-0.35023 2:-0.139456 3:-0.530001 4:-0.944299 5:0.473684 
-0.5 1:-0.210429 2:-0.252426 3:-0.214893 4:-0.936252 5:0.473684 
-0.5 1:-0.25439 2:-0.104299 3:-0.481592 4:-0.938348 5:0.473684 
-0.5 1:-0.237796 2:-0.00364122 3:-0.546459 4:-0.950387 5:0.473684 
-0.5 1:-0.25177 2:-0.308594 3:-0.440101 4:-0.925472 5:0.473684 
-0.5 1:-0.184286 2:-0.255329 3:-0.367033 4:-0.934127 5:0.473684 
-0.5 1:-0.275434 2:0.194712 3:-0.67867 4:-0.957239 5:0.473684 
-0.5 1:-0.2003 2:0.269622 3:-0.727709 4:-0.960728 5:0.473684 
-0.5 1:-0.264167 2:-0.131757 3:-0.469799 4:-0.941581 5:0.473684 
-0.5 1:-0.169615 2:0.0572497 3:-0.590833 4:-0.946426 5:0.473684 
-0.5 1:-0.189364 2:-0.0950575 3:-0.475106 4:-0.945956 5:0.473684 
-0.5 1:-0.25041 2:-0.079405 3:-0.507518 4:-0.942175 5:0.473684 
-0.5 1:-0.25183 2:-0.172969 3:-0.584585 4:-0.939671 5:0.473684 
-0.5 1:-0.22212 2:-0.0136409 3:-0.572021 4:-0.944103 5:0.473684 
-0.5 1:-0.209825 2:-0.104501 3:-0.615503 4:-0.936461 5:0.473684 
-0.02603417169750316 1:-0.255872 2:-0.0841424 3:-0.452054 4:-0.940699 5:0.473684 
-0.5 1:-0.235269 2:-0.0701389 3:-0.616128 4:-0.945377 5:0.473684 
-0.03201217757622225 1:-0.202765 2:0.0652902 3:-0.571961 4:-0.955793 5:0.473684 
-0.5 1:-0.169501 2:-0.0151515 3:-0.582482 4:-0.949027 5:0.473684 
-0.5 1:-0.282488 2:-0.146577 3:-0.585087 4:-0.988093 5:1 
-0.5 1:-0.290323 2:-0.233691 3:-0.437899 4:-0.981705 5:1 
-0.5 1:-0.267423 2:-0.131435 3:-0.534756 4:-0.983659 5:1 
-0.5 1:-0.23279 2:-0.367053 3:-0.456045 4:-0.972318 5:1 
-0.5 1:-0.260274 2:-0.33847 3:-0.431644 4:-0.977167 5:1 
-0.5 1:-0.425075 2:-0.168924 3:-0.734702 4:-0.983336 5:1 
-0.5 1:-0.180406 2:0.181456 3:-0.74148 4:-1 5:1 
-0.5 1:-0.24618 2:-0.182326 3:-0.521383 4:-0.984327 5:1 
-0.5 1:-0.25087 2:-0.242693 3:-0.629646 4:-0.979505 5:1 
-0.5 1:-0.162678 2:-0.113165 3:-0.538048 4:-0.991889 5:1 
-0.4542574506498965 1:-0.264279 2:-0.195209 3:-0.468645 4:-0.985212 5:1 
-0.5 1:-0.302151 2:-0.347367 3:-0.265921 4:-0.971892 5:1 
-0.5 1:-0.263441 2:-0.151078 3:-0.594412 4:-0.981947 5:1 
-0.5 1:-0.280159 2:-0.218964 3:-0.576012 4:-0.981213 5:1 
-0.5 1:-0.371175 2:-0.288001 3:-0.574222 4:-0.976848 5:1 
-0.5 1:-0.163871 2:-0.105035 3:-0.575648 4:-0.989874 5:1 
-0.5 1:-0.360235 2:-0.319697 3:-0.563776 4:-0.976593 5:1 
-0.5 1:-0.190927 2:-0.0974308 3:-0.630854 4:-0.98934 5:1 
-0.5 1:-0.319305 2:-0.481731 3:-0.463291 4:-0.970751 5:1 
-0.5 1:-0.279124 2:-0.250983 3:-0.510946 4:-0.981312 5:1 
