svm_type c_svc
kernel_type rbf
gamma 0.5
nr_class 2
total_sv 800
rho -10.8147
label 0 1
nr_sv 400 400
SV
128 1:0.51894 
128 1:0.551904 
128 1:0.64726 
128 1:0.303943 
128 1:0.670356 
128 1:0.335813 
128 1:0.482388 
128 1:0.410046 
128 1:0.48718 
128 1:0.624555 
128 1:0.447975 
128 1:0.414594 
128 1:0.622953 
128 1:0.250226 
128 1:0.396647 
128 1:0.558698 
128 1:0.703597 
128 1:0.639997 
128 1:0.29494 
128 1:0.879868 
128 1:0.524589 
128 1:0.669392 
128 1:0.329779 
128 1:0.437409 
128 1:0.552262 
128 1:0.435945 
128 1:0.572234 
128 1:0.597195 
128 1:0.442199 
128 1:0.367159 
128 1:0.421906 
128 1:0.529607 
128 1:0.371912 
128 1:0.33966 
128 1:0.641827 
128 1:0.372416 
128 1:0.342623 
128 1:0.651171 
128 1:0.555446 
128 1:0.450459 
128 1:0.377868 
128 1:0.608717 
128 1:0.609409 
128 1:0.346107 
128 1:0.264165 
128 1:0.464253 
128 1:0.440887 
128 1:0.425243 
128 1:0.440739 
128 1:0.761133 
128 1:0.606603 
128 1:0.503838 
128 1:0.427346 
128 1:0.357518 
128 1:0.431911 
128 1:0.481629 
128 1:0.313441 
128 1:0.666266 
128 1:0.466982 
128 1:0.579893 
128 1:0.715485 
128 1:0.781889 
128 1:0.365624 
128 1:0.279511 
128 1:0.278153 
128 1:0.430187 
128 1:0.456752 
128 1:0.512713 
128 1:0.480488 
128 1:0.348403 
128 1:0.557695 
128 1:0.400632 
128 1:0.309682 
128 1:0.276245 
128 1:0.5186 
128 1:0.288276 
128 1:0.490879 
128 1:0.709496 
128 1:0.573351 
128 1:0.710068 
128 1:0.713754 
128 1:0.38912 
128 1:0.542479 
128 1:0.426391 
128 1:0.575136 
128 1:0.55704 
128 1:0.515767 
128 1:0.569946 
128 1:0.442415 
128 1:0.366003 
128 1:0.294186 
128 1:0.494908 
128 1:0.794659 
128 1:0.565725 
128 1:0.289809 
128 1:0.355117 
128 1:0.56143 
128 1:0.351959 
128 1:0.258466 
128 1:0.679126 
128 1:0.664927 
128 1:0.70404 
128 1:0.608923 
128 1:0.640502 
128 1:0.447605 
128 1:0.672778 
128 1:0.468909 
128 1:0.53752 
128 1:0.296728 
128 1:0.594991 
128 1:0.591586 
128 1:0.47215 
128 1:0.343961 
128 1:0.421857 
128 1:0.412744 
128 1:0.617511 
128 1:0.812168 
128 1:0.322231 
128 1:0.615434 
128 1:0.365507 
128 1:0.44978 
128 1:0.510943 
128 1:0.763551 
128 1:0.792468 
128 1:0.67969 
128 1:0.650928 
128 1:0.594341 
128 1:0.383121 
128 1:0.503302 
128 1:0.317539 
128 1:0.76235 
128 1:0.391021 
128 1:0.58819 
128 1:0.320974 
128 1:0.329481 
128 1:0.52844 
128 1:0.282521 
128 1:0.315645 
128 1:0.518023 
128 1:0.469113 
128 1:0.317817 
128 1:0.378613 
128 1:0.41144 
128 1:0.376327 
128 1:0.527427 
128 1:0.479494 
128 1:0.73634 
128 1:0.736843 
128 1:0.367441 
128 1:0.667497 
128 1:0.61257 
128 1:0.387411 
128 1:0.664658 
128 1:0.564201 
128 1:0.295691 
128 1:0.576752 
128 1:0.312006 
128 1:0.816787 
128 1:0.412217 
128 1:0.498401 
128 1:0.275206 
128 1:0.270241 
128 1:0.377741 
128 1:0.888546 
128 1:0.41103 
128 1:0.36369 
128 1:0.493526 
128 1:0.474659 
128 1:0.593603 
128 1:0.609156 
128 1:0.466421 
128 1:0.277469 
128 1:0.373175 
128 1:0.580021 
128 1:0.547587 
128 1:0.413172 
128 1:0.320221 
128 1:0.694774 
128 1:0.386686 
128 1:0.701567 
128 1:0.426669 
128 1:0.576125 
128 1:0.609963 
128 1:0.433174 
128 1:0.6052 
128 1:0.547602 
128 1:0.481215 
128 1:0.496228 
128 1:0.953213 
102.7570706180652 1:-0.307952 
128 1:0.444071 
128 1:0.553966 
128 1:0.539971 
128 1:0.454078 
128 1:0.490694 
128 1:0.269155 
128 1:0.634777 
128 1:0.460921 
128 1:0.507271 
128 1:0.636053 
128 1:0.397218 
128 1:0.275796 
128 1:0.393689 
128 1:0.550387 
128 1:0.38541 
128 1:0.242633 
128 1:0.44875 
128 1:0.487434 
128 1:0.480535 
128 1:0.247921 
128 1:0.405742 
128 1:0.349261 
128 1:0.533823 
128 1:0.591233 
128 1:0.335562 
128 1:0.540688 
128 1:0.545363 
128 1:0.32508 
128 1:0.420664 
128 1:0.363622 
128 1:0.929354 
128 1:0.661353 
128 1:0.346495 
128 1:0.288023 
128 1:0.534079 
128 1:0.720697 
128 1:0.771466 
128 1:0.540824 
128 1:0.488439 
128 1:0.740437 
128 1:0.635517 
128 1:0.358416 
128 1:0.403656 
128 1:0.716517 
128 1:0.520898 
128 1:0.60883 
128 1:0.307738 
128 1:0.52419 
128 1:0.405643 
128 1:0.523617 
128 1:0.726112 
128 1:0.295839 
128 1:0.266604 
128 1:0.3269 
128 1:0.321322 
128 1:0.337669 
128 1:0.587553 
128 1:0.410009 
128 1:0.539716 
128 1:0.736813 
128 1:0.360275 
128 1:0.558751 
128 1:0.333627 
128 1:0.271568 
128 1:0.59663 
128 1:0.573551 
128 1:0.454131 
128 1:0.707229 
128 1:-0.549869 
128 1:0.273142 
128 1:0.588978 
128 1:0.488348 
128 1:0.70426 
128 1:0.746099 
128 1:0.855275 
128 1:0.503963 
128 1:0.335535 
128 1:0.621023 
128 1:0.350586 
128 1:0.869846 
128 1:0.43519 
128 1:0.511242 
128 1:0.414552 
128 1:0.863745 
128 1:0.385626 
128 1:-0.350946 
128 1:0.319601 
128 1:0.299648 
128 1:0.591653 
128 1:-0.310759 
128 1:0.71072 
128 1:0.576017 
128 1:0.353142 
128 1:0.318598 
128 1:0.344564 
128 1:0.61637 
128 1:0.449647 
128 1:0.512227 
128 1:0.325766 
128 1:0.628055 
128 1:0.566776 
128 1:0.446189 
128 1:0.478317 
128 1:0.655736 
128 1:0.317119 
128 1:0.527952 
128 1:0.322615 
128 1:0.438512 
128 1:0.613511 
128 1:0.56079 
128 1:-0.485603 
128 1:0.387031 
128 1:0.281283 
128 1:0.704738 
128 1:0.412824 
128 1:0.394056 
128 1:0.418353 
128 1:0.827805 
128 1:0.379252 
128 1:0.408262 
128 1:0.456979 
128 1:0.425261 
128 1:0.279589 
128 1:0.280802 
128 1:0.58351 
128 1:0.75528 
128 1:0.319252 
128 1:0.486741 
128 1:0.399947 
128 1:0.457413 
128 1:0.275797 
128 1:0.577279 
128 1:0.325574 
128 1:0.340218 
128 1:0.298335 
128 1:0.283689 
128 1:0.356342 
128 1:0.397379 
128 1:0.441461 
128 1:0.514709 
128 1:0.295288 
128 1:0.278989 
128 1:0.518135 
128 1:0.466927 
128 1:0.406551 
128 1:0.270193 
128 1:0.639409 
128 1:0.325681 
128 1:0.488219 
128 1:0.640538 
128 1:0.561088 
128 1:0.549781 
128 1:0.380734 
128 1:0.24773 
128 1:0.558556 
128 1:0.358403 
128 1:0.361369 
128 1:0.520458 
128 1:0.270728 
128 1:0.443958 
128 1:0.443933 
128 1:0.762773 
128 1:0.350136 
128 1:0.306944 
128 1:0.523235 
128 1:0.787613 
128 1:0.403993 
128 1:0.583177 
128 1:0.372196 
128 1:0.496224 
128 1:0.284311 
128 1:0.882273 
128 1:0.532294 
128 1:0.367493 
128 1:0.735814 
128 1:0.352973 
128 1:0.670075 
128 1:0.65109 
128 1:0.315164 
128 1:0.591753 
128 1:0.430151 
128 1:0.442614 
128 1:0.458762 
128 1:0.764362 
128 1:0.517081 
128 1:0.598663 
128 1:0.317861 
128 1:0.257025 
128 1:0.518561 
6.811827838009156 1:0.241904 
128 1:0.319721 
128 1:0.423925 
128 1:0.698945 
128 1:0.747061 
128 1:0.359743 
128 1:0.439078 
128 1:0.37802 
128 1:0.315872 
128 1:0.473918 
128 1:0.306126 
128 1:0.506256 
128 1:0.871925 
128 1:0.588362 
128 1:0.53381 
128 1:0.614502 
128 1:0.261364 
128 1:0.698345 
128 1:0.372172 
128 1:0.447602 
128 1:0.567421 
-128 1:0.455256 
-128 1:0.583324 
-128 1:0.23456 
-128 1:0.576953 
-128 1:0.346679 
-128 1:0.422416 
-128 1:0.651717 
-128 1:0.583829 
-128 1:0.605143 
-128 1:0.645145 
-128 1:0.629919 
-128 1:0.523767 
-128 1:0.647659 
-128 1:0.166994 
-128 1:0.678326 
-128 1:0.459753 
-128 1:0.624139 
-128 1:0.593758 
-128 1:0.640354 
-128 1:0.653207 
-128 1:0.47012 
-128 1:0.254144 
-128 1:0.273638 
-128 1:0.618991 
-128 1:0.615701 
-128 1:0.555945 
-128 1:0.459055 
-128 1:0.568867 
-128 1:0.636052 
-128 1:0.602695 
-128 1:0.616433 
-128 1:0.618947 
-128 1:0.529413 
-128 1:0.629343 
-128 1:0.890013 
-128 1:0.568633 
-128 1:0.38468 
-128 1:0.181328 
-128 1:0.57534 
-128 1:0.690968 
-128 1:0.534403 
-128 1:0.642155 
-128 1:0.54216 
-128 1:0.613152 
-128 1:0.572211 
-128 1:0.675081 
-128 1:0.288427 
-128 1:-0.125342 
-128 1:0.533 
-128 1:0.348571 
-128 1:0.556202 
-128 1:0.455265 
-128 1:0.149252 
-128 1:0.652721 
-128 1:0.691724 
-128 1:0.484898 
-128 1:0.531779 
-128 1:0.476662 
-128 1:0.445197 
-128 1:0.600646 
-128 1:0.638285 
-128 1:0.651109 
-128 1:0.527138 
-128 1:0.398937 
-128 1:0.587583 
-128 1:0.548925 
-128 1:0.264166 
-128 1:0.489261 
-128 1:0.295422 
-128 1:0.483772 
-128 1:0.596826 
-128 1:0.524614 
-128 1:0.679264 
-128 1:0.368982 
-128 1:0.679984 
-128 1:0.590948 
-128 1:0.349935 
-128 1:0.382118 
-128 1:0.570842 
-128 1:0.504987 
-128 1:0.399393 
-128 1:0.598955 
-128 1:0.420715 
-128 1:0.458796 
-128 1:0.214847 
-128 1:0.426171 
-128 1:0.650494 
-128 1:0.518128 
-128 1:0.597529 
-128 1:0.487627 
-128 1:0.374122 
-128 1:0.643362 
-128 1:0.334136 
-128 1:0.596863 
-128 1:0.482511 
-128 1:0.890046 
-128 1:0.365387 
-128 1:0.160053 
-128 1:0.501709 
-128 1:0.370147 
-128 1:0.443162 
-128 1:0.506958 
-128 1:0.335987 
-128 1:0.220314 
-128 1:0.497491 
-128 1:0.514657 
-128 1:0.0319842 
-128 1:0.648193 
-128 1:0.578418 
-128 1:0.19925 
-128 1:0.519978 
-128 1:0.664137 
-128 1:0.416429 
-128 1:0.476508 
-128 1:0.227844 
-128 1:0.680049 
-128 1:0.258662 
-128 1:0.473966 
-128 1:0.21431 
-128 1:0.67088 
-128 1:0.417169 
-128 1:0.666246 
-128 1:0.519449 
-128 1:0.690379 
-128 1:0.473205 
-128 1:0.615514 
-128 1:0.579682 
-128 1:0.508338 
-128 1:0.694807 
-128 1:0.434501 
-128 1:0.677216 
-128 1:0.591597 
-128 1:0.487263 
-128 1:0.573956 
-128 1:0.59769 
-128 1:0.327889 
-128 1:0.30242 
-128 1:0.553724 
-128 1:0.606588 
-128 1:0.55245 
-128 1:0.262575 
-128 1:0.589198 
-128 1:0.640058 
-128 1:0.64107 
-128 1:0.423498 
-128 1:0.575471 
-128 1:0.557424 
-128 1:0.500472 
-128 1:0.568028 
-128 1:0.579694 
-128 1:0.0277623 
-128 1:0.452814 
-128 1:0.411649 
-128 1:0.419204 
-128 1:0.462861 
-128 1:0.474605 
-128 1:0.520536 
-128 1:0.29873 
-128 1:0.691997 
-128 1:0.429011 
-128 1:0.393061 
-128 1:0.515558 
-128 1:0.614102 
-128 1:0.550328 
-128 1:0.132742 
-128 1:0.225649 
-128 1:0.500782 
-128 1:0.577458 
-128 1:0.44383 
-128 1:0.413617 
-128 1:0.516084 
-128 1:0.448162 
-128 1:0.317779 
-128 1:0.509173 
-128 1:0.347826 
-128 1:0.630933 
-128 1:0.61686 
-128 1:0.631374 
-128 1:0.588554 
-128 1:0.475786 
-128 1:0.289003 
-128 1:0.467189 
-128 1:0.388034 
-128 1:0.585654 
-128 1:0.61221 
-128 1:0.589213 
-128 1:0.437223 
-128 1:0.456189 
-128 1:0.328962 
-56.4544621637755 1:0.695778 
-128 1:0.426706 
-128 1:0.602657 
-128 1:0.427129 
-128 1:0.577195 
-128 1:0.457939 
-128 1:0.393079 
-128 1:0.375762 
-128 1:0.525692 
-128 1:0.211255 
-128 1:0.298614 
-128 1:0.245076 
-128 1:0.581676 
-128 1:0.564844 
-128 1:0.333244 
-128 1:0.0411692 
-128 1:0.304159 
-128 1:0.182458 
-128 1:0.508 
-128 1:0.459778 
-128 1:-0.0836292 
-128 1:0.691464 
-128 1:0.628812 
-128 1:0.357549 
-128 1:0.524731 
-128 1:0.663367 
-128 1:0.472592 
-128 1:0.269167 
-128 1:0.445767 
-128 1:0.51661 
-128 1:0.453591 
-128 1:0.662515 
-128 1:0.526848 
-128 1:0.571445 
-128 1:0.455607 
-128 1:0.650667 
-128 1:0.408003 
-128 1:0.648065 
-128 1:0.585684 
-128 1:0.638715 
-128 1:0.399223 
-128 1:0.504161 
-128 1:0.478723 
-128 1:0.402042 
-128 1:0.436444 
-128 1:0.54875 
-128 1:0.264125 
-128 1:0.631063 
-128 1:0.590835 
-128 1:0.568347 
-128 1:0.527967 
-128 1:0.357054 
-128 1:0.574841 
-128 1:0.580793 
-128 1:0.540447 
-128 1:0.518551 
-128 1:0.408755 
-128 1:0.647916 
-128 1:0.0391674 
-128 1:-0.446472 
-128 1:0.0620058 
-128 1:0.589714 
-128 1:0.42247 
-128 1:0.325993 
-128 1:0.404323 
-128 1:0.514711 
-128 1:0.224097 
-128 1:0.414145 
-128 1:0.643316 
-128 1:0.632836 
-128 1:0.463572 
-128 1:0.594718 
-128 1:0.463888 
-128 1:0.645804 
-128 1:0.514355 
-128 1:0.339317 
-128 1:0.445236 
-128 1:0.684269 
-128 1:0.386213 
-128 1:0.630964 
-128 1:0.376191 
-128 1:0.486229 
-128 1:0.553715 
-128 1:0.441827 
-128 1:0.591771 
-128 1:0.422427 
-128 1:0.64887 
-128 1:0.634886 
-128 1:0.674913 
-128 1:0.636804 
-128 1:0.52711 
-128 1:0.545031 
-128 1:0.435506 
-128 1:0.505829 
-128 1:0.489911 
-128 1:0.640232 
-128 1:0.686095 
-128 1:0.320755 
-128 1:0.457074 
-128 1:0.111141 
-128 1:0.470048 
-128 1:0.654517 
-128 1:0.494705 
-128 1:0.256626 
-128 1:0.503403 
-128 1:0.668681 
-128 1:0.143294 
-128 1:0.55673 
-128 1:0.545373 
-128 1:0.317968 
-128 1:0.92358 
-128 1:0.583192 
-128 1:0.618099 
-128 1:0.192438 
-128 1:0.981043 
-128 1:0.193752 
-128 1:0.180341 
-128 1:0.622278 
-128 1:0.0960585 
-128 1:0.546199 
-128 1:0.0254044 
-128 1:0.574013 
-128 1:0.311638 
-128 1:0.134268 
-128 1:0.186113 
-128 1:0.397277 
-128 1:0.405177 
-128 1:0.590084 
-128 1:0.641929 
-128 1:0.570845 
-128 1:0.243513 
-128 1:0.49496 
-128 1:0.362588 
-128 1:0.23238 
-128 1:0.400601 
-128 1:0.611975 
-128 1:0.115183 
-128 1:0.471033 
-128 1:0.388864 
-128 1:0.245431 
-128 1:0.113371 
-128 1:0.486685 
-128 1:0.672012 
-128 1:1 
-128 1:0.660804 
-128 1:0.677386 
-128 1:0.262845 
-128 1:0.476731 
-128 1:0.441893 
-128 1:0.278517 
-128 1:0.62944 
-128 1:0.584802 
-128 1:0.30149 
-128 1:0.583154 
-128 1:0.378005 
-128 1:0.475963 
-128 1:0.666573 
-128 1:0.51661 
-128 1:0.364729 
-128 1:0.625442 
-128 1:0.437656 
-128 1:0.432903 
-128 1:0.619446 
-128 1:0.569076 
-128 1:0.623569 
-128 1:0.505236 
-128 1:0.554182 
-128 1:0.663243 
-53.11443629229881 1:0.889546 
-128 1:0.468675 
-128 1:0.648846 
-128 1:0.286141 
-128 1:0.479176 
-128 1:-0.342608 
-128 1:0.392576 
-128 1:0.684762 
-128 1:0.59458 
-128 1:0.667264 
-128 1:0.318499 
-128 1:0.217115 
-128 1:0.306272 
-128 1:0.524301 
-128 1:0.423797 
-128 1:0.653746 
-128 1:0.617272 
-128 1:0.674785 
-128 1:0.621278 
-128 1:0.41304 
-128 1:0.0324355 
-128 1:0.505695 
-128 1:0.605006 
-128 1:0.556898 
-128 1:0.296611 
-128 1:0.520612 
-128 1:0.358878 
-128 1:0.490779 
-128 1:0.558456 
-128 1:0.604172 
-128 1:0.38897 
-128 1:0.523796 
-128 1:0.601493 
-128 1:0.396179 
-128 1:0.605035 
-128 1:0.667146 
-128 1:0.3602 
-128 1:0.241607 
-128 1:0.563105 
-128 1:0.567998 
-128 1:0.282313 
-128 1:0.635192 
-128 1:0.18573 
