svm_type c_svc
kernel_type rbf
gamma 0.125
nr_class 2
total_sv 448
rho -0.0454796
label 1 -1
nr_sv 179 269
SV
82.49184835734505 1:-0.985838 2:0.98924 3:-0.999965 4:1 5:-0.998895 6:0.999748 7:-0.999122 8:0.999722 9:-1 10:-1 11:-1 12:-1 13:1 14:-1 15:-1 16:-0.308655 17:-0.557634 18:-0.5 19:-0.0679816 20:-0.87937 21:-0.888207 
408.3837588048172 1:-0.968529 2:1 3:-0.99907 4:0.459408 5:-1 6:0.999408 7:-0.869334 8:1 9:-0.999915 10:-1 11:-1 12:-1 13:-0.104067 14:-1 15:-0.666667 16:-0.320061 17:-0.693773 18:-1 19:-0.459049 20:-0.981336 21:-1 
325.047215639481 1:-0.979543 2:-0.225878 3:-0.145587 4:0.261629 5:-0.304833 6:0.450758 7:-0.682301 8:0.705571 9:-0.756816 10:-1 11:-1 12:-1 13:1 14:-1 15:-1 16:-0.0714876 17:0.610097 18:0.333333 19:-0.827504 20:-0.999317 21:-1 
390.8860685977631 1:-0.98269 2:0.978436 3:-0.999722 4:0.645494 5:-0.993347 6:0.99965 7:-0.917127 8:0.998467 9:-0.999977 10:-1 11:-1 12:0.734266 13:-0.132205 14:-1 15:-0.666667 16:-0.225294 17:-0.134476 18:-0.5 19:-0.723106 20:-0.997616 21:-1 
341.2137058934716 1:-0.968529 2:0.894809 3:-0.995563 4:0.966581 5:-0.997191 6:0.999669 7:-0.999497 8:0.999702 9:-0.999999 10:-1 11:0.915062 12:-1 13:-0.878031 14:-1 15:-1 16:-0.140595 17:-0.317608 18:-1 19:-0.145054 20:-0.9111 21:-1 
563.841789428961 1:-0.97325 2:0.594771 3:-0.925017 4:0.681346 5:-0.919252 6:0.982909 7:-0.952366 8:0.987935 9:-0.99739 10:-0.6 11:0.719205 12:-1 13:-0.873656 14:-0.6 15:-1 16:-0.097285 17:-0.273891 18:1 19:-0.813176 20:-0.999168 21:-1 
281.9861465847644 1:-0.973249 2:0.608702 3:-0.929251 4:0.0706114 5:-0.771047 6:0.952691 7:-0.586346 8:0.899874 9:-0.978436 10:-0.2 11:-1 12:0.865199 13:-0.645602 14:-1 15:-0.666667 16:-0.145473 17:-0.258098 18:-0.2 19:-0.837762 20:-0.999411 21:-1 
50.9878662585818 1:-0.95594 2:0.400559 3:-0.887348 4:-0.313299 5:-0.66645 6:0.928641 7:-0.444292 8:0.861393 9:-0.969077 10:-0.2 11:-1 12:-1 13:0.996438 14:-1 15:-0.666667 16:-0.115585 17:-0.44492 18:-0.666667 19:-0.721296 20:-0.997572 21:-1 
2048 1:-0.971675 2:0.298608 3:-0.784045 4:0.348276 5:-0.72804 6:0.904885 7:-0.808474 8:0.921274 9:-0.971274 10:-0.6 11:-1 12:-1 13:1 14:-1 15:-1 16:-0.00272851 17:-0.246805 18:-0.5 19:-0.777693 20:-0.998695 21:-1 
2048 1:-0.951219 2:0.640287 3:-0.963628 4:0.556332 5:-0.938362 6:0.992768 7:-0.942826 8:0.992044 9:-0.999076 10:-0.6 11:0.701566 12:0.8736 13:-0.334115 14:-1 15:-1 16:0.0773022 17:-0.391577 18:-0.714286 19:-0.619439 20:-0.993905 21:-1 
504.6440028199514 1:-0.976396 2:0.292506 3:-0.745984 4:0.970811 5:-0.986 6:0.994536 7:-0.999353 8:0.999416 9:-0.999868 10:-1 11:0.868636 12:-1 13:-0.8748 14:-0.6 15:-1 16:-0.103443 17:0.312906 18:-0.333333 19:-0.684912 20:-0.996541 21:-1 
2048 1:-0.974822 2:0.280211 3:-0.750238 4:0.138 5:-0.594563 6:0.840246 7:-0.630968 8:0.829354 9:-0.92977 10:-0.6 11:-1 12:-1 13:-0.999952 14:-1 15:-1 16:-0.211507 17:-0.2019 18:-0.5 19:-0.785888 20:-0.998818 21:-1 
1626.855979444344 1:-0.98269 2:0.290028 3:-0.675445 4:0.875441 5:-0.92329 6:0.960491 7:-0.990023 8:0.993662 9:-0.99671 10:-1 11:0.886327 12:-1 13:-0.879676 14:-0.2 15:-1 16:-0.21734 17:-0.231905 18:-1 19:-0.826991 20:-0.999312 21:-1 
2048 1:-0.921321 2:0.699967 3:-0.98231 4:0.951677 5:-0.995321 6:0.999514 7:-0.999544 8:0.999694 9:-0.999998 10:-1 11:0.820221 12:-1 13:-0.881227 14:-0.6 15:-1 16:-0.205677 17:-0.626439 18:-0.818182 19:-0.544724 20:-0.989323 21:-1 
740.6411124873531 1:-0.954365 2:0.418958 3:-0.894779 4:0.223481 5:-0.808713 6:0.960561 7:-0.806009 8:0.952964 9:-0.989934 10:-1 11:0.615327 12:0.906338 13:0.0304305 14:-0.6 15:-0.666667 16:-0.316346 17:-0.480889 18:-1 19:-0.747639 20:-0.998161 21:-1 
88.47776807612058 1:-0.765534 2:0.277934 3:-0.960184 4:0.992281 5:-0.998509 6:0.999726 7:-0.999993 8:0.999727 9:-1 10:-0.6 11:0.747338 12:-1 13:-0.885304 14:-0.6 15:-1 16:-0.236628 17:-0.800257 18:-0.826087 19:-0.782093 20:-0.998763 21:-1 
713.9371639530617 1:-0.896141 2:0.499265 3:-0.962337 4:0.603607 5:-0.958826 6:0.99632 7:-0.975817 8:0.997318 9:-0.999785 10:-0.2 11:0.936405 12:0.86507 13:-0.441521 14:-0.2 15:-0.666667 16:-0.159088 17:-0.706907 18:-0.818182 19:-0.61283 20:-0.993574 21:-1 
2048 1:-0.981118 2:0.0634824 3:-0.451184 4:0.856194 5:-0.886747 6:0.925143 7:-0.986979 8:0.98958 9:-0.992947 10:-0.6 11:0.918146 12:-1 13:-0.884004 14:-0.6 15:-1 16:-0.26974 17:0.0232341 18:-1 19:-0.824792 20:-0.99929 21:-1 
1116.605707996285 1:-0.916597 2:0.991126 3:-0.999815 4:0.844288 5:-0.998635 6:0.999739 7:-0.995289 8:0.99972 9:-1 10:-0.6 11:-1 12:0.839887 13:-0.12483 14:-1 15:-0.666667 16:-0.135523 17:-0.54252 18:-1 19:-0.110262 20:-0.897672 21:-0.908533 
2048 1:-0.957514 2:0.867259 3:-0.9943 4:0.334043 5:-0.960671 6:0.997844 7:-0.850525 8:0.991301 9:-0.999562 10:-0.6 11:-1 12:0.737706 13:-0.134562 14:-1 15:-1 16:-0.0557354 17:-0.213549 18:-0.666667 19:-0.685778 20:-0.996568 21:-1 
1207.007101368622 1:-0.976396 2:0.754261 3:-0.969209 4:0.038227 5:-0.834812 6:0.976154 7:-0.50588 8:0.916801 9:-0.987541 10:-0.6 11:-1 12:0.634271 13:-0.13576 14:-1 15:-0.666667 16:-0.14562 17:-0.00140824 18:-0.333333 19:-0.833148 20:-0.99937 21:-1 
2048 1:-0.814318 2:0.84643 3:-0.997866 4:0.865492 5:-0.996511 6:0.999709 7:-0.998347 8:0.999699 9:-0.999999 10:-0.6 11:0.93663 12:0.856527 13:-0.330974 14:0.2 15:-0.666667 16:-0.0297783 17:-0.758727 18:-0.846154 19:-0.151135 20:-0.913303 21:-1 
2048 1:-0.979543 2:0.505108 3:-0.859895 4:0.00256908 5:-0.61657 6:0.876427 7:-0.411527 8:0.777807 9:-0.925202 10:-0.6 11:-1 12:-1 13:1 14:-1 15:-1 16:-0.133222 17:0.0277059 18:-0.5 19:-0.804604 20:-0.999068 21:-1 
2048 1:-0.937058 2:0.411643 3:-0.917273 4:0.902162 5:-0.980743 6:0.99685 7:-0.997542 8:0.999268 9:-0.999923 10:-0.6 11:0.912119 12:-1 13:-0.880345 14:-1 15:-1 16:-0.208618 17:-0.529049 18:-0.2 19:-0.583554 20:-0.991943 21:-1 
2048 1:-0.970102 2:0.27581 3:-0.7739 4:0.609257 5:-0.834564 6:0.941424 7:-0.932425 8:0.971656 9:-0.989588 10:-0.6 11:0.869806 12:-1 13:-0.876719 14:-0.2 15:-1 16:-0.197441 17:-0.207737 18:-0.5 19:-0.703817 20:-0.99711 21:-1 
2048 1:-0.859947 2:0.000474591 3:-0.885655 4:0.613085 5:-0.939396 6:0.992028 7:-0.98208 8:0.997007 9:-0.999631 10:-0.6 11:0.869809 12:-1 13:-0.877625 14:-0.2 15:-1 16:-0.132474 17:-0.728028 18:-0.4 19:-0.552385 20:-0.989884 21:-1 
2048 1:-0.957513 2:0.147852 3:-0.762552 4:0.491704 5:-0.808062 6:0.939364 7:-0.913372 8:0.96766 9:-0.9894 10:-0.6 11:0.899132 12:-1 13:-0.876889 14:-0.6 15:-1 16:-0.175894 17:-0.277297 18:-0.6 19:-0.731467 20:-0.997814 21:-1 
2048 1:-0.927613 2:0.29577 3:-0.89789 4:0.525902 5:-0.906202 6:0.984464 7:-0.952424 8:0.990548 9:-0.998418 10:-0.6 11:0.932969 12:0.872942 13:-0.772467 14:-0.2 15:-0.666667 16:-0.0795834 17:-0.311259 18:-0.75 19:-0.691345 20:-0.996743 21:-1 
2048 1:-0.894568 2:0.549589 3:-0.970055 4:0.620985 5:-0.965034 6:0.997188 7:-0.978222 8:0.997811 9:-0.999849 10:-0.6 11:0.939774 12:0.938828 13:-0.867469 14:-0.6 16:-0.16713 17:-0.635211 18:-0.666667 19:-0.575373 20:-0.991436 21:-1 
700.7823139529278 1:-0.954367 2:-0.139859 3:-0.589157 4:-0.294696 5:-0.368289 6:0.741712 7:-0.454796 8:0.738511 9:-0.88827 10:-0.6 11:-1 12:-1 13:-0.121145 14:-1 15:-0.666667 16:-0.269196 17:-0.288901 18:0.2 19:-0.842587 20:-0.999452 21:-1 
967.9867116860465 1:-0.977969 2:0.199657 3:-0.651202 4:0.276297 5:-0.572889 6:0.788757 7:-0.706908 8:0.829797 9:-0.912044 10:-0.6 11:0.866584 12:-1 13:-0.627643 14:-0.2 15:-1 16:-0.196691 17:0.0897242 18:-0.5 19:-0.831585 20:-0.999356 21:-1 
2048 1:-0.97325 2:-0.147525 3:-0.37665 4:0.641415 5:-0.737045 6:0.838331 7:-0.937586 8:0.954676 9:-0.970977 10:-0.6 11:-1 12:-1 13:1 14:-1 15:-1 16:-0.103742 17:-0.207615 18:-0.5 19:-0.736972 20:-0.997937 21:-1 
2044.451187579448 1:-0.976397 2:-0.0529201 3:-0.407518 4:-0.370019 5:0.0431959 6:0.333969 7:0.0322363 8:0.227582 9:-0.484413 10:-0.6 11:-1 12:-1 13:-0.116314 14:-1 15:-1 16:-0.313175 17:-0.00140824 18:-0.333333 19:-0.86629 20:-0.999624 21:-1 
2048 1:-0.897717 2:0.214925 3:-0.905412 4:0.687107 5:-0.94826 6:0.992819 7:-0.98458 8:0.99726 9:-0.999647 10:-0.6 11:0.943815 12:-1 13:-0.87841 14:-0.2 15:-1 16:-0.201894 17:-0.570939 18:-0.777778 19:-0.659242 20:-0.995638 21:-1 
2048 1:-0.962235 2:0.238645 3:-0.786097 4:0.236754 5:-0.709216 6:0.907257 7:-0.778811 8:0.917076 9:-0.972426 10:-0.6 11:0.878729 12:0.742668 13:-0.819456 14:-0.6 15:-0.666667 16:-0.355494 17:-0.183378 18:-1 19:-0.775468 20:-0.99866 21:-1 
2048 1:-0.841071 2:-0.0464307 3:-0.888828 4:0.336057 5:-0.903813 6:0.988287 7:-0.953745 8:0.993205 9:-0.999179 10:-0.6 11:0.846313 12:0.880832 13:-0.876695 14:-0.6 15:-0.666667 16:-0.252372 17:-0.750431 18:-1 19:-0.607012 20:-0.993272 21:-1 
2048 1:-0.891424 2:0.416911 3:-0.950104 4:0.94611 5:-0.993021 6:0.999187 7:-0.999453 8:0.999666 9:-0.999994 10:-0.6 11:0.939125 12:-1 13:-0.880673 14:-0.6 15:-1 16:-0.203902 17:-0.641549 18:-1 19:-0.549879 20:-0.989703 21:-1 
2048 1:-0.935485 2:0.168488 3:-0.835108 4:0.154291 5:-0.772196 6:0.948633 7:-0.824516 8:0.953389 9:-0.989073 10:-0.6 11:0.742021 12:0.80715 13:-0.725347 14:-1 15:-0.666667 16:-0.291483 17:-0.400704 18:-0.714286 19:-0.863264 20:-0.999604 21:-1 
2048 1:-0.930762 2:0.0437872 3:-0.798925 4:0.747878 5:-0.927728 6:0.982727 7:-0.985803 8:0.995746 9:-0.999003 10:-0.6 11:0.799235 12:-1 13:-0.880166 14:-0.6 15:-1 16:-0.150674 17:-0.490115 18:-0.714286 19:-0.848671 20:-0.999501 21:-1 
320.0025915562506 1:-0.966955 2:-1 3:0.6447 4:0.59024 5:-0.546166 6:0.577715 7:-0.929653 8:0.922952 9:-0.925197 10:-0.6 11:-1 12:-1 13:1 14:-1 15:-1 16:-0.16787 17:0.0897242 18:-0.5 19:-0.869942 20:-0.999646 21:-1 
2048 1:-0.968529 2:-0.45148 3:-0.11396 4:0.150148 5:-0.29934 6:0.515329 7:-0.688845 8:0.747552 9:-0.817486 10:-0.6 11:-1 12:-1 13:1 14:-1 15:-1 16:-0.215847 17:-0.384453 18:-1 19:-0.844035 20:-0.999464 21:-1 
141.1403770763378 1:-0.979543 2:-0.730193 3:0.731919 4:0.396922 5:-0.185784 6:0.0768037 7:-0.784815 8:0.713721 9:-0.660689 10:-0.6 11:-1 12:-1 13:-0.878093 14:-1 15:-1 16:-0.169739 17:0.610097 18:-0.333333 19:-0.856096 20:-0.999556 21:-1 
639.5710109727535 1:-0.949647 2:0.678252 3:-0.970373 4:0.555483 5:-0.943426 6:0.993896 7:-0.941266 8:0.992483 9:-0.9992 10:-0.6 11:-1 12:0.890514 13:-0.635349 14:-1 15:-1 16:-0.0874431 17:-0.412112 18:0.2 19:-0.680708 20:-0.996403 21:-1 
2048 1:-0.889848 2:0.797583 3:-0.994176 4:0.872196 5:-0.993941 6:0.999583 7:-0.997564 8:0.999633 9:-0.999997 10:-0.6 11:0.93918 12:0.922608 13:-0.895875 14:-0.2 15:-0.333333 16:-0.0792677 17:-0.725274 18:-0.833333 19:-0.41286 20:-0.975514 21:-1 
2048 1:-0.955939 2:0.329197 3:-0.856743 4:0.52474 5:-0.862008 6:0.966511 7:-0.925756 8:0.978635 9:-0.994649 10:-0.6 11:0.86875 12:-1 13:-0.878492 14:-0.6 15:-1 16:0.0385831 17:-0.267605 18:-0.2 19:-0.626648 20:-0.994252 21:-1 
5.565812174227475 1:-0.954365 2:0.383895 3:-0.884825 4:0.291295 5:-0.819786 6:0.96165 7:-0.842765 8:0.960591 9:-0.9913 10:-1 11:-1 12:0.881665 13:0.979982 14:-1 15:-0.666667 16:0.186089 17:-0.277297 18:-0.333333 19:-0.730518 20:-0.997792 21:-1 
2048 1:-0.966954 2:0.455669 3:-0.880937 4:0.739124 5:-0.922218 6:0.980669 7:-0.972025 8:0.991585 9:-0.997884 10:-0.6 11:0.892699 12:-1 13:-0.880547 14:-0.6 15:-1 16:0.00366522 17:-0.123036 18:-0.666667 19:-0.687819 20:-0.996633 21:-1 
319.0566977788265 1:-0.963807 2:0.726926 3:-0.972236 4:0.595336 5:-0.943389 6:0.993275 7:-0.937035 8:0.991191 9:-0.998958 10:-0.6 11:-1 12:0.63499 13:-0.113516 14:-1 15:-1 16:-0.0907771 17:-0.0514644 19:-0.636143 20:-0.994685 21:-1 
415.7697192950706 1:-0.984265 2:0.548512 3:-0.862225 4:0.838973 5:-0.93316 6:0.976894 7:-0.981996 8:0.992402 9:-0.997339 10:-0.6 11:-1 12:-1 13:1 14:-1 15:-1 16:-0.173537 17:0.519082 18:-0.333333 19:-0.614385 20:-0.993653 21:-1 
2048 1:-0.973249 2:0.599499 3:-0.923635 4:-0.0379292 5:-0.731263 6:0.941477 7:-0.469712 8:0.865148 9:-0.969365 10:-0.6 11:-1 12:-1 13:1 14:-1 15:-1 16:-0.288705 17:-0.364404 19:-0.774204 20:-0.99864 21:-1 
2048 1:-0.959085 2:0.66236 3:-0.961746 4:0.800063 5:-0.96834 6:0.995779 7:-0.986211 8:0.997627 9:-0.999714 10:-0.6 11:0.888363 12:-1 13:-0.877341 14:-0.6 15:-1 16:-0.133038 17:-0.402706 18:-0.333333 19:-0.68612 20:-0.996579 21:-1 
676.2469697552292 1:-0.927613 2:0.433157 3:-0.934549 4:0.630246 5:-0.941494 6:0.992212 7:-0.971332 8:0.995334 9:-0.999398 10:-0.6 11:0.920619 12:0.625095 13:-0.747271 14:-0.2 15:-1 16:0.459585 17:-0.314224 18:-0.428571 19:-0.586716 20:-0.992132 21:-1 
294.6356290043811 1:-0.970102 2:0.310136 3:-0.794897 4:-0.112465 5:-0.551367 6:0.848433 7:-0.449631 8:0.781929 9:-0.923042 10:-0.6 11:-1 12:-1 13:-0.141113 14:-1 15:-1 16:0.0513876 17:-0.290185 18:0.5 19:-0.817672 20:-0.999217 21:-1 
428.1460617714109 1:-0.870966 2:0.432387 3:-0.961008 4:0.413221 5:-0.944609 6:0.995495 7:-0.957279 8:0.995826 9:-0.99968 10:-0.6 11:0.828443 12:0.812256 13:-0.922458 14:-0.6 15:-0.333333 16:0.22533 17:-0.572693 18:-0.555556 19:-0.676027 20:-0.996246 21:-1 
67.88204422785384 1:-0.95594 2:0.413544 3:-0.893046 4:0.30634 5:-0.82785 6:0.96422 7:-0.845868 8:0.962266 9:-0.991863 10:-0.6 11:0.616185 12:0.627239 13:0.980302 14:-1 15:-1 16:0.0757366 17:-0.00235107 18:-0.2 19:-0.803935 20:-0.999059 21:-1 
82.51776326652084 1:-1 2:0.569788 3:-0.66626 4:0.178413 5:-0.134077 6:0.2343 7:0.261587 8:-0.30793 9:0.20976 10:-0.6 11:-1 12:-1 13:1 14:-1 15:-1 16:-0.102569 17:0.238402 18:0.333333 19:-0.93547 20:-0.99991 21:-1 
2048 1:-0.971675 2:0.155132 3:-0.680979 4:0.600571 5:-0.795832 6:0.912644 7:-0.926798 8:0.962971 9:-0.983524 10:-0.6 11:0.856373 12:-1 13:-0.875441 14:-0.6 15:-1 16:0.306713 17:-0.08169 18:-0.333333 19:-0.703103 20:-0.99709 21:-1 
2048 1:-0.976397 2:0.299648 3:-0.749968 4:0.470782 5:-0.744196 6:0.896373 7:-0.853603 8:0.930259 9:-0.97054 10:-0.6 11:-1 12:-1 13:1 14:-1 15:-1 16:-0.00430359 17:-0.231905 18:-1 19:-0.749304 20:-0.998194 21:-1 
2048 1:-0.933909 2:0.374032 3:-0.911927 4:0.255235 5:-0.857455 6:0.977114 7:-0.871718 8:0.975746 9:-0.99599 10:-0.6 11:0.714635 12:0.783762 13:-0.725424 14:-1 15:-0.333333 16:-0.111829 17:-0.6 18:-0.714286 19:-0.717086 20:-0.997466 21:-1 
2048 1:-0.963809 2:0.159209 3:-0.739928 4:0.0855439 5:-0.616758 6:0.865465 7:-0.683326 8:0.869502 9:-0.952182 10:-0.6 11:-1 12:-1 13:-0.153996 14:-1 15:-1 16:-0.11241 17:0.0535213 18:-0.5 19:-0.767211 20:-0.998524 21:-1 
2048 1:-0.943351 2:0.444891 3:-0.921623 4:0.594648 5:-0.921695 6:0.987339 7:-0.957027 8:0.991646 9:-0.998642 10:-0.6 11:0.915246 12:0.62282 13:-0.74832 14:-0.6 15:-1 16:-0.0076021 17:-0.62075 18:-0.428571 19:-0.69343 20:-0.996807 21:-1 
1649.643226190273 1:-0.825327 2:0.296922 3:-0.954381 4:0.528996 5:-0.95781 6:0.996722 7:-0.978872 8:0.997912 9:-0.99986 10:-0.6 11:0.944054 12:0.784452 13:-0.814024 14:-0.6 15:-1 16:0.255613 17:-0.762934 18:-1 19:-0.553947 20:-0.989996 21:-1 
190.4557634434784 1:-0.952792 2:0.114296 3:-0.76285 4:-0.319136 5:-0.521354 6:0.854481 7:-0.458229 8:0.806837 9:-0.938671 10:-0.6 11:-1 12:0.865085 13:0.990483 14:-1 15:-0.666667 16:-0.180823 17:-0.250345 18:-0.6 19:-0.835073 20:-0.999388 21:-1 
25.52335669654266 1:-0.982691 2:-0.0872194 3:-0.247334 4:-0.208135 5:0.131193 6:0.111566 7:-0.0444267 8:0.120472 9:-0.277749 10:-0.6 11:-1 12:-1 13:-0.999741 14:-1 15:-1 16:-0.16537 17:0.695775 18:-0.333333 19:-0.862402 20:-0.999599 21:-1 
2048 1:-0.940204 2:0.439585 3:-0.921134 4:0.88325 5:-0.977182 6:0.996284 7:-0.996577 8:0.999091 9:-0.999894 10:-0.6 11:0.906503 12:-1 13:-0.882126 14:-0.6 15:-1 16:-0.218978 17:-0.602883 18:-0.75 19:-0.712624 20:-0.99735 21:-1 
1572.981416979034 1:-0.965381 2:0.0848317 3:-0.677508 4:0.101453 5:-0.571763 6:0.828739 7:-0.681009 8:0.850435 9:-0.937516 10:-0.6 11:-1 12:-1 13:1 14:-1 15:-1 16:0.0826959 17:-0.267605 18:-0.333333 19:-0.775663 20:-0.998663 21:-1 
130.726563175964 1:-0.855231 2:0.356927 3:-0.952806 4:0.999055 5:-0.999097 6:0.999771 7:-0.999848 8:0.999712 9:-0.999999 10:-0.6 11:0.934565 12:-1 13:-0.883397 14:0.2 15:-1 16:-0.0363835 17:-0.729176 18:-1 19:-0.547799 20:-0.989551 21:0.233326 
1852.665826855014 1:-0.960661 2:0.330224 3:-0.842887 4:0.408815 5:-0.811515 6:0.949731 7:-0.87397 8:0.960335 9:-0.989005 10:-0.6 11:0.888429 12:-1 13:-0.63093 14:-1 15:-1 16:0.311004 17:-0.0928644 18:-0.2 19:-0.761538 20:-0.998425 21:-1 
2048 1:-0.897719 2:0.393171 3:-0.943324 4:0.524758 5:-0.939271 6:0.993414 7:-0.964415 8:0.995324 9:-0.999511 10:-0.6 11:0.810777 12:0.914581 13:-0.835242 14:-0.6 15:-1 16:0.171953 17:-0.715007 18:-0.777778 19:-0.619914 20:-0.993928 21:-1 
2048 1:-0.981118 2:0.211993 3:-0.622088 4:0.314838 5:-0.55497 6:0.757749 7:-0.705777 8:0.811902 9:-0.892979 10:-0.6 11:-1 12:-1 13:1 14:-1 15:-1 16:-0.125859 17:-0.152 18:-0.2 19:-0.751265 20:-0.998233 21:-1 
2048 1:-0.959086 2:0.758427 3:-0.981154 4:0.575573 5:-0.954082 6:0.995743 7:-0.939435 8:0.993429 9:-0.999413 10:-0.6 11:-1 12:0.799711 13:-0.158253 14:-1 15:-0.333333 16:0.189689 17:-0.292958 18:-0.666667 19:-0.633887 20:-0.994585 21:-1 
2048 1:-0.960659 2:0.24682 3:-0.807176 4:0.287283 5:-0.752591 6:0.92809 7:-0.822467 8:0.939315 9:-0.981636 10:-0.6 11:0.699831 12:-1 13:-0.912696 14:-0.6 15:-1 16:0.0635207 17:-0.369014 18:-1 19:-0.742731 20:-0.99806 21:-1 
19.35361676985973 1:-0.965382 2:0.120891 3:-0.708135 4:0.323892 5:-0.695967 6:0.88553 7:-0.822556 8:0.921422 9:-0.969152 10:-0.6 11:0.849926 12:-1 13:-0.632601 14:-0.6 15:-0.666667 16:-0.0280178 17:-0.0905327 18:-0.6 19:-0.743077 20:-0.998067 21:-1 
281.21734458566 1:-0.937057 2:-0.312786 3:-0.607348 4:0.297341 5:-0.715522 6:0.903575 7:-0.884669 8:0.953901 9:-0.983742 10:-0.6 11:0.777775 12:-1 13:-0.872373 14:-0.6 15:-0.666667 16:0.333136 17:-0.063014 18:-0.333333 19:-0.791304 20:-0.998895 21:-1 
1.47905801072322 1:-0.845788 2:0.991357 3:-0.999864 4:0.639751 5:-0.998499 6:0.99974 7:-0.987122 8:0.99971 9:-1 10:-0.6 11:-1 12:0.928973 13:-0.194877 14:-1 15:-0.333333 16:-0.149135 17:-0.756974 18:-0.833333 19:-0.391251 20:-0.972366 21:0.104294 
542.6120641651604 1:-0.948073 2:0.779304 3:-0.98766 4:-0.392795 5:-0.893148 6:0.992956 7:-0.48464 8:0.961308 9:-0.997424 10:-0.6 11:-1 12:0.757027 13:-0.192876 14:-1 15:-0.666667 16:-0.264263 17:-0.441797 18:-0.6 19:-0.830707 20:-0.999348 21:-1 
2048 1:-0.852085 2:0.867027 3:-0.998217 4:0.423755 5:-0.98894 6:0.999592 7:-0.966421 8:0.999157 9:-0.999991 10:-0.6 11:-1 12:0.814262 13:-0.205891 14:-1 15:-0.666667 16:0.0107398 17:-0.685237 18:-0.818182 19:-0.55935 20:-0.990375 21:-1 
24.21634196225626 1:-0.974822 2:0.412459 3:-0.840833 4:0.995444 5:-0.998235 6:0.999583 7:-0.999829 8:0.999662 9:-0.999978 10:-1 11:-1 12:-1 13:1 14:-1 15:-1 16:-0.166544 17:0.0898162 18:-0.5 19:-0.685486 20:-0.996559 21:-0.245399 
2048 1:-0.971676 2:0.691637 3:-0.961238 4:0.21199 5:-0.864443 6:0.980415 7:-0.736518 8:0.95549 9:-0.993355 10:-0.6 11:-1 12:0.687049 13:-0.206878 14:-1 15:-0.666667 16:-0.0323385 17:-0.357631 18:-0.333333 19:-0.78203 20:-0.998762 21:-1 
325.6730886207948 1:-0.968528 2:0.401689 3:-0.865884 4:0.111243 5:-0.729702 6:0.931101 7:-0.694835 8:0.90879 9:-0.975775 10:-0.6 11:-1 12:-1 13:-0.113755 14:-0.6 15:-0.666667 16:-0.22348 17:0.226761 18:-0.5 19:-0.735316 20:-0.9979 21:-1 
861.4870927786632 1:-0.84579 2:0.244651 3:-0.946571 4:0.324425 5:-0.93464 6:0.994584 7:-0.956149 8:0.995621 9:-0.999655 10:-0.6 11:0.88673 12:0.739961 13:-0.0282618 14:-0.6 15:-0.666667 16:-0.150121 17:-0.72964 18:-0.6 19:-0.613246 20:-0.993595 21:-1 
70.73596354381701 1:-0.885127 2:0.516219 3:-0.970069 4:0.992645 5:-0.998586 6:0.999735 7:-0.999818 8:0.999713 9:-0.999999 10:-0.2 11:0.908104 12:-1 13:-0.866917 14:0.6 15:-1 16:-0.265032 17:-0.639257 18:-0.692308 19:-0.452266 20:-0.980554 21:-0.4783 
2048 1:-0.776549 2:0.281589 3:-0.965204 4:0.346121 5:-0.956616 6:0.997427 7:-0.970598 8:0.997861 9:-0.999893 10:-0.6 11:0.897274 12:0.910548 13:-0.715701 14:0.2 15:-0.666667 16:-0.203594 17:-0.834795 18:-0.5 19:-0.518032 20:-0.987185 21:-1 
247.1548479619085 1:-0.970101 2:-0.0328654 3:-0.578177 4:0.211224 5:-0.564177 6:0.798198 7:-0.747532 8:0.862729 9:-0.933625 10:-0.6 11:0.823414 12:-1 13:0.98641 14:-0.6 15:-0.666667 16:-0.348941 17:-0.08169 18:-0.6 19:-0.808336 20:-0.999112 21:-1 
2048 1:-0.932336 2:0.0113169 3:-0.802248 4:0.261815 5:-0.799739 6:0.954526 7:-0.886851 8:0.969669 9:-0.992868 10:-0.6 11:0.754293 12:0.840657 13:-0.754222 14:-0.6 15:-1 16:-0.30386 17:-0.658874 18:-0.714286 19:-0.75431 20:-0.998291 21:-1 
255.6118172359228 1:-0.900863 2:-0.454639 3:-0.688828 4:-0.217909 5:-0.64713 6:0.914396 7:-0.775168 8:0.935856 9:-0.983803 10:-0.6 11:0.852751 12:-1 13:-0.881917 14:-0.6 15:-0.666667 16:-0.287585 17:-0.548031 18:-0.777778 19:-0.692165 20:-0.996768 21:-1 
70.50554593036419 1:-0.981117 2:0.231019 3:-0.661703 4:0.874428 5:-0.925426 6:0.962974 7:-0.990992 8:0.994438 9:-0.997229 10:-0.2 11:0.597224 12:-1 13:-0.86874 14:-0.6 15:-1 16:-0.307491 17:-0.0708563 18:0.2 19:-0.869742 20:-0.999645 21:-1 
2048 1:-0.935481 2:0.838553 3:-0.994752 4:0.394468 5:-0.972396 6:0.998755 7:-0.922662 8:0.99641 9:-0.999871 10:-0.6 11:-1 12:0.871378 13:-0.230045 14:-1 15:-0.666667 16:-0.0766966 17:-0.388593 18:-0.714286 19:-0.654194 20:-0.995442 21:-1 
499.0750936481901 1:-0.809595 2:0.647793 3:-0.991036 4:0.603317 5:-0.985267 6:0.99935 7:-0.988036 8:0.999321 9:-0.999988 10:-0.6 11:0.727825 12:0.814013 13:-0.386476 14:0.2 15:-0.666667 16:0.997583 17:-0.68794 18:-0.692308 19:-0.443177 20:-0.979468 21:-1 
2048 1:-0.95122 2:0.460846 3:-0.929491 4:0.291527 5:-0.873473 6:0.981053 7:-0.874036 8:0.977746 9:-0.996573 10:-0.6 11:-1 12:0.796715 13:-0.269914 14:-1 15:-0.666667 16:-0.0946013 17:-0.525183 18:-0.333333 19:-0.728457 20:-0.997744 21:-1 
2048 1:-0.825329 2:0.463955 3:-0.976717 4:0.719487 5:-0.982756 6:0.998953 7:-0.99352 8:0.999361 9:-0.999981 10:-0.6 11:0.904786 12:0.884944 13:-0.0910033 14:-0.6 16:0.155116 17:-0.732462 18:-1 19:-0.478601 20:-0.983459 21:-1 
1050.472770018287 1:-0.929188 2:0.31722 3:-0.913207 4:-0.119963 5:-0.806596 6:0.971958 7:-0.759284 8:0.959089 9:-0.993865 10:-0.6 11:0.8309 12:0.872456 13:-0.10739 14:-0.2 15:-0.666667 16:0.0210861 17:-0.517826 18:-0.428571 19:-0.733249 20:-0.997854 21:-1 
2048 1:-0.985838 2:0.334093 3:-0.726059 4:0.396112 5:-0.663147 6:0.842585 7:-0.768251 8:0.872685 9:-0.937827 10:-0.6 11:-1 12:-1 13:-0.364839 14:-1 15:-1 16:0.338449 17:-0.153296 19:-0.846775 20:-0.999486 21:-1 
2048 1:-0.960661 2:0.00222992 3:-0.691781 4:0.121323 5:-0.632521 6:0.871266 7:-0.754423 8:0.898955 9:-0.963074 10:-0.6 11:0.671687 12:-1 13:-0.854603 14:-1 15:-1 16:-0.186863 17:-0.139236 18:-0.6 19:-0.772262 20:-0.998609 21:-1 
237.843160521741 1:-0.688422 2:0.994374 3:-0.999925 4:0.593528 5:-0.998966 6:0.999745 7:-0.991746 8:0.999733 9:-1 10:-0.6 11:-1 12:0.926922 13:-0.214206 14:-1 16:-0.122206 17:-0.830496 18:-0.777778 19:-0.404449 20:-0.974322 21:0.646403 
77.70973845085057 1:-0.98269 2:0.913857 3:-0.99598 4:0.546937 5:-0.970042 6:0.99816 7:-0.880039 8:0.9922 9:-0.999567 10:-0.6 11:-1 12:0.552736 13:-0.225146 14:-1 15:-1 16:-0.123252 17:-0.0819062 18:0.333333 19:-0.715279 20:-0.99742 21:-1 
40.19395616477502 1:-0.949645 2:0.996139 3:-0.999884 4:0.193899 5:-0.998887 6:0.999708 7:-0.82445 8:0.999757 9:-0.999991 10:-0.6 11:-1 12:0.745199 13:-0.203418 14:-1 15:-0.666667 16:-0.251235 17:-0.362929 18:-1 19:-0.749354 20:-0.998195 21:-0.856266 
28.68981392739083 1:-0.97797 2:0.91885 3:-0.996839 4:0.996675 5:-0.998813 6:0.999743 7:-0.999786 8:0.999718 9:-1 10:-0.6 11:-1 12:-1 13:1 14:-1 15:-1 16:-0.22355 17:0.0758042 18:-0.333333 19:0.0961793 20:-0.784232 21:-1 
252.2716209056692 1:-0.951217 2:0.844751 3:-0.993847 4:0.401148 5:-0.966602 6:0.99827 7:-0.903065 8:0.994595 9:-0.999755 10:-0.6 11:-1 12:0.802587 13:-0.21612 14:-1 16:-0.0506198 17:-0.406226 18:-1 19:-0.711366 20:-0.997317 21:-1 
1396.378873095384 1:-0.81746 2:0.748386 3:-0.994996 4:0.664718 5:-0.990141 6:0.999549 7:-0.990909 8:0.999495 9:-0.999994 10:-0.6 11:0.7587 12:0.804169 13:-0.781906 14:-0.6 15:-0.666667 16:-0.14497 17:-0.780281 18:-1 19:-0.331734 20:-0.962121 21:-1 
2048 1:-0.948071 2:0.695588 3:-0.977651 4:0.806122 5:-0.979673 6:0.998125 7:-0.990487 8:0.998785 9:-0.999916 10:-0.6 11:0.872436 12:-1 13:-0.900842 14:-0.6 15:-0.666667 16:-0.0755214 17:-0.38316 18:-1 19:-0.489037 20:-0.984515 21:-1 
176.3774643111858 1:-0.974823 2:0.663603 3:-0.950849 4:0.193298 5:-0.838866 6:0.973024 7:-0.705846 8:0.942303 9:-0.989981 10:-0.6 11:-1 12:0.559717 13:-0.219693 14:-1 15:-1 16:-0.212721 17:-0.216901 18:-1 19:-0.791293 20:-0.998895 21:-1 
2048 1:-0.943349 2:0.799454 3:-0.990973 4:0.554668 5:-0.971755 6:0.998346 7:-0.953412 8:0.996937 9:-0.99985 10:-0.6 11:-1 12:0.922894 13:-0.226293 14:-1 16:-0.0994833 17:-0.562898 18:-1 19:-0.620497 20:-0.993957 21:-1 
1840.21968530748 1:-0.883554 2:0.709157 3:-0.989943 4:0.818958 5:-0.990786 6:0.999432 7:-0.996041 8:0.999555 9:-0.999993 10:-0.6 11:0.860066 12:0.765309 13:-0.86611 14:0.2 15:-0.666667 16:-0.0994457 17:-0.558891 18:-1 19:-0.28494 20:-0.952251 21:-1 
893.5872635110433 1:-0.864674 2:0.392277 3:-0.960488 4:-0.210768 5:-0.892924 6:0.991914 7:-0.838685 8:0.985856 9:-0.998929 10:-0.6 11:0.833598 12:0.88882 13:-0.478391 14:-0.6 15:-0.333333 16:-0.162139 17:-0.737123 18:-1 19:-0.67482 20:-0.996204 21:-1 
2048 1:-0.830054 2:0.159459 3:-0.940534 4:0.998504 5:-0.998973 6:0.999756 7:-0.99994 8:0.999722 9:-0.999999 10:-0.6 11:0.80305 12:-1 13:-0.848368 14:-0.6 15:-1 16:-0.140487 17:-0.758407 18:-1 19:-0.679532 20:-0.996364 21:-1 
2048 1:-0.861524 2:0.465456 3:-0.971005 4:0.487466 5:-0.961536 6:0.997449 7:-0.972416 8:0.997753 9:-0.999873 10:-0.6 11:0.864262 12:0.906345 13:0.0441336 14:-0.6 15:-0.333333 16:-0.134988 17:-0.746218 18:-1 19:-0.506831 20:-0.986198 21:-1 
41.93958872750258 1:1 2:0.629242 3:-0.998935 4:0.876397 5:-0.998471 6:0.999746 7:-0.999712 8:0.999727 9:-1 10:-0.6 11:0.92422 12:0.905557 13:-0.853709 14:1 15:-0.666667 16:0.256372 17:-0.994449 18:-1 19:0.375005 20:-0.50647 21:-1 
2048 1:-0.93863 2:-0.0352401 3:-0.770605 4:-0.0739931 5:-0.677634 6:0.918925 7:-0.746271 8:0.925057 9:-0.980366 10:-0.6 11:0.659759 12:0.557947 13:-0.350077 14:-0.6 15:-1 16:-0.15077 17:-0.541408 18:-1 19:-0.767833 20:-0.998535 21:-1 
2048 1:-0.970101 2:0.308892 3:-0.819731 4:0.743801 5:-0.909275 6:0.973195 7:-0.97473 8:0.990973 9:-0.997292 10:-0.6 11:0.794802 12:-1 13:-0.847155 14:-0.6 15:-1 16:-0.333288 17:-0.521126 18:-1 19:-0.709841 20:-0.997276 21:-1 
2048 1:-0.985838 2:0.404833 3:-0.773376 4:0.453218 5:-0.717683 6:0.877882 7:-0.803389 8:0.900024 9:-0.954846 10:-0.6 11:-1 12:-1 13:1 14:-1 15:-1 16:-0.138047 17:-0.216901 18:-1 19:-0.810694 20:-0.999139 21:-1 
2048 1:-0.963808 2:-0.113011 3:-0.589788 4:0.120197 5:-0.561144 6:0.81658 7:-0.7368 8:0.870793 9:-0.943605 10:-0.6 11:0.819093 12:-1 13:-0.594745 14:-1 15:-1 16:-0.0700593 17:-0.258098 18:-1 19:-0.818771 20:-0.999229 21:-1 
47.50586159611797 1:-0.988986 2:-0.0740789 3:-0.124531 4:-0.355449 5:0.49463 6:-0.382423 7:0.434653 8:-0.554999 9:0.503857 10:-0.6 11:-1 12:-1 13:1 14:-1 15:-1 16:-0.159766 17:0.125876 18:-1 19:-0.88912 20:-0.999749 21:-1 
2048 1:-0.957513 2:0.066165 3:-0.741276 4:0.146634 5:-0.67975 6:0.899351 7:-0.777976 8:0.918008 9:-0.97314 10:-0.6 11:0.865325 12:-1 13:-0.680975 14:-0.6 15:-1 16:-0.141026 17:-0.514789 18:-1 19:-0.764857 20:-0.998483 21:-1 
119.1864863028364 1:-0.883553 2:-0.197224 3:-0.82569 4:0.667206 5:-0.933849 6:0.989009 7:-0.986024 8:0.997027 9:-0.999534 10:-0.2 11:0.890166 12:-1 13:-0.855835 14:0.2 15:-1 16:-0.215034 17:-0.643617 18:-1 19:-0.645048 20:-0.995069 21:-1 
594.2907959032038 1:-0.870968 2:0.686033 3:-0.989396 4:0.275026 5:-0.966189 6:0.998481 7:-0.942251 8:0.997158 9:-0.999896 10:-0.6 11:0.826867 12:0.813038 13:-0.244219 14:-0.6 15:-0.666667 16:0.141957 17:-0.560879 18:-0.636364 19:-0.609514 20:-0.993403 21:-1 
1082.335962405795 1:-0.91345 2:0.668465 3:-0.98376 4:0.505248 5:-0.96659 6:0.997938 7:-0.96306 8:0.99735 9:-0.999861 10:-0.6 11:0.818999 12:0.683334 13:-0.951008 14:-1 15:-0.666667 16:0.0022347 17:-0.667198 18:-0.75 19:-0.512237 20:-0.986681 21:-1 
900.6708293235818 1:-0.848932 2:0.673037 3:-0.990682 4:0.47763 5:-0.979189 6:0.99911 7:-0.975654 8:0.99883 9:-0.99997 10:-0.6 11:0.84121 12:0.872928 13:-0.212483 14:-0.6 16:0.362718 17:-0.6871 18:-0.833333 19:-0.432315 20:-0.978111 21:-1 
169.3977695676097 1:-0.881981 2:0.351094 3:-0.954368 4:0.548412 5:-0.95627 6:0.996351 7:-0.977125 8:0.997605 9:-0.999824 10:-0.6 11:0.87494 12:0.621318 13:-0.86895 14:-0.2 15:-0.666667 16:0.518487 17:-0.611028 18:-0.8 19:-0.503303 20:-0.985876 21:-1 
929.2299890117513 1:-0.682137 2:0.596452 3:-0.993118 4:0.75982 5:-0.993563 6:0.999646 7:-0.997382 8:0.999672 9:-0.999999 10:-0.6 11:0.867944 12:0.875555 13:-0.835628 14:-0.2 15:-0.666667 16:1 17:-0.839123 18:-0.619048 19:-0.184435 20:-0.924654 21:-1 
2048 1:-0.943351 2:0.515496 3:-0.950933 4:0.503697 5:-0.931174 6:0.991948 7:-0.946963 8:0.992603 9:-0.999144 10:-0.6 11:0.828535 12:0.642065 13:-0.81802 14:-0.6 15:-0.666667 16:0.129593 17:-0.500231 18:-0.75 19:-0.614834 20:-0.993676 21:-1 
1115.585505616768 1:-0.911879 2:0.596556 3:-0.975472 4:0.362672 5:-0.946874 6:0.996145 7:-0.937129 8:0.994681 9:-0.999635 10:-0.6 11:0.724972 12:0.771041 13:-0.333756 14:-0.6 15:-0.666667 16:0.761821 17:-0.481214 18:-0.8 19:-0.594805 20:-0.992602 21:-1 
116.8643782912997 1:-0.973249 2:0.200162 3:-0.757021 4:0.371534 5:-0.741258 6:0.910827 7:-0.845898 8:0.937489 9:-0.977556 10:-0.6 11:0.602715 12:0.500179 13:-0.340264 14:-0.6 15:-0.666667 16:0.287598 17:-0.12676 18:-0.5 19:-0.75691 20:-0.99834 21:-1 
2048 1:-0.959086 2:0.162386 3:-0.791029 4:0.852204 5:-0.949832 6:0.985862 7:-0.993332 8:0.997518 9:-0.999347 10:-0.6 11:0.762136 12:-1 13:-0.852756 14:-0.6 15:-1 16:-0.106719 17:-0.485089 18:-0.333333 19:-0.710056 20:-0.997282 21:-1 
385.8357906361879 1:-0.937056 2:-0.597814 3:-0.500057 4:0.118567 5:-0.627097 6:0.867834 7:-0.843926 8:0.934925 9:-0.975972 10:-0.6 11:0.624037 12:-1 13:-0.838248 14:-0.2 15:-1 16:-0.21488 17:-0.320379 18:0.6 19:-0.760569 20:-0.998407 21:-1 
63.15266193578216 1:-0.864674 2:-0.279877 3:-0.841325 4:0.218628 5:-0.868473 6:0.981419 7:-0.93928 8:0.989756 9:-0.998536 10:-0.6 11:0.747977 12:0.642277 13:-0.745972 14:-0.6 15:-1 16:0.104281 17:-0.614164 18:-0.25 19:-0.669911 20:-0.996032 21:-1 
2048 1:-0.954365 2:0.195934 3:-0.823524 4:0.847145 5:-0.954285 6:0.98865 7:-0.993553 8:0.997852 9:-0.999513 10:-0.6 11:0.722596 12:-1 13:-0.854137 14:-0.6 15:-1 16:-0.0467666 17:-0.254543 18:-0.666667 19:-0.747198 20:-0.998152 21:-1 
2048 1:-0.960659 2:-0.214779 3:-0.565376 4:0.515211 5:-0.765377 6:0.904961 7:-0.928859 8:0.965921 9:-0.98566 10:-0.6 11:0.69215 12:-1 13:-0.839616 14:-0.6 15:-1 16:0.340345 17:-0.0901407 18:-0.333333 19:-0.709179 20:-0.997258 21:-1 
2048 1:-0.881984 2:0.394468 3:-0.95804 4:0.723946 5:-0.9733 6:0.997737 7:-0.991058 8:0.998909 9:-0.999933 10:-0.6 11:0.897981 12:0.838493 13:-0.844641 14:-0.2 15:-0.666667 16:0.354488 17:-0.542128 18:-1 19:-0.573362 20:-0.991308 21:-1 
81.70222224622397 1:-0.957512 2:-0.817332 3:-0.0302279 4:-0.728093 5:0.245851 6:0.246591 7:-0.100023 8:0.362417 9:-0.596947 10:-0.6 11:-1 12:-1 13:0.953564 14:-0.6 15:-1 16:0.198538 17:0.0614546 19:-0.840251 20:-0.999433 21:-1 
2048 1:-0.938631 2:-0.109969 3:-0.740135 4:0.668464 5:-0.894746 6:0.972093 7:-0.976245 8:0.99235 9:-0.997954 10:-0.6 11:0.847458 12:-1 13:-0.85151 14:-0.6 15:-1 16:0.153297 17:-0.433215 18:-0.666667 19:-0.71011 20:-0.997283 21:-1 
2048 1:-0.970102 2:-0.0998199 3:-0.558071 4:0.476702 5:-0.715612 6:0.87057 7:-0.897404 8:0.94496 9:-0.973905 10:-0.6 11:0.841589 12:-1 13:-0.842357 14:-0.2 15:-1 16:0.405171 17:-0.374453 18:-0.6 19:-0.749411 20:-0.998196 21:-1 
2048 1:-0.808024 2:0.240283 3:-0.95789 4:0.540949 5:-0.964794 6:0.997604 7:-0.984305 8:0.99858 9:-0.999925 10:-0.6 11:0.85187 12:0.835137 13:-0.486229 14:0.2 15:-0.666667 16:0.0197098 17:-0.820516 18:-0.857143 19:-0.606829 20:-0.993262 21:-1 
456.360041001003 1:-0.820614 2:-0.187778 3:-0.88647 4:0.182467 5:-0.893659 6:0.988343 7:-0.944685 8:0.992723 9:-0.999207 10:-0.6 11:0.80591 12:0.837321 13:-0.793604 14:0.2 15:-0.666667 16:-0.142615 17:-0.762066 18:-1 19:-0.640781 20:-0.994888 21:-1 
295.4288977841959 1:-0.883552 2:0.983242 3:-0.999795 4:0.593953 5:-0.99806 6:0.999732 7:-0.979313 8:0.999691 9:-0.999999 10:-0.6 11:-1 12:0.810685 13:-0.214613 14:-1 16:-0.0198497 17:-0.594727 18:-0.111111 19:-0.413131 20:-0.975551 21:0.302057 
17.41921504930414 1:-0.886704 2:0.980983 3:-0.999809 4:0.989942 5:-0.998976 6:0.999747 7:-0.999818 8:0.999728 9:-1 10:-0.6 11:0.835712 12:0.890507 13:-0.055181 14:-0.2 15:-0.333333 16:-0.388736 17:-0.603521 18:-0.111111 19:0.764487 20:0.247896 21:-0.058777 
2048 1:-0.96538 2:0.969996 3:-0.999499 4:0.662468 5:-0.994766 6:0.999659 7:-0.959659 8:0.999253 9:-0.999989 10:-0.6 11:-1 12:0.830895 13:-0.218314 14:-1 15:-1 16:-0.125828 17:-0.578617 18:-0.714286 19:-0.469866 20:-0.982534 21:-1 
681.825272847021 1:-0.797005 2:0.948183 3:-0.999739 4:0.439616 5:-0.996312 6:0.999732 7:-0.976481 8:0.999626 9:-0.999999 10:-0.6 11:-1 12:0.864703 13:-0.21241 14:-1 15:-0.666667 16:-0.130383 17:-0.83057 18:-0.866667 19:-0.526012 20:-0.987855 21:-1 
2048 1:-0.985838 2:0.720381 3:-0.950873 4:0.207699 5:-0.809821 6:0.961693 7:-0.588789 8:0.90313 9:-0.979685 10:-0.6 11:-1 12:-1 13:-0.22772 14:-1 15:-1 16:0.243888 17:0.519082 18:-0.333333 19:-0.793409 20:-0.998924 21:-1 
2048 1:-0.97797 2:0.698121 3:-0.955827 4:0.625414 5:-0.924686 6:0.987321 7:-0.929192 8:0.985871 9:-0.997575 10:-0.6 11:-1 12:-1 13:-0.213635 14:-1 15:-1 16:0.15706 17:0.0232341 18:0.333333 19:-0.612333 20:-0.993549 21:-1 
711.8651056374092 1:-0.831627 2:0.752236 3:-0.994578 4:-0.264257 5:-0.962341 6:0.998829 7:-0.856376 8:0.995647 9:-0.999893 10:-0.6 11:-1 12:0.79215 13:-0.212635 14:-1 15:-0.666667 16:-0.241695 17:-0.769846 18:-0.777778 19:-0.68821 20:-0.996646 21:-1 
2048 1:-0.88198 2:0.773531 3:-0.993281 4:0.994973 5:-0.998763 6:0.999743 7:-0.999913 8:0.999725 9:-1 10:-0.6 11:0.853854 12:-1 13:-0.862265 14:-0.2 15:-1 16:-0.232976 17:-0.636813 18:-0.6 19:-0.30142 20:-0.955924 21:-1 
339.0102898623889 1:-0.979544 2:0.711638 3:-0.957262 4:0.806612 5:-0.960512 6:0.99325 7:-0.980327 8:0.995855 9:-0.999316 10:-0.6 11:-1 12:-1 13:1 14:-1 15:-1 16:-0.0269514 17:0.055634 18:-1 19:-0.558257 20:-0.990299 21:-1 
544.6280975417659 1:-0.952791 2:0.810725 3:-0.99049 4:0.728754 5:-0.980577 6:0.998694 7:-0.979636 8:0.998375 9:-0.999919 10:-0.6 11:-1 12:0.874128 13:-0.581284 14:-1 15:-0.666667 16:-0.146804 17:-0.228902 18:-0.714286 19:-0.475782 20:-0.983164 21:-1 
2048 1:-0.891423 2:0.746502 3:-0.991766 4:0.61069 5:-0.982013 6:0.999123 7:-0.979799 8:0.99887 9:-0.999967 10:-0.6 11:0.55901 12:0.869108 13:-0.52476 14:-0.6 15:-0.666667 16:-0.180363 17:-0.656653 18:-0.555556 19:-0.429599 20:-0.977761 21:-1 
64.4186475702563 1:-0.754524 2:0.947337 3:-0.999509 4:0.926426 5:-0.998718 6:0.999745 7:-0.999626 8:0.999728 9:-1 10:-0.6 11:0.826497 12:0.840573 13:-0.678805 14:-0.2 15:-0.666667 16:-0.0617929 17:-0.847299 18:-1 19:0.877675 20:0.576336 21:-1 
2048 1:-0.929189 2:0.864312 3:-0.996565 4:0.534922 5:-0.983216 6:0.99929 7:-0.957938 8:0.998341 9:-0.999958 10:-0.6 11:-1 12:0.903601 13:-0.223883 14:-1 15:-0.666667 16:-0.136424 17:-0.439738 18:-0.777778 19:-0.57349 20:-0.991316 21:-1 
1656.686933277204 1:-0.905584 2:0.679449 3:-0.98508 4:0.373334 5:-0.959877 6:0.997676 7:-0.941401 8:0.996145 9:-0.999802 10:-0.6 11:0.825154 12:0.898544 13:-0.0936129 14:-1 15:-0.666667 16:0.0805182 17:-0.600797 18:-0.555556 19:-0.562324 20:-0.990579 21:-1 
2048 1:-0.968529 2:0.552687 3:-0.926071 4:0.687264 5:-0.929316 6:0.986658 7:-0.96269 8:0.991528 9:-0.99839 10:-0.6 11:0.643267 12:-1 13:-0.853338 14:-0.6 15:-1 16:-0.0637251 17:-0.261521 18:-0.6 19:-0.577355 20:-0.991561 21:-1 
212.5451964565547 1:-0.771833 2:0.574737 3:-0.988234 4:0.00520068 5:-0.962393 6:0.998598 7:-0.934504 8:0.99737 9:-0.999923 10:-0.6 11:0.649383 12:0.823153 13:-0.222738 14:-1 16:-0.240853 17:-0.80543 18:-0.333333 19:-0.554764 20:-0.990054 21:-1 
596.5060388409703 1:-0.841065 2:0.45286 3:-0.972846 4:0.847483 5:-0.988983 6:0.999195 7:-0.997798 8:0.999587 9:-0.999992 10:-0.6 11:0.790343 12:-1 13:-0.854352 14:-0.6 15:-0.666667 16:0.643624 17:-0.737808 18:-0.6 19:-0.467159 20:-0.98224 21:-1 
2048 1:-0.98269 2:0.343621 3:-0.761319 4:0.624544 5:-0.81501 6:0.923708 7:-0.919814 8:0.960931 9:-0.983237 10:-0.6 11:0.543543 12:-1 13:-0.850344 14:-1 15:-1 16:-0.0534224 17:0.238402 18:0.333333 19:-0.691279 20:-0.996741 21:-1 
143.6358292372641 1:-0.98269 2:-0.198116 3:-0.162972 4:-0.507563 5:0.424543 6:-0.128944 7:0.363094 8:-0.265832 9:0.0488648 10:-0.2 11:-1 12:-1 13:1 14:-1 15:-1 16:-0.0199726 17:-0.2019 18:0.333333 19:-0.880874 20:-0.999708 21:-1 
48.28134092569231 1:-0.954366 2:-0.727885 3:-0.137173 4:0.82335 5:-0.881383 6:0.933252 7:-0.990792 8:0.993624 9:-0.996391 10:0.2 11:-1 12:-1 13:1 14:-1 15:-1 16:-0.291604 17:-0.10618 18:-0.5 19:-0.823743 20:-0.99928 21:-1 
45.22448822816522 1:-0.114067 2:0.916351 3:-0.999814 4:0.875698 5:-0.99877 6:0.999747 7:-0.999669 8:0.999728 9:-1 10:-0.6 11:0.927547 12:0.961918 13:-0.290965 14:-0.2 15:-0.666667 16:1 17:-0.96128 18:-0.891892 19:0.716854 20:0.12626 21:-0.483744 
231.7033275904975 1:-0.973249 2:0.615317 3:-0.936963 4:0.960166 5:-0.990654 6:0.998222 7:-0.999114 8:0.999535 9:-0.999963 10:-0.2 11:-1 12:-1 13:1 14:-1 15:-1 16:-0.198781 17:0.0277059 18:0.333333 19:-0.50591 20:-0.986114 21:-1 
10.35029770327933 1:-0.907156 2:0.61413 3:-0.977798 4:0.878685 5:-0.989538 6:0.999126 7:-0.997677 8:0.999547 9:-0.999987 10:-0.2 11:0.891685 12:-1 13:-0.855442 14:-0.2 15:-1 16:-0.00403746 17:-0.56901 19:-0.506684 20:-0.986185 21:-1 
692.3002521406523 1:-0.981117 2:0.82058 3:-0.983443 4:0.535442 5:-0.940681 6:0.993555 7:-0.883666 8:0.985359 9:-0.998404 10:-0.6 11:-1 12:0.855363 13:-0.231366 14:-1 15:-0.333333 16:0.443015 17:0.0277059 18:-0.5 19:-0.695295 20:-0.996863 21:-1 
458.411012829835 1:-0.935481 2:0.68979 3:-0.981473 4:0.542616 5:-0.962433 6:0.997264 7:-0.958751 8:0.996494 9:-0.99977 10:-0.6 11:0.836479 12:0.848398 13:-0.75566 14:-0.6 16:0.0653727 17:-0.653972 18:-1 19:-0.512619 20:-0.986715 21:-1 
560.958362671431 1:-0.926042 2:0.172486 3:-0.879417 4:-0.389374 5:-0.725222 6:0.95443 7:-0.649549 8:0.931848 9:-0.988252 10:-0.6 11:-1 12:0.793894 13:0.0321156 14:-1 15:-0.666667 16:0.426573 17:-0.264501 18:-0.333333 19:-0.774887 20:-0.998651 21:-1 
2048 1:-0.965382 2:0.408895 3:-0.885794 4:0.289673 5:-0.813369 6:0.958961 7:-0.830034 8:0.956015 9:-0.989959 10:-0.6 11:0.813591 12:0.832527 13:-0.931276 14:-0.6 15:-0.333333 16:0.37261 17:-0.226012 18:-0.666667 19:-0.766218 20:-0.998507 21:-1 
173.6243356542279 1:-0.642788 2:0.323405 3:-0.981768 4:0.654682 5:-0.986368 6:0.999363 7:-0.994899 8:0.999544 9:-0.999994 10:-0.6 11:0.887045 12:0.899145 13:-0.847474 14:-0.6 15:-0.333333 16:0.967966 17:-0.865123 18:-0.764706 19:-0.385668 20:-0.971505 21:-1 
429.7789590106692 1:-0.905583 2:0.978308 3:-0.999802 4:0.234719 5:-0.996152 6:0.999712 7:-0.911428 8:0.999423 9:-0.999996 10:-0.6 11:-1 12:0.891351 13:-0.225951 14:-1 15:-0.666667 16:0.224725 17:-0.600797 18:-0.5 19:-0.652129 20:-0.99536 21:0.00613491 
19.51403349082024 1:-0.963808 2:0.595865 3:-0.949574 4:-0.519164 5:-0.743472 6:0.963376 7:-0.264913 8:0.878242 9:-0.981923 10:-0.6 11:-1 12:-1 13:-0.288472 14:-1 15:-1 16:1 17:0.186932 18:-0.5 19:-0.765059 20:-0.998487 21:-1 
1864.154240717216 1:-0.976396 2:0.70913 3:-0.964524 4:0.589465 5:-0.931053 6:0.990284 7:-0.926514 8:0.987752 9:-0.998256 10:-0.6 11:-1 12:0.526071 13:-0.280963 14:-1 15:-1 16:0.312106 17:-0.285873 18:-1 19:-0.660082 20:-0.99567 21:-1 
331.9529429025391 1:-0.808019 2:0.822653 3:-0.997642 4:0.184824 5:-0.984771 6:0.99953 7:-0.949826 8:0.998871 9:-0.999986 10:-0.6 11:-1 12:0.827162 13:-0.231619 14:-1 15:-0.666667 16:1 17:-0.672011 18:-0.846154 19:-0.612985 20:-0.993582 21:-1 
64.71769500466043 1:-0.976397 2:0.583239 3:-0.91967 4:-0.602577 5:-0.580529 6:0.907728 7:0.231051 8:0.683795 9:-0.927377 10:-0.6 11:-1 12:-1 13:-0.228963 14:-1 15:-0.666667 16:0.0243882 17:-0.148088 18:-0.5 19:-0.838614 20:-0.999419 21:-1 
2048 1:-0.875688 2:0.548277 3:-0.979065 4:0.60233 5:-0.97444 6:0.998463 7:-0.983442 8:0.998728 9:-0.999945 10:-0.6 11:0.830064 12:0.846833 13:-0.683195 14:0.2 15:-0.666667 16:0.448374 17:-0.67893 18:-0.818182 19:-0.428617 20:-0.977634 21:-1 
432.2650493662127 1:-0.966956 2:0.409424 3:-0.878927 4:-0.337411 5:-0.628964 6:0.913422 7:-0.360768 8:0.825854 9:-0.957595 10:-0.6 11:-1 12:-1 13:1 14:-1 15:-1 16:0.468315 17:-0.391577 18:-1 19:-0.752158 20:-0.99825 21:-1 
2048 1:-0.981117 2:0.26974 3:-0.748529 4:0.0661391 5:-0.564246 6:0.829597 7:-0.576523 8:0.805772 9:-0.920659 10:-0.6 11:-1 12:-1 13:1 14:-1 15:-1 16:-0.179227 17:-0.0293361 18:-0.5 19:-0.797198 20:-0.998974 21:-1 
89.44981806774545 1:-0.974823 2:-0.126442 3:-0.481204 4:-0.804973 5:0.124661 6:0.41232 7:0.370641 8:0.16101 9:-0.541676 10:-0.6 11:-1 12:-1 13:-0.999509 14:-1 15:-1 16:0.624834 17:0.685427 18:0.333333 19:-0.859076 20:-0.999576 21:-1 
519.51984395952 1:-0.933911 2:0.337655 3:-0.915725 4:0.781463 5:-0.961637 6:0.994359 7:-0.990494 8:0.998118 9:-0.999756 10:-0.6 11:0.759748 12:-1 13:-0.850449 14:-0.6 15:-1 16:0.900717 17:-0.529977 18:-0.428571 19:-0.595316 20:-0.992631 21:-1 
2048 1:-0.921321 2:0.252403 3:-0.909706 4:0.772786 5:-0.962277 6:0.994738 7:-0.991418 8:0.998359 9:-0.999805 10:-0.6 11:0.742658 12:-1 13:-0.841828 14:-0.6 15:-1 16:0.601357 17:-0.384844 18:-0.75 19:-0.606226 20:-0.99323 21:-1 
384.1413661861968 1:-0.965381 2:-0.540647 3:-0.292416 4:-0.182759 5:-0.265898 6:0.617985 7:-0.571965 8:0.738821 9:-0.858 10:-0.6 11:0.461347 12:-1 13:-0.81931 14:-1 15:-1 16:0.82842 17:0.397887 18:-0.5 19:-0.795161 20:-0.998947 21:-1 
488.5006663599752 1:-0.885125 2:-0.483804 3:-0.764546 4:0.132791 5:-0.813515 6:0.966403 7:-0.917433 8:0.982362 9:-0.996737 10:-0.6 11:0.679399 12:0.613439 13:-0.730104 14:-0.6 15:-1 16:0.351917 17:-0.549512 18:-0.75 19:-0.699426 20:-0.996985 21:-1 
20.61034652156008 1:-0.98269 2:-0.71911 3:0.449161 4:-0.334379 5:0.519732 6:-0.451947 7:-0.103669 8:-0.00356864 9:0.0024259 10:-0.6 11:-1 12:-1 13:-0.816875 14:-1 15:-1 16:0.631362 17:0.532507 18:0.333333 19:-0.855376 20:-0.999551 21:-1 
37.38301981092982 1:-0.837921 2:-0.428841 3:-0.84102 4:-0.168523 5:-0.824292 6:0.977718 7:-0.891378 8:0.983767 9:-0.997896 10:-0.6 11:0.827711 12:0.84585 13:0.970994 14:-0.2 15:-0.666667 16:1 17:-0.482723 18:-0.666667 19:-0.65298 20:-0.995394 21:-1 
197.5216733400614 1:-0.962234 2:-0.22961 3:-0.564077 4:0.477387 5:-0.749462 6:0.899445 7:-0.919445 8:0.961819 9:-0.984074 10:-0.6 11:0.807285 12:-1 13:-0.830665 14:-0.6 15:-1 16:0.65745 17:-0.0655808 18:-0.6 19:-0.786186 20:-0.998823 21:-1 
130.5241286921289 1:-0.870966 2:-0.656251 3:-0.731629 4:0.183687 5:-0.820625 6:0.967004 7:-0.932626 8:0.985244 9:-0.99722 10:-0.6 11:0.772014 12:-1 13:-0.826011 14:0.2 15:-1 16:0.279808 17:-0.62806 18:-0.777778 19:-0.637511 20:-0.994746 21:-1 
-268.6757214298603 1:-0.963808 2:0.906788 3:-0.996393 4:0.94252 5:-0.996015 6:0.999619 7:-0.998572 8:0.999656 9:-0.999997 10:-0.6 11:0.852841 12:-1 13:-0.901187 14:-0.6 15:-0.666667 16:-0.173338 17:-0.183378 18:-0.2 19:-0.197706 20:-0.928853 21:-1 
-73.60551378623222 1:-0.971676 2:0.866291 3:-0.990953 4:0.935422 5:-0.993207 6:0.999307 7:-0.997879 8:0.999539 9:-0.999985 10:-0.6 11:0.800676 12:-1 13:-0.9 14:-0.6 15:-1 16:-0.218203 17:-0.0514644 18:-0.6 19:-0.380335 20:-0.970665 21:-1 
-252.6549718850102 1:-0.885128 2:0.768219 3:-0.991646 4:0.677098 5:-0.983332 6:0.999107 7:-0.983217 8:0.998932 9:-0.999966 10:-0.6 11:0.945271 12:0.9759 13:-0.477437 14:-0.6 16:-0.197625 17:-0.659373 18:-0.777778 19:-0.452573 20:-0.98059 21:-1 
-66.63795099849577 1:-0.987412 2:0.529554 3:-0.806451 4:0.526451 5:-0.735383 6:0.876147 7:-0.797823 8:0.888696 9:-0.945562 10:-0.6 11:-1 12:-1 13:1 14:-1 15:-1 16:-0.136238 17:0.532507 18:-0.333333 19:-0.799994 20:-0.99901 21:-1 
-2048 1:-0.847359 2:0.48592 3:-0.968031 4:0.949418 5:-0.99492 6:0.999472 7:-0.999619 8:0.999697 9:-0.999998 10:-0.6 11:0.982249 12:-1 13:-0.89848 14:-0.2 15:-1 16:-0.171954 17:-0.744202 18:-0.8 19:-0.541457 20:-0.989077 21:-1 
-1097.533719611346 1:-0.918174 2:0.428092 3:-0.930838 4:0.412638 5:-0.902984 6:0.986557 7:-0.924631 8:0.987609 9:-0.998259 10:-0.6 11:0.786612 12:0.846631 13:0.263182 14:-0.6 15:-0.333333 16:-0.179225 17:-0.554929 18:-1 19:-0.639938 20:-0.994852 21:-1 
-477.5447777004305 1:-0.971675 2:0.425801 3:-0.829441 4:0.899123 5:-0.959241 6:0.986355 7:-0.994709 8:0.997633 9:-0.99926 10:-0.6 11:0.832959 12:-1 13:-0.898243 14:-1 15:-1 16:-0.291308 17:-0.258098 18:-0.2 19:-0.741621 20:-0.998037 21:-1 
-109.1362064380719 1:-0.976397 2:-0.0137607 3:-0.388287 4:0.911417 5:-0.928545 6:0.951565 7:-0.995004 8:0.995713 9:-0.997126 10:-0.6 11:-1 12:-1 13:1 14:-1 15:-1 16:-0.151962 17:-0.08169 19:-0.730344 20:-0.997788 21:-1 
-1131.976289466403 1:-0.702595 2:0.494484 3:-0.983605 4:0.81206 5:-0.990762 6:0.999448 7:-0.997609 8:0.999625 9:-0.999996 10:-0.6 11:0.943023 12:0.849319 13:-0.900098 14:-0.2 15:-0.666667 16:-0.156023 17:-0.881489 18:-1 19:-0.446803 20:-0.979906 21:-1 
-109.4664304430668 1:-0.904009 2:-0.248315 3:-0.706059 4:0.310185 5:-0.77994 6:0.941255 7:-0.907859 8:0.970918 9:-0.991957 10:-0.6 11:0.97223 12:-1 13:-0.900531 14:0.6 15:-1 16:-0.133598 17:-0.672784 18:0.142857 19:-0.734355 20:-0.997879 21:-1 
-1904.580885880669 1:-0.968529 2:0.972344 3:-0.999442 4:0.776769 5:-0.995437 6:0.999656 7:-0.976246 8:0.999363 9:-0.99999 10:-0.6 11:-1 12:0.692563 13:-0.036216 14:-1 15:-0.666667 16:-0.0522041 17:-0.364404 18:-1 19:-0.372482 20:-0.969393 21:-1 
-934.3231080172459 1:-0.968529 2:0.700697 3:-0.958528 4:0.983346 5:-0.996207 6:0.999324 7:-0.999564 8:0.999646 9:-0.999986 10:-0.6 11:0.914776 12:-1 13:-0.894628 14:-1 15:-1 16:-0.174334 17:-0.188507 18:0.333333 19:-0.405052 20:-0.974409 21:-1 
-450.3094261254913 1:-0.952792 2:0.665754 3:-0.962997 4:0.741062 5:-0.960326 6:0.994879 7:-0.97715 8:0.996363 9:-0.999557 10:-0.6 11:0.859072 12:0.955034 13:-0.720907 14:0.2 15:-0.333333 16:-0.0855445 17:-0.469387 18:-1 19:-0.588975 20:-0.992266 21:-1 
-333.3828381621856 1:-0.973248 2:-0.0309524 3:-0.440883 4:0.706156 5:-0.78505 6:0.868083 7:-0.953753 8:0.966403 9:-0.978556 10:-0.6 11:-1 12:-1 13:1 14:-1 15:-1 16:-0.00801063 17:0.312906 18:-0.333333 19:-0.795845 20:-0.998956 21:-1 
-518.343369042795 1:-0.966954 2:-0.806014 3:0.45616 4:0.342798 5:-0.285173 6:0.347263 7:-0.80286 8:0.788747 9:-0.798405 10:-0.6 11:-1 12:-1 13:1 14:-1 15:-1 16:-0.0449294 17:0.055634 18:-0.5 19:-0.863145 20:-0.999604 21:-1 
-207.1200297893828 1:-0.95122 2:0.876851 3:-0.994657 4:0.116959 5:-0.952061 6:0.997381 7:-0.737936 8:0.986065 9:-0.999279 10:-0.6 11:-1 12:-1 13:1 14:-1 15:-1 16:-0.165053 17:-0.336911 18:-0.714286 19:-0.617288 20:-0.993799 21:-1 
-270.0666192691677 1:-0.910305 2:0.677114 3:-0.980237 4:0.695054 5:-0.974068 6:0.998017 7:-0.98206 8:0.998289 9:-0.999895 10:-0.6 11:0.825126 12:0.8415 13:-0.0252458 14:-0.2 15:-0.333333 16:-0.211525 17:-0.605979 18:-1 19:-0.473248 20:-0.982896 21:-1 
-1902.124703724256 1:-0.940203 2:0.356264 3:-0.887291 4:0.0309257 5:-0.770076 6:0.954177 7:-0.737413 8:0.938724 9:-0.987304 10:-0.6 11:0.911419 12:0.923277 13:-0.63502 14:-0.6 15:-0.666667 16:-0.198899 17:-0.349319 18:-0.714286 19:-0.715193 20:-0.997417 21:-1 
-0.08161686366164431 1:-0.959088 2:0.429209 3:-0.878537 4:0.550308 5:-0.869796 6:0.968493 7:-0.922532 8:0.97779 9:-0.994452 10:-0.6 11:0.943455 12:0.686299 13:-0.77044 14:-1 15:-1 16:-0.260063 17:-0.303988 18:-0.666667 19:-0.722862 20:-0.99761 21:-1 
-138.7180109090848 1:-0.941776 2:0.430541 3:-0.909595 4:0.992132 5:-0.997827 6:0.999577 7:-0.999909 8:0.999707 9:-0.999996 10:-0.6 11:0.971305 12:-1 13:-0.894049 14:0.2 15:-1 16:-0.253877 17:-0.370687 18:-0.75 19:-0.693299 20:-0.996803 21:-0.329243 
-379.2284750038449 1:-0.966954 2:0.885885 3:-0.994304 4:0.853484 5:-0.989103 6:0.999183 7:-0.990011 8:0.99907 9:-0.999961 10:-1 11:-1 12:-1 13:-0.0447911 14:-1 15:-1 16:-0.247391 17:-0.310184 18:-0.6 19:-0.333659 20:-0.962491 21:-1 
-2048 1:-0.968528 2:0.429269 3:-0.846114 4:0.470048 5:-0.805867 6:0.940517 7:-0.863389 8:0.950672 9:-0.984273 10:-0.6 11:0.907282 12:-1 13:-0.634047 14:-0.6 15:-1 16:-0.212511 17:-0.10618 18:-0.6 19:-0.744391 20:-0.998095 21:-1 
-7.416439901218745 1:-0.979544 2:-0.0828137 3:-0.234514 4:-0.338533 5:0.279771 6:-0.0265385 7:0.202878 8:-0.130413 9:-0.0519249 10:-0.6 11:-1 12:-1 13:1 14:-1 15:-1 16:-0.24667 17:0.610097 18:0.333333 19:-0.865183 20:-0.999617 21:-1 
-2048 1:-0.954367 2:-0.125363 3:-0.553578 4:0.31531 5:-0.632797 6:0.834931 7:-0.830706 8:0.910561 9:-0.958052 10:-0.6 11:-1 12:-1 13:1 14:-1 15:-1 16:-0.112056 17:-0.334233 18:-0.6 19:-0.788156 20:-0.998851 21:-1 
-603.2014009907805 1:-0.899288 2:0.00396504 3:-0.823759 4:0.07784 5:-0.778596 6:0.955495 7:-0.84443 8:0.963156 9:-0.992323 10:-0.6 11:0.830257 12:0.7953 13:-0.726091 14:-0.6 15:-0.666667 16:-0.160564 17:-0.669523 18:-1 19:-0.707413 20:-0.99721 21:-1 
-13.75430550865582 1:-0.984263 2:0.806345 3:-0.971684 4:0.815346 5:-0.96247 6:0.993624 7:-0.973362 8:0.994511 9:-0.999085 10:-0.6 11:-1 12:-1 13:-0.818946 14:-0.6 15:-1 16:-0.241276 17:-0.00140824 18:-1 19:-0.58088 20:-0.991779 21:-1 
-576.5519856358059 1:-0.954365 2:0.792069 3:-0.984785 4:0.713796 5:-0.971126 6:0.997413 7:-0.970658 8:0.996915 9:-0.999753 10:-0.6 11:0.700133 12:0.707943 13:-0.756474 14:-1 15:-1 16:-0.155025 17:-0.345558 18:-0.666667 19:-0.458555 20:-0.98128 21:-1 
-859.1812307938677 1:-0.981117 2:0.605772 3:-0.894762 4:0.461116 5:-0.804226 6:0.940437 7:-0.796761 8:0.927346 9:-0.976957 10:-0.6 11:-1 12:-1 13:-0.818868 14:-1 15:-1 16:-0.114699 17:0.0277059 18:-0.333333 19:-0.746159 20:-0.998131 21:-1 
-353.1489412443626 1:-0.96066 2:0.455809 3:-0.88322 4:-0.232786 5:-0.640409 6:0.91213 7:-0.379733 8:0.822312 9:-0.954677 10:-0.6 11:-1 12:0.705396 13:-0.0471662 14:-1 15:-0.666667 16:-0.263053 17:-0.33081 18:-0.5 19:-0.84365 20:-0.999461 21:-1 
-908.6098986312137 1:-0.974823 2:0.430907 3:-0.821044 4:0.325937 5:-0.712131 6:0.897073 7:-0.740848 8:0.891097 9:-0.959346 10:-0.6 11:-1 12:-1 13:-0.0535862 14:-1 15:-1 16:-0.152126 17:0.0758042 19:-0.76913 20:-0.998557 21:-1 
-1628.374945019711 1:-0.970103 2:0.488043 3:-0.871458 4:-0.0683534 5:-0.636176 6:0.895987 7:-0.422183 8:0.806717 9:-0.942294 10:-0.6 11:-1 12:-1 13:1 14:-1 15:-1 16:-0.301479 17:-0.386443 18:-0.6 19:-0.781647 20:-0.998756 21:-1 
-855.9517858147691 1:-0.974824 2:0.328271 3:-0.749044 4:0.842275 5:-0.92029 6:0.966383 7:-0.985917 8:0.99273 9:-0.996898 10:-0.6 11:0.95157 12:-1 13:-0.89681 14:-0.6 15:-1 16:-0.145048 17:-0.12676 18:-0.5 19:-0.71415 20:-0.99739 21:-1 
-2048 1:-0.944923 2:0.373986 3:-0.881074 4:0.916281 5:-0.978038 6:0.995263 7:-0.99775 8:0.999161 9:-0.999873 10:-1 11:0.908734 12:-1 13:-0.89812 14:-0.6 15:-1 16:-0.215379 17:-0.494476 18:-0.75 19:-0.641649 20:-0.994925 21:-1 
-213.6332527198428 1:-0.984264 2:0.991896 3:-0.999984 4:0.99446 5:-0.998851 6:0.999747 7:-0.999669 8:0.999726 9:-1 10:-1 11:-1 12:0.929818 13:-0.0406096 14:-1 15:-1 16:-0.0390823 17:-0.401717 18:-0.428571 19:0.012264 20:-0.83801 21:-0.81135 
-568.3182499744202 1:-0.971676 2:0.997553 3:-0.999826 4:0.317297 5:-0.99942 6:0.999652 7:-0.75804 8:0.999941 9:-0.999965 10:-0.6 11:-1 12:0.695867 13:-0.0325407 14:-1 15:-0.666667 16:0.310792 17:-0.129601 18:-1 19:-0.743107 20:-0.998068 21:-1 
-521.986852070889 1:-0.979544 2:0.605534 3:-0.903714 4:0.0250721 5:-0.675811 6:0.909707 7:-0.389035 8:0.800467 9:-0.941957 10:-0.6 11:-1 12:-1 13:-0.0590102 14:-1 15:-1 16:-0.0225857 17:0.193761 18:0.333333 19:-0.856725 20:-0.99956 21:-1 
-2042.849082733339 1:-0.982691 2:0.597657 3:-0.887421 4:0.760758 5:-0.908812 6:0.971002 7:-0.959293 8:0.984534 9:-0.994936 10:-1 11:0.771627 12:-1 13:-0.893892 14:-0.6 15:-1 16:-0.12416 17:-0.261972 18:-1 19:-0.726555 20:-0.997699 21:-1 
-149.4736147181961 1:-0.905582 2:0.759414 3:-0.989161 4:0.64511 5:-0.977254 6:0.998631 7:-0.975327 8:0.998246 9:-0.99992 10:-0.6 11:0.708481 12:0.979899 13:-0.0284984 14:-1 16:-0.212456 17:-0.706311 18:-1 19:-0.553764 20:-0.989983 21:-1 
-53.84837157693919 1:-0.982691 2:0.507786 3:-0.820115 4:-0.4059 5:-0.30214 6:0.709541 7:0.520556 8:0.258695 9:-0.677418 10:-0.6 11:-1 12:-1 13:-0.0238667 14:-1 15:-0.666667 16:-0.0948802 17:0.312906 18:-1 19:-0.887458 20:-0.999741 21:-1 
-562.8756004961811 1:-0.93391 2:0.797823 3:-0.989479 4:0.778126 5:-0.983428 6:0.998826 7:-0.98693 8:0.998829 9:-0.999944 10:-0.6 11:0.964481 12:0.991549 13:-0.503286 14:-0.6 16:-0.193207 17:-0.578581 18:-1 19:-0.472016 20:-0.982765 21:-1 
-1048.381194561196 1:-0.959086 2:0.176439 3:-0.731177 4:0.132522 5:-0.616271 6:0.85781 7:-0.693194 8:0.866499 9:-0.948342 10:-0.6 11:0.92944 12:-1 13:-0.635822 14:-0.6 15:-1 16:-0.29618 17:-0.428163 18:-1 19:-0.824306 20:-0.999286 21:-1 
-139.6385543614269 1:-0.974822 2:0.0759763 3:-0.51074 4:0.60892 5:-0.720222 6:0.832192 7:-0.91043 8:0.936683 9:-0.96039 10:-0.6 11:0.922549 12:-1 13:-0.900032 14:-0.6 15:-1 16:-0.280332 17:-0.00140824 18:-1 19:-0.792914 20:-0.998917 21:-1 
-1523.566905488047 1:-0.941776 2:0.157271 3:-0.792978 4:0.767731 5:-0.922464 6:0.978436 7:-0.983877 8:0.994465 9:-0.998467 10:-0.6 11:0.96831 12:-1 13:-0.900767 14:-0.6 15:-1 16:-0.103649 17:-0.370687 18:-1 19:-0.691657 20:-0.996753 21:-1 
-12.18709640927118 1:-0.98269 2:-0.205682 3:0.0800166 4:0.358957 5:-0.224566 6:0.21256 7:-0.687164 8:0.627327 9:-0.604322 10:-0.6 11:-1 12:-1 13:1 14:-1 15:-1 16:-0.0498526 17:0.312906 18:-1 19:-0.835267 20:-0.999389 21:-1 
-2011.148663869905 1:-0.974822 2:0.620643 3:-0.92803 4:0.458243 5:-0.859723 6:0.969614 7:-0.847871 8:0.961215 9:-0.991289 10:-0.6 11:-1 12:-1 13:-0.12209 14:-1 15:-1 16:0.363053 17:0.0232341 19:-0.706925 20:-0.997197 21:-1 
-330.5489834631634 1:-0.984263 2:0.417482 3:-0.751971 4:0.858473 5:-0.918522 6:0.960797 7:-0.98512 8:0.99128 9:-0.995721 10:-0.6 11:0.660643 12:-1 13:-0.890252 14:-0.6 15:-1 16:-0.229952 17:0.532507 18:-0.333333 19:-0.715291 20:-0.99742 21:-1 
-673.2918228850531 1:-0.97325 2:0.534668 3:-0.88912 4:0.955318 5:-0.985309 6:0.996085 7:-0.99899 8:0.999407 9:-0.99991 10:-0.6 11:0.915294 12:-1 13:-0.890478 14:-0.6 15:-1 16:-0.254646 17:-0.241805 18:-0.6 19:-0.725184 20:-0.997666 21:-1 
-46.55219146954939 1:-0.963807 2:-0.271538 3:-0.304432 4:-0.632594 5:0.207855 6:0.250629 7:0.17905 8:0.142869 9:-0.444039 10:-0.6 11:-1 12:-1 13:0.995604 14:-1 15:-1 16:-0.30057 17:-0.41853 18:0.333333 19:-0.868007 20:-0.999635 21:-1 
-663.9001894924369 1:-0.968529 2:-0.0617873 3:-0.465545 4:0.4465 5:-0.623316 6:0.785137 7:-0.851003 8:0.900037 9:-0.940467 10:-0.6 11:-1 12:-1 13:1 14:-1 15:-1 16:-0.268118 17:-0.250345 18:-0.6 19:-0.762372 20:-0.99844 21:-1 
-2048 1:-0.973248 2:0.804963 3:-0.980338 4:0.601 5:-0.944124 6:0.993396 7:-0.913522 8:0.988023 9:-0.998583 10:-0.6 11:-1 12:0.710368 13:-0.0728493 14:-1 15:-0.666667 16:0.0345742 17:-0.246805 18:-0.6 19:-0.690576 20:-0.996719 21:-1 
-178.4971545824429 1:-0.960659 2:0.425314 3:-0.871285 4:0.276936 5:-0.779981 6:0.943936 7:-0.789939 8:0.937093 9:-0.983312 10:-0.6 11:-1 12:-1 13:-0.115885 14:-0.6 15:-0.666667 16:0.148291 17:-0.317608 19:-0.754377 20:-0.998293 21:-1 
-691.4992197721937 1:-0.976397 2:0.088073 3:-0.512793 4:0.130709 5:-0.371971 6:0.619254 7:-0.545397 8:0.676953 9:-0.795246 10:-0.6 11:-1 12:-1 13:1 14:-1 15:-1 16:-0.0696163 17:-0.0366196 19:-0.808259 20:-0.999111 21:-1 
-164.5332795897812 1:-0.855234 2:0.902703 3:-0.998846 4:0.591624 5:-0.992519 6:0.99966 7:-0.978607 8:0.999405 9:-0.999995 10:-0.6 11:-1 12:0.988046 13:-0.0446941 14:-1 15:0.333333 16:-0.14701 17:-0.775044 18:-0.846154 19:-0.541706 20:-0.989096 21:-1 
-153.5303600989349 1:-0.974824 2:0.684525 3:-0.944995 4:0.943306 5:-0.986106 6:0.997222 7:-0.998013 8:0.999269 9:-0.999906 10:-0.6 11:0.819185 12:-1 13:-0.897362 14:-0.2 15:-1 16:-0.152995 17:-0.189997 18:-0.6 19:-0.473309 20:-0.982903 21:-1 
-2048 1:-0.974823 2:0.266844 3:-0.700931 4:0.00587929 5:-0.450427 6:0.745378 7:-0.43329 8:0.69206 9:-0.850875 10:-0.6 11:-1 12:-1 13:0.988853 14:-1 15:-1 16:-0.238885 17:-0.134476 18:-0.333333 19:-0.829343 20:-0.999335 21:-1 
-154.8525575965368 1:-0.938632 2:0.604123 3:-0.95752 4:0.501491 5:-0.926684 6:0.990915 7:-0.930495 8:0.98981 9:-0.998734 10:-0.6 11:0.828396 12:0.823391 13:-0.707196 14:-1 15:-0.666667 16:-0.181835 17:-0.469176 18:-0.75 19:-0.657341 20:-0.995565 21:-1 
-1103.806054757058 1:-0.913453 2:0.508198 3:-0.950682 4:0.866292 5:-0.981131 6:0.997731 7:-0.996305 8:0.999239 9:-0.999942 10:-0.6 11:0.882433 12:-1 13:-0.899389 14:-0.6 15:-0.666667 16:-0.37492 17:-0.64848 18:-1 19:-0.621146 20:-0.993989 21:-1 
-63.3533557731911 1:-0.971675 2:-0.123391 3:-0.340531 4:-0.172291 5:-0.0690364 6:0.380088 7:-0.261489 8:0.423447 9:-0.598608 10:-0.6 11:-1 12:-1 13:-0.0309198 14:-1 15:-0.666667 16:-0.183882 17:-0.246805 19:-0.843845 20:-0.999462 21:-1 
-2048 1:-0.907158 2:0.794995 3:-0.992299 4:0.822297 5:-0.990041 6:0.99937 7:-0.993951 8:0.999432 9:-0.999987 10:-0.6 11:0.943698 12:0.932756 13:-0.845779 14:-0.2 15:-0.666667 16:0.0736585 17:-0.655648 18:-0.777778 19:-0.306815 20:-0.957078 21:-1 
-176.1066317859572 1:-0.963807 2:0.269082 3:-0.775865 4:0.0817412 5:-0.618142 6:0.867003 7:-0.635507 8:0.850979 9:-0.945803 10:-0.6 11:-1 12:-1 13:-0.637472 14:-0.6 15:-0.666667 16:-0.0168666 17:-0.334233 18:-0.2 19:-0.811048 20:-0.999144 21:-1 
-298.2235893792467 1:-0.949644 2:0.123314 3:-0.756551 4:0.43078 5:-0.785693 6:0.932468 7:-0.894816 8:0.960872 9:-0.98718 10:-0.6 11:0.886859 12:-1 13:-0.637836 14:-0.6 15:-0.666667 16:0.117802 17:-0.358513 18:-0.333333 19:-0.825503 20:-0.999297 21:-1 
-642.0802046346628 1:-0.968529 2:0.833367 3:-0.987099 4:0.0852095 5:-0.902853 6:0.991158 7:-0.591472 8:0.957554 9:-0.99606 10:-0.6 11:-1 12:0.699613 13:-0.0415349 14:-1 15:-1 16:-0.0776756 17:-0.225014 19:-0.78334 20:-0.998781 21:-1 
-693.7226648666317 1:-0.954365 2:0.663056 3:-0.961015 4:0.832932 5:-0.973042 6:0.99634 7:-0.990197 8:0.99822 9:-0.999793 10:-0.6 11:0.950425 12:-1 13:-0.895339 14:-0.6 15:-0.666667 16:-0.0212626 17:-0.380115 18:-0.666667 19:-0.572962 20:-0.991282 21:-1 
-1161.570717265859 1:-0.949647 2:0.676037 3:-0.966946 4:0.750501 5:-0.964653 6:0.995762 7:-0.979806 8:0.996987 9:-0.999667 10:-0.6 11:0.948024 12:0.793235 13:-0.831639 14:0.2 15:-0.666667 16:0.0306896 17:-0.120893 18:-1 19:-0.570054 20:-0.991094 21:-1 
-1228.098595196971 1:-0.806446 2:0.474946 3:-0.974255 4:0.670819 5:-0.977229 6:0.998541 7:-0.989507 8:0.999047 9:-0.99996 10:-0.6 11:0.897774 12:0.949711 13:-0.895391 14:-0.2 15:-0.333333 16:-0.0664223 17:-0.775637 18:-0.692308 19:-0.492586 20:-0.984862 21:-1 
-173.6025386628362 1:-0.809598 2:0.377437 3:-0.962851 4:0.469458 5:-0.956501 6:0.996874 7:-0.972448 8:0.997561 9:-0.999847 10:-0.6 11:0.964946 12:0.965953 13:0.527796 14:-0.2 15:-0.666667 16:-0.0614732 17:-0.798833 18:-0.538462 19:-0.565516 20:-0.990794 21:-1 
-187.346040781539 1:-0.96538 2:0.285564 3:-0.777352 4:0.127987 5:-0.631616 6:0.86961 7:-0.658548 8:0.858173 9:-0.947585 10:-0.6 11:0.681742 12:-1 13:-0.634968 14:-1 15:-1 16:-0.0555281 17:0.026672 18:-0.6 19:-0.804007 20:-0.99906 21:-1 
-2048 1:-0.910305 2:-0.101735 3:-0.766647 4:0.491242 5:-0.853774 6:0.964866 7:-0.948718 8:0.985301 9:-0.996376 10:-0.6 11:0.844907 12:-1 13:-0.895079 14:-0.2 15:-1 16:0.0299391 17:-0.492193 18:-0.428571 19:-0.659845 20:-0.995661 21:-1 
-2048 1:-0.963806 2:-0.0682793 3:-0.522013 4:0.335451 5:-0.597951 6:0.796043 7:-0.810522 8:0.887064 9:-0.940164 10:-0.6 11:-1 12:-1 13:1 14:-1 15:-1 16:0.008378 17:-0.317608 18:-0.6 19:-0.832736 20:-0.999366 21:-1 
-216.7490324607219 1:-0.984265 2:0.940347 3:-0.997638 4:0.702755 5:-0.982793 6:0.998981 7:-0.935566 8:0.996283 9:-0.999829 10:-0.6 11:-1 12:0.678059 13:-0.0835177 14:-1 15:-0.666667 16:0.166093 17:0.338257 18:-0.333333 19:-0.664357 20:-0.995831 21:-1 
-37.7156609957551 1:-0.891421 2:0.764574 3:-0.991493 4:0.49138 5:-0.974143 6:0.998724 7:-0.958727 8:0.997756 9:-0.999915 10:-0.6 11:0.673371 12:0.930539 13:-0.0784652 14:-0.6 16:0.18254 17:-0.59633 18:-0.636364 19:-0.587689 20:-0.99219 21:-1 
-366.2363511799639 1:-0.922891 2:-0.0107447 3:-0.784844 4:0.9853 5:-0.99543 6:0.998931 7:-0.999516 8:0.999588 9:-0.999964 10:-0.6 11:0.971982 12:-1 13:-0.886996 14:-0.2 15:-1 16:-0.0132622 17:-0.344956 18:-0.666667 19:-0.610551 20:-0.993457 21:-1 
-603.6055539677022 1:-0.926041 2:0.227724 3:-0.869361 4:0.429222 5:-0.86863 6:0.974703 7:-0.926669 8:0.983229 9:-0.996685 10:-0.6 11:0.814694 12:0.92523 13:-0.578797 14:-0.6 15:-0.666667 16:0.147454 17:-0.50816 18:-0.428571 19:-0.726335 20:-0.997694 21:-1 
-2048 1:-0.913455 2:-0.0594487 3:-0.784779 4:0.514649 5:-0.866129 6:0.969125 7:-0.953724 8:0.987235 9:-0.996988 10:-0.6 11:0.840629 12:-1 13:-0.889747 14:-0.6 15:-1 16:0.261037 17:-0.506812 18:-0.428571 19:-0.746004 20:-0.998128 21:-1 
-786.8419454162957 1:-0.944925 2:-0.399573 3:-0.44356 4:0.1904 5:-0.565023 6:0.804059 7:-0.809317 8:0.899102 9:-0.952564 10:-0.6 11:0.682173 12:-1 13:-0.934891 14:-0.6 15:-1 16:0.42881 17:0.0278201 18:-0.333333 19:-0.811964 20:-0.999154 21:-1 
-180.0745224269657 1:-0.916598 2:-0.433372 3:-0.592271 4:0.767891 5:-0.910696 6:0.971303 7:-0.989147 8:0.995633 9:-0.99862 10:-0.6 11:0.676423 12:-1 13:-0.891007 14:-0.6 15:-1 16:0.434308 17:-0.331615 18:-0.428571 19:-0.806921 20:-0.999095 21:-1 
-149.1443513554598 1:-0.875686 2:0.922651 3:-0.999093 4:0.850001 5:-0.996786 6:0.999719 7:-0.99664 8:0.999683 9:-0.999999 10:-0.6 11:0.91132 12:0.935788 13:0.0612247 14:-0.6 16:0.180314 17:-0.750431 18:-0.636364 19:-0.121106 20:-0.90201 21:-1 
-1300.694000601429 1:-0.973249 2:0.471336 3:-0.851142 4:0.415193 5:-0.776709 6:0.928489 7:-0.812634 8:0.929555 9:-0.976478 10:-0.6 11:-1 12:-1 13:1 14:-1 15:-1 16:0.0482734 17:-0.0293361 18:0.333333 19:-0.7084 20:-0.997237 21:-1 
-135.8846888875682 1:-0.949646 2:0.463676 3:-0.907808 4:0.552059 5:-0.894934 6:0.979397 7:-0.933678 8:0.984535 9:-0.996891 10:-0.6 11:0.926601 12:-1 13:0.988278 14:-0.2 15:-1 16:0.0199491 17:-0.0928644 18:-0.2 19:-0.670769 20:-0.996063 21:-1 
-245.9517629495437 1:-0.960661 2:0.577346 3:-0.929979 4:0.204388 5:-0.820287 6:0.965999 7:-0.743 8:0.94294 9:-0.988789 10:-0.6 11:-1 12:0.951502 13:-0.5097 14:-1 16:-0.114517 17:-0.466522 18:-0.666667 19:-0.788842 20:-0.998861 21:-1 
-195.0010753475297 1:-0.97797 2:0.292121 3:-0.696421 4:0.282042 5:-0.582818 6:0.796859 7:-0.678565 8:0.816257 9:-0.906508 10:-0.6 11:-1 12:-1 13:0.983301 14:-1 15:-1 16:0.0255861 17:0.169718 18:-0.333333 19:-0.793016 20:-0.998918 21:-1 
-599.3847542698853 1:-0.981116 2:0.281729 3:-0.650357 4:0.592904 5:-0.731736 6:0.851834 7:-0.885024 8:0.925179 9:-0.956849 10:-0.6 11:0.685287 12:-1 13:-0.895798 14:-1 15:-1 16:0.0586035 17:0.055634 18:1 19:-0.849409 20:-0.999506 21:-1 
-301.3126873477959 1:-0.974823 2:0.412861 3:-0.809825 4:0.502444 5:-0.781375 6:0.919576 7:-0.859659 8:0.939218 9:-0.976698 10:-0.6 11:0.887104 12:-1 13:-0.634101 14:-0.6 15:-0.666667 16:0.0679027 17:-0.129601 18:-1 19:-0.755366 20:-0.998311 21:-1 
-471.4906101445187 1:-0.949646 2:0.239822 3:-0.813314 4:0.414101 5:-0.804725 6:0.945562 7:-0.886027 8:0.962506 9:-0.989147 10:-0.6 11:0.819083 12:0.945266 13:-0.579668 14:-0.6 15:-0.333333 16:-0.140849 17:-0.260161 18:-0.666667 19:-0.740329 20:-0.998009 21:-1 
-1586.042859524631 1:-0.971675 2:0.0179037 3:-0.501859 4:0.651125 5:-0.760991 6:0.862753 7:-0.93581 8:0.956456 9:-0.973963 10:-0.6 11:0.927984 12:-1 13:-0.899272 14:-0.6 15:-1 16:-0.0885755 17:0.128374 18:-0.5 19:-0.783781 20:-0.998788 21:-1 
-81.83304454704496 1:-0.988985 2:0.0214045 3:-0.0834604 4:0.0623376 5:0.187687 6:-0.262425 7:-0.134931 8:-0.0778113 9:0.197982 10:-0.6 11:-1 12:-1 13:1 14:-1 15:-1 16:-0.151992 17:0.125876 18:-1 19:-0.870192 20:-0.999648 21:-1 
-38.77211567265334 1:-0.946499 2:0.959618 3:-0.999516 4:0.912097 5:-0.997676 6:0.99973 7:-0.997704 8:0.999698 9:-1 10:-0.6 11:-1 12:0.990802 13:-0.0712102 14:-1 15:-0.333333 16:0.638314 17:-0.417204 18:-0.714286 19:-0.0692777 20:-0.879965 21:-1 
-546.0974885143032 1:-0.974822 2:0.655838 3:-0.939868 4:0.27235 5:-0.826381 6:0.965303 7:-0.720681 8:0.934527 9:-0.986398 10:-0.6 11:-1 12:-1 13:-0.115771 14:-1 15:-1 16:0.375405 17:0.400367 18:-0.5 19:-0.786942 20:-0.998834 21:-1 
-429.7018825830797 1:-0.979543 2:0.432211 3:-0.80665 4:-0.154873 5:-0.466422 6:0.793297 7:-0.173542 8:0.624882 9:-0.848106 10:-0.6 11:-1 12:-1 13:-0.0870648 14:-1 15:-1 16:0.337318 17:0.610923 18:-0.333333 19:-0.839789 20:-0.999429 21:-1 
-1134.014571129934 1:-0.966954 2:0.508491 3:-0.901337 4:0.571893 5:-0.882937 6:0.97324 7:-0.923047 8:0.979161 9:-0.995089 10:-0.6 11:0.761046 12:-1 13:-0.715945 14:-0.6 15:-1 16:0.485128 17:-0.0366664 18:-0.6 19:-0.715086 20:-0.997415 21:-1 
-2048 1:-0.946497 2:0.498142 3:-0.929008 4:0.463411 5:-0.896423 6:0.983247 7:-0.916393 8:0.983998 9:-0.997355 10:-0.6 11:0.866061 12:0.802312 13:-0.88308 14:-0.6 15:-0.333333 16:0.269815 17:-0.451146 18:-1 19:-0.688196 20:-0.996645 21:-1 
-685.9201339664709 1:-0.943349 2:-0.0581435 3:-0.699926 4:0.0805376 5:-0.646803 6:0.886393 7:-0.767024 8:0.911919 9:-0.970455 10:-0.6 11:0.9016 12:-1 13:-0.997998 14:-0.6 15:-1 16:0.680702 17:-0.324523 18:-0.333333 19:-0.769187 20:-0.998558 21:-1 
-56.77896989287956 1:-0.984264 2:0.320071 3:-0.670442 4:0.337577 5:-0.565219 6:0.760671 7:-0.678485 8:0.792331 9:-0.880507 10:-0.6 11:-1 12:-1 13:-0.880789 14:-1 15:-1 16:0.343538 17:-0.2019 18:-0.5 19:-0.82238 20:-0.999266 21:-1 
-48.93953118182483 1:-0.973248 2:-0.234218 3:-0.234065 4:-0.38795 5:0.164992 6:0.179998 7:-0.00415801 8:0.178439 9:-0.395383 10:-0.6 11:-1 12:-1 13:-0.0681144 14:-1 15:-1 16:0.489377 17:-0.168669 18:0.333333 19:-0.885202 20:-0.99973 21:-1 
-167.9881943033507 1:-0.974822 2:-0.167709 3:-0.298176 4:0.290722 5:-0.423736 6:0.607366 7:-0.734283 8:0.787445 9:-0.848626 10:-0.6 11:-1 12:-1 13:1 14:-1 15:-1 16:0.598503 17:-0.275994 18:-0.5 19:-0.803352 20:-0.999052 21:-1 
-227.1921068918147 1:-0.965381 2:-0.0239819 3:-0.57693 4:0.21779 5:-0.562786 6:0.795184 7:-0.74665 8:0.860646 9:-0.931824 10:-0.6 11:0.890894 12:-1 13:-0.113516 14:-1 15:-1 16:0.550292 17:-0.139236 18:-0.6 19:-0.805473 20:-0.999078 21:-1 
-184.4155016359145 1:-0.965382 2:0.171899 3:-0.724437 4:0.684244 5:-0.857705 6:0.946394 7:-0.959136 8:0.981656 9:-0.992866 10:-0.6 11:0.950811 12:-1 13:-0.886722 14:-0.2 15:-1 16:0.749825 17:-0.0789857 18:-0.6 19:-0.773095 20:-0.998622 21:-1 
-88.1329083750831 1:-0.649095 2:0.753074 3:-0.996855 4:0.996238 5:-0.998884 6:0.999748 7:-0.999978 8:0.999728 9:-1 10:-0.6 11:0.966127 12:-1 13:-0.887882 14:-0.6 15:-1 16:-0.292711 17:-0.93218 18:-1 19:-0.361805 20:-0.967599 21:-0.0497615 
-11.9723506133411 1:-0.971675 2:-0.281953 3:-0.200496 4:-1 5:0.685592 6:-0.192379 7:1 8:-0.655945 9:0.224673 10:-0.6 11:-1 12:-1 13:1 14:-1 15:-1 16:-0.274575 17:-0.231905 18:-1 19:-0.829698 20:-0.999338 21:-1 
-856.5039390830991 1:-0.866244 2:-0.00800406 3:-0.871548 4:0.453964 5:-0.905133 6:0.986179 7:-0.961247 8:0.993164 9:-0.999007 10:-0.6 11:0.93738 12:0.897161 13:-0.886745 14:-0.6 15:-0.666667 16:-0.245268 17:-0.754692 18:-1 19:-0.684209 20:-0.996518 21:-1 
-190.9159741413623 1:-0.905587 2:-0.174953 3:-0.757903 4:0.134743 5:-0.758524 6:0.943526 7:-0.865409 8:0.962912 9:-0.990998 10:-0.6 11:0.923785 12:0.904659 13:0.168823 14:-0.6 15:-1 16:-0.236817 17:-0.623783 18:-1 19:-0.76921 20:-0.998558 21:-1 
-73.86721729303621 1:-0.965382 2:0.0306364 3:-0.60775 4:-0.000729618 5:-0.45199 6:0.74844 7:-0.570327 8:0.76867 9:-0.889044 10:-0.6 11:0.886629 12:0.671405 13:-0.756841 14:-0.2 15:-0.666667 16:-0.271448 17:-0.428163 18:-1 19:-0.813387 20:-0.99917 21:-1 
-5.586119424305719 1:-0.845783 2:0.940362 3:-0.999602 4:0.995313 5:-0.99895 6:0.999749 7:-0.999813 8:0.999727 9:-1 10:-0.6 11:0.964543 12:-1 13:-0.887547 14:-0.6 15:-1 16:-0.0501458 17:-0.789975 18:-0.846154 19:0.793037 20:0.325369 21:0.22972 
-2048 1:-0.919746 2:0.771269 3:-0.989688 4:0.508605 5:-0.969366 6:0.998224 7:-0.950963 8:0.996832 9:-0.999844 10:-0.6 11:-1 12:0.797826 13:-0.106526 14:-1 15:-0.666667 16:-0.123038 17:-0.577465 18:-1 19:-0.525017 20:-0.987773 21:-1 
-530.5457364194862 1:-0.93076 2:0.662181 3:-0.973803 4:-0.298558 5:-0.863715 6:0.987763 7:-0.601625 8:0.958957 9:-0.996223 10:-0.6 11:-1 12:0.758604 13:-0.0943071 14:-1 15:-1 16:0.0268653 17:-0.346704 18:-0.666667 19:-0.727426 20:-0.99772 21:-1 
-2048 1:-0.979544 2:0.378989 3:-0.77156 4:0.192509 5:-0.597487 6:0.831716 7:-0.602181 8:0.805005 9:-0.914807 10:-0.6 11:-1 12:-1 13:1 14:-1 15:-1 16:-0.19094 17:0.125876 18:-0.333333 19:-0.772819 20:-0.998618 21:-1 
-2048 1:-0.904013 2:0.332971 3:-0.925532 4:0.629422 5:-0.943269 6:0.992695 7:-0.976145 8:0.996194 9:-0.999532 10:-0.6 11:0.832305 12:-1 13:-0.883326 14:-0.6 15:-1 16:-0.117949 17:-0.502306 18:-0.428571 19:-0.536771 20:-0.988716 21:-1 
-2048 1:-0.839493 2:0.539362 3:-0.977597 4:0.560113 5:-0.970428 6:0.998173 7:-0.97922 8:0.998404 9:-0.999924 10:-0.6 11:0.849254 12:0.947989 13:-0.598516 14:-1 16:-0.123136 17:-0.739392 18:-0.692308 19:-0.484345 20:-0.984047 21:-1 
-23.94778521771225 1:-0.973248 2:-0.24874 3:-0.232679 4:0.25649 5:-0.38286 6:0.57018 7:-0.721261 8:0.772247 9:-0.834208 10:-0.6 11:-1 12:-1 13:1 14:-1 15:-1 16:-0.0918193 17:0.125876 18:0.333333 19:-0.817607 20:-0.999216 21:-1 
-2048 1:-0.924467 2:0.0410687 3:-0.804605 4:0.61868 5:-0.894426 6:0.975595 7:-0.968332 8:0.991161 9:-0.997931 10:-0.6 11:0.959122 12:-1 13:-0.887242 14:-0.6 15:-1 16:-0.122051 17:-0.513509 18:-0.75 19:-0.705355 20:-0.997153 21:-1 
-101.7147653786544 1:-0.98269 2:0.788025 3:-0.970566 4:0.995416 5:-0.998555 6:0.999708 7:-0.999657 8:0.999662 9:-0.999989 10:-0.6 11:-1 12:-1 13:1 14:-1 15:-1 16:-0.189659 17:-0.134476 18:-0.333333 19:-0.339926 20:-0.963677 21:-0.874233 
-2048 1:-0.966954 2:0.803706 3:-0.984194 4:0.590553 5:-0.954358 6:0.995626 7:-0.928324 8:0.992049 9:-0.999259 10:-0.6 11:-1 12:0.887963 13:-0.633907 14:-1 15:-0.666667 16:-0.228876 17:-0.273891 18:-0.6 19:-0.614109 20:-0.993639 21:-1 
-49.21534204902114 1:-0.926043 2:0.807905 3:-0.992166 4:0.997056 5:-0.998851 6:0.999746 7:-0.999928 8:0.999724 9:-1 10:-0.6 11:0.936289 12:-1 13:-0.885284 14:-0.6 15:-1 16:-0.138508 17:-0.62772 18:-0.75 19:-0.362503 20:-0.967719 21:-1 
-222.8151268878881 1:-0.883556 2:0.529353 3:-0.968856 4:0.143498 5:-0.922567 6:0.993986 7:-0.893983 8:0.990422 9:-0.999265 10:-0.6 11:0.746047 12:0.946483 13:-0.383599 14:-0.2 15:-0.666667 16:-0.261218 17:-0.743881 18:-0.333333 19:-0.679746 20:-0.996371 21:-1 
-830.0018641256759 1:-0.89772 2:0.478605 3:-0.956759 4:0.0261648 5:-0.890056 6:0.989475 7:-0.844675 8:0.982663 9:-0.998318 10:-0.6 11:0.739812 12:0.940824 13:-0.582409 14:-0.6 15:-0.666667 16:-0.260636 17:-0.672784 18:-0.777778 19:-0.680399 20:-0.996393 21:-1 
-43.04330188633922 1:-0.97797 2:0.264513 3:-0.696466 4:0.620421 5:-0.788017 6:0.90079 7:-0.917399 8:0.954373 9:-0.977751 10:-0.6 11:-1 12:-1 13:1 14:-1 15:-1 16:-0.219279 17:-0.0293361 19:-0.800748 20:-0.99902 21:-1 
-721.5827184756879 1:-0.948072 2:-0.0739087 3:-0.664344 4:-0.267498 5:-0.463574 6:0.809786 7:-0.51891 8:0.799877 9:-0.925877 10:-0.6 11:-1 12:-1 13:-0.105211 14:-1 15:-0.666667 16:-0.275352 17:-0.543892 18:-0.2 19:-0.814167 20:-0.999179 21:-1 
-172.1385990178831 1:-0.966956 2:-0.0464669 3:-0.538088 4:-0.259171 5:-0.247805 6:0.623271 7:-0.312275 8:0.596183 9:-0.788563 10:-0.6 11:-1 12:-1 13:-0.331388 14:-0.6 15:-1 16:-0.258246 17:-0.115493 18:-0.5 19:-0.874513 20:-0.999673 21:-1 
-29.55885860875437 1:-0.952793 2:0.314294 3:-0.852122 4:0.546966 5:-0.867185 6:0.96746 7:-0.933765 8:0.980729 9:-0.995134 10:-0.6 11:0.830872 12:0.899942 13:-0.784336 14:-0.6 15:-0.333333 16:-0.293198 17:-0.388456 18:-0.714286 19:-0.729942 20:-0.997779 21:-1 
-33.41292958475941 1:-0.97325 2:-0.326937 3:-0.122287 4:-0.0183004 5:-0.0894429 6:0.317164 7:-0.468837 8:0.532874 9:-0.633761 10:-0.6 11:-1 12:-1 13:1 14:-1 15:-1 16:-0.36822 17:-0.16184 18:-1 19:-0.799862 20:-0.999008 21:-1 
-98.44532237445721 1:-0.979544 2:-0.319822 3:0.0570295 4:-0.22712 5:0.328644 6:-0.206683 7:-0.0609324 8:0.000366071 9:-0.0507432 10:-0.6 11:-1 12:-1 13:1 14:-1 15:-1 16:-0.233915 17:-0.378564 18:-1 19:-0.850813 20:-0.999517 21:-1 
-1079.606818648528 1:-0.962234 2:0.459588 3:-0.89104 4:0.497161 5:-0.862045 6:0.968344 7:-0.902714 8:0.973626 9:-0.993743 10:-0.6 11:0.883709 12:-1 13:-0.883538 14:-0.6 15:-1 16:-0.0796735 17:-0.34603 19:-0.662166 20:-0.995749 21:-1 
-964.1003055230944 1:-0.937055 2:0.556762 3:-0.95202 4:0.14621 5:-0.873636 6:0.984281 7:-0.815511 8:0.97308 9:-0.99656 10:-0.6 11:-1 12:0.807196 13:-0.104387 14:-1 15:-1 16:-0.2101 17:-0.541895 18:-0.428571 19:-0.781986 20:-0.998761 21:-1 
-1613.837005733129 1:-0.955938 2:0.272135 3:-0.82395 4:0.657634 5:-0.887438 6:0.96909 7:-0.960065 8:0.986866 9:-0.996301 10:-0.6 11:0.748892 12:-1 13:-0.884453 14:-0.2 15:-1 16:-0.030192 17:-0.250345 19:-0.710336 20:-0.997289 21:-1 
-373.1215865825955 1:-0.98269 2:0.510768 3:-0.843383 4:0.666078 5:-0.854624 6:0.947094 7:-0.925174 8:0.967741 9:-0.987793 10:-0.6 11:0.868622 12:-1 13:-0.63555 14:-1 15:-1 16:-0.0677172 17:-0.171831 19:-0.853329 20:-0.999536 21:-1 
-1805.148735570654 1:-0.888274 2:0.307916 3:-0.92951 4:0.148643 5:-0.88178 6:0.986193 7:-0.890005 8:0.984844 9:-0.998201 10:-0.6 11:0.912622 12:0.860041 13:-0.53671 14:-0.6 15:-0.666667 16:-0.0432417 17:-0.692165 18:-0.6 19:-0.694051 20:-0.996825 21:-1 
-76.29441905079513 1:-0.908729 2:0.353736 3:-0.925534 4:0.948901 5:-0.991374 6:0.998776 7:-0.999415 8:0.999638 9:-0.999988 10:-0.6 11:0.894562 12:-1 13:-0.885133 14:-0.2 15:-1 16:-0.168092 17:-0.622535 18:-0.8 19:-0.60405 20:-0.993114 21:-1 
-2048 1:-0.948072 2:0.179409 3:-0.80506 4:0.422664 5:-0.813859 6:0.949814 7:-0.900703 8:0.968362 9:-0.991155 10:-0.6 11:0.740939 12:-1 13:-0.883579 14:-0.6 15:-1 16:-0.247417 17:-0.450761 18:-1 19:-0.697511 20:-0.996929 21:-1 
-8.629859976673862 1:-0.984265 2:-0.167985 3:-0.0198033 4:0.995052 5:-0.996205 6:0.997293 7:-0.999798 8:0.99949 9:-0.999762 10:-0.6 11:-1 12:-1 13:1 14:-1 15:-1 16:-0.167329 17:0.450366 18:-0.333333 19:-0.832959 20:-0.999368 21:-0.496933 
-123.2360835096538 1:-0.933908 2:0.531034 3:-0.94847 4:0.634358 5:-0.944789 6:0.992983 7:-0.967827 8:0.99503 9:-0.999387 10:-0.6 11:0.949811 12:0.805386 13:-0.821504 14:-1 15:-1 16:-0.16235 17:-0.586042 18:-1 19:-0.644572 20:-0.995049 21:-1 
-61.59513324973427 1:-0.979544 2:0.769506 3:-0.968166 4:0.657377 5:-0.934666 6:0.989563 7:-0.926488 8:0.986111 9:-0.997744 10:-0.6 11:-1 12:-1 13:1 14:-1 15:-1 16:-0.356172 17:-0.00140824 18:-0.333333 19:-0.642896 20:-0.994978 21:-1 
-154.3637784954875 1:-0.954366 2:0.733582 3:-0.976711 4:0.756949 5:-0.970419 6:0.996903 7:-0.980098 8:0.997422 9:-0.99976 10:-0.6 11:0.756526 12:0.667782 13:-0.701863 14:-0.2 15:-0.666667 16:-0.1632 17:-0.345558 18:-0.333333 19:-0.523089 20:-0.987613 21:-1 
-185.5392648339106 1:-0.949647 2:0.497725 3:-0.923079 4:0.35314 5:-0.865381 6:0.97646 7:-0.868736 8:0.973042 9:-0.995137 10:-0.6 11:0.66256 12:0.671267 13:0.0480377 14:-1 15:-0.666667 16:-0.0920947 17:-0.343662 18:-0.2 19:-0.660002 20:-0.995667 21:-1 
-804.7716181420572 1:-0.982691 2:0.395178 3:-0.75191 4:0.468818 5:-0.704554 6:0.862336 7:-0.803016 8:0.892073 9:-0.947471 10:-0.6 11:-1 12:-1 13:-0.888417 14:-1 15:-1 16:-0.0297168 17:0.151926 18:0.333333 19:-0.757808 20:-0.998357 21:-1 
-238.6213131178095 1:-0.944923 2:0.216595 3:-0.82572 4:-0.342987 5:-0.594903 6:0.897587 7:-0.472094 8:0.843551 9:-0.958721 10:-0.6 11:-1 12:0.669508 13:0.193864 14:-1 15:-1 16:-0.189715 17:-0.380115 19:-0.81367 20:-0.999173 21:-1 
-178.8749159674897 1:-0.979544 2:-0.0151701 3:-0.365695 4:-0.697934 5:0.435411 6:-0.017961 7:0.82667 8:-0.517291 9:0.125048 10:-0.6 11:-1 12:-1 13:1 14:-1 15:-1 16:-0.168709 17:0.125876 18:0.333333 19:-0.873776 20:-0.999669 21:-1 
-2048 1:-0.941776 2:0.339434 3:-0.882687 4:0.713695 5:-0.930671 6:0.985988 7:-0.97745 8:0.994414 9:-0.998881 10:-0.6 11:0.811438 12:-1 13:-0.888226 14:-1 15:-1 16:-0.180706 17:-0.352917 18:-0.333333 19:-0.660444 20:-0.995684 21:-1 
-158.0069300679961 1:-0.968528 2:-0.0276377 3:-0.528412 4:0.896216 5:-0.936017 6:0.967033 7:-0.994925 8:0.996632 9:-0.998317 10:-0.6 11:0.754219 12:-1 13:-0.887981 14:-0.6 15:-1 16:-0.0587735 17:0.340845 19:-0.725709 20:-0.997679 21:-1 
-72.08127036682461 1:-0.984265 2:0.163046 3:-0.493762 4:0.665538 5:-0.726834 6:0.812816 7:-0.917416 8:0.933302 9:-0.95231 10:-0.6 11:0.651425 12:-1 13:-0.887145 14:-1 15:-1 16:-0.12461 17:0.38741 18:1 19:-0.775375 20:-0.998659 21:-1 
-271.9931874894842 1:-0.976395 2:0.222347 3:-0.666715 4:0.42548 5:-0.666437 6:0.83775 7:-0.813255 8:0.893158 9:-0.945711 10:-0.6 11:0.90295 12:-1 13:-0.934473 14:-0.2 15:-1 16:-0.228032 17:-0.0366196 19:-0.862042 20:-0.999596 21:-1 
-414.0803208591728 1:-0.8631 2:0.405459 3:-0.955855 4:0.587631 5:-0.957772 6:0.996283 7:-0.978168 8:0.997585 9:-0.999812 10:-0.6 11:0.968121 12:0.87306 13:-0.792866 14:0.2 15:-0.333333 16:-0.144951 17:-0.712755 18:-1 19:-0.568944 20:-0.991021 21:-1 
-112.6580572290307 1:-0.957513 2:-0.259194 3:-0.437906 4:0.00873157 5:-0.40147 6:0.697106 7:-0.642353 8:0.787589 9:-0.887676 10:-0.6 11:0.901789 12:-1 13:0.988445 14:-0.6 15:-1 16:-0.161504 17:-0.391065 18:-1 19:-0.846204 20:-0.999481 21:-1 
-162.7380781232167 1:-0.858375 2:0.957813 3:-0.999723 4:0.903158 5:-0.998404 6:0.999744 7:-0.998892 8:0.999724 9:-1 10:-0.6 11:0.905511 12:0.900454 13:-0.118253 14:-0.6 15:-0.666667 16:-0.208072 17:-0.854735 18:-0.875 19:0.230539 20:-0.671584 21:-1 
-55.74173696542655 1:-0.932334 2:0.771667 3:-0.988579 4:0.586609 5:-0.970859 6:0.99814 7:-0.960737 8:0.997106 9:-0.999843 10:-0.6 11:-1 12:0.826969 13:-0.12603 14:-0.6 16:-0.167887 17:-0.653997 18:-0.6 19:-0.59528 20:-0.992629 21:-1 
-967.3594924415231 1:-0.929186 2:0.303849 3:-0.895397 4:0.311988 5:-0.859347 6:0.975911 7:-0.894839 8:0.978723 9:-0.996251 10:-0.6 11:0.73241 12:0.927221 13:-0.522842 14:-0.6 15:-1 16:-0.138213 17:-0.671946 18:-0.666667 19:-0.706472 20:-0.997184 21:-1 
-656.7839048927869 1:-0.981117 2:0.103179 3:-0.508637 4:-0.236016 5:-0.0833577 6:0.42992 7:-0.0391712 8:0.299724 9:-0.544674 10:-0.6 11:-1 12:-1 13:-0.819347 14:-1 15:-1 16:-0.134762 17:0.0277059 18:-0.5 19:-0.856487 20:-0.999558 21:-1 
-996.2030837541896 1:-0.915026 2:0.0771301 3:-0.842716 4:0.843843 5:-0.963501 6:0.992916 7:-0.995271 8:0.99866 9:-0.999785 10:-0.6 11:0.862755 12:-1 13:-0.882197 14:-0.6 15:-1 16:-0.1448 17:-0.608338 18:-0.75 19:-0.649088 20:-0.995237 21:-1 
-1396.932493862024 1:-0.97797 2:0.121885 3:-0.571733 4:0.841675 5:-0.895995 6:0.94279 7:-0.985896 8:0.990587 9:-0.994716 10:-0.6 11:0.734915 12:-1 13:-0.880108 14:-0.2 15:-1 16:-0.283066 17:-0.134476 18:-1 19:-0.775664 20:-0.998663 21:-1 
-117.3891873415689 1:-0.905582 2:-0.0254 3:-0.823478 4:0.862123 5:-0.9674 6:0.993609 7:-0.996704 8:0.998975 9:-0.999847 10:-0.6 11:0.868214 12:-1 13:-0.881687 14:-0.6 15:-1 16:0.00290339 17:-0.647565 18:-1 19:-0.720505 20:-0.997552 21:-1 
-1686.615915796609 1:-0.966955 2:0.824266 3:-0.98749 4:0.439608 5:-0.944832 6:0.995311 7:-0.86661 8:0.987065 9:-0.998915 10:-0.6 11:-1 12:0.742804 13:-0.116993 14:-1 15:-0.666667 16:-0.221343 17:-0.290185 18:-0.2 19:-0.693298 20:-0.996803 21:-1 
-61.75092567567572 1:-0.971676 2:0.632402 3:-0.937035 4:-0.774531 5:-0.586994 6:0.91914 7:0.523482 8:0.652119 9:-0.928902 10:-0.6 11:-1 12:-1 13:-0.111142 14:-1 15:-0.666667 16:-0.106606 17:-0.298028 18:1 19:-0.855108 20:-0.999549 21:-1 
-14.71482704168174 1:-0.603465 2:0.800004 3:-0.998254 4:0.992545 5:-0.99891 6:0.999749 7:-0.999912 8:0.999727 9:-1 10:-0.6 11:0.969878 12:-1 13:-0.881891 14:-0.6 15:-1 16:-0.180755 17:-0.925687 18:-0.68 19:0.0299551 20:-0.82762 21:0.459448 
-60.80220530260018 1:-0.970102 2:-0.120499 3:-0.441548 4:0.308201 5:-0.533893 6:0.736731 7:-0.781662 8:0.85517 9:-0.914559 10:-0.6 11:0.880464 12:-1 13:-0.633339 14:-1 15:-1 16:-0.200503 17:0.276147 18:-0.5 19:-0.787401 20:-0.99884 21:-1 
-953.9240013269887 1:-0.787571 2:0.349816 3:-0.966358 4:0.437913 5:-0.959787 6:0.997451 7:-0.974134 8:0.997957 9:-0.999891 10:-0.6 11:0.945872 12:0.891703 13:-0.596781 14:-0.6 16:-0.25446 17:-0.855426 18:-0.857143 19:-0.574253 20:-0.991365 21:-1 
-65.94472471820023 1:-0.984265 2:0.917433 3:-0.995564 4:0.376763 5:-0.952752 6:0.996815 7:-0.724886 8:0.979651 9:-0.998665 10:-0.6 11:-1 12:0.637581 13:-0.115545 14:-1 15:-0.666667 16:-0.123059 17:-0.153296 18:1 19:-0.814643 20:-0.999184 21:-1 
-1615.374997805943 1:-0.940204 2:0.748931 3:-0.984357 4:0.923132 5:-0.992663 6:0.999311 7:-0.998286 8:0.999589 9:-0.99999 10:-0.6 11:0.908047 12:-1 13:-0.882482 14:-0.2 15:-1 16:-0.049505 17:-0.581323 18:-0.75 19:-0.257482 20:-0.945629 21:-1 
-897.5476013419278 1:-0.98269 2:0.529306 3:-0.856533 4:0.403107 5:-0.753282 6:0.914415 7:-0.762508 8:0.90341 9:-0.965028 10:-0.6 11:-1 12:-1 13:1 14:-1 15:-1 16:-0.173769 17:-0.334535 18:-0.2 19:-0.723103 20:-0.997616 21:-1 
-1103.380281689196 1:-0.911876 2:0.405026 3:-0.937103 4:0.485141 5:-0.925497 6:0.990929 7:-0.951461 8:0.992912 9:-0.999145 10:-0.6 11:0.834441 12:0.80692 13:-0.333136 14:0.2 15:-1 16:-0.094506 17:-0.593986 18:-0.8 19:-0.635459 20:-0.994655 21:-1 
-702.6585822957436 1:-0.91188 2:-0.543901 3:-0.570948 4:0.0204024 5:-0.632028 6:0.884108 7:-0.823089 8:0.934518 9:-0.978515 10:-0.6 11:0.886485 12:0.649846 13:-0.913384 14:-0.6 15:-1 16:-0.103329 17:-0.554929 18:-1 19:-0.780448 20:-0.998738 21:-1 
-5.896752641779741 1:-0.965382 2:0.210939 3:-0.753493 4:0.868923 5:-0.944533 6:0.980478 7:-0.9932 8:0.996906 9:-0.998956 10:-0.6 11:0.731356 12:-1 13:-0.881799 14:-1 15:-1 16:-0.371484 17:-0.277167 18:-1 19:-0.818299 20:-0.999224 21:-1 
-65.8447522389644 1:-0.968528 2:0.967635 3:-0.998955 4:-0.319144 5:-0.978213 6:0.998897 7:-0.284848 8:0.988703 9:-0.999526 10:-0.6 11:-1 12:-1 13:1 14:-1 15:-1 16:-0.642072 17:-0.285873 18:-0.5 19:-0.714489 20:-0.997399 21:-1 
-116.1722065639224 1:-0.937057 2:0.167356 3:-0.845861 4:-0.243144 5:-0.687992 6:0.934351 7:-0.646019 8:0.912661 9:-0.98086 10:-0.6 11:-1 12:0.840643 13:-0.999698 14:-1 15:-0.333333 16:-0.317594 17:-0.562342 18:-0.6 19:-0.752123 20:-0.998249 21:-1 
-224.6742168652081 1:-0.944924 2:-0.324932 3:-0.56292 4:-0.314977 5:-0.413437 6:0.780608 7:-0.55785 8:0.806115 9:-0.924254 10:-0.6 11:0.584015 12:-1 13:-0.634527 14:-1 15:-0.666667 16:-0.267161 17:-0.23234 19:-0.780976 20:-0.998746 21:-1 
-1022.480111466615 1:-0.968528 2:-0.1287 3:-0.487131 4:0.34727 5:-0.599039 6:0.793548 7:-0.824265 8:0.893663 9:-0.942843 10:-0.6 11:0.850123 12:-1 13:-0.618327 14:-0.6 15:-1 16:-0.0847605 17:-0.207737 18:-1 19:-0.805769 20:-0.999082 21:-1 
-334.3316664886376 1:-0.962235 2:0.95896 3:-0.999357 4:0.464531 5:-0.989659 6:0.999568 7:-0.899386 8:0.998035 9:-0.999966 10:-0.6 11:-1 12:0.830979 13:-0.191455 14:-1 15:-0.666667 16:-0.193582 17:-0.207615 18:-0.5 19:-0.656269 20:-0.995523 21:-1 
-398.2080893972399 1:-0.976396 2:0.970667 3:-0.999625 4:0.461808 5:-0.989769 6:0.999597 7:-0.85477 8:0.997333 9:-0.999959 10:-0.6 11:-1 12:0.760489 13:-0.168167 14:-1 15:-1 16:0.158329 17:-0.285873 18:-1 19:-0.794516 20:-0.998939 21:-1 
-82.09444598627302 1:-0.973249 2:0.760084 3:-0.974775 4:0.889082 5:-0.983428 6:0.997882 7:-0.994357 8:0.998938 9:-0.9999 10:-0.6 11:-1 12:-1 13:1 14:-1 15:-1 16:0.048238 17:0.329531 18:-0.333333 19:-0.400033 20:-0.973679 21:-1 
-191.9345082931603 1:-0.696292 2:0.843989 3:-0.998719 4:0.832052 5:-0.997271 6:0.999733 7:-0.998504 8:0.999715 9:-1 10:-0.6 11:0.914919 12:0.95177 13:-0.682968 14:0.2 15:1 16:0.188264 17:-0.889733 18:-1 19:0.0766175 20:-0.797813 21:-1 
-76.35634776398209 1:-0.968529 2:0.569534 3:-0.929512 4:0.525062 5:-0.893821 6:0.980144 7:-0.91119 8:0.980363 9:-0.996228 10:-0.6 11:-1 12:-1 13:-0.206055 14:-1 15:-0.666667 16:0.296059 17:-0.0514644 18:-1 19:-0.633432 20:-0.994564 21:-1 
-502.0196786482505 1:-0.944924 2:0.0153456 3:-0.762379 4:-0.175808 5:-0.616653 6:0.894983 7:-0.652558 8:0.888608 9:-0.968165 10:-0.6 11:-1 12:-1 13:1 14:-1 15:-1 16:-0.0741911 17:-0.369014 18:-1 19:-0.710852 20:-0.997303 21:-1 
-1188.748640952006 1:-0.889845 2:0.3176 3:-0.936293 4:-0.067634 5:-0.864143 6:0.985441 7:-0.839119 8:0.979753 9:-0.997784 10:-0.6 11:0.846936 12:0.816091 13:-0.0273662 14:-0.6 15:-0.666667 16:0.144164 17:-0.669523 18:-1 19:-0.749946 20:-0.998207 21:-1 
-2048 1:-0.981117 2:0.286689 3:-0.717906 4:0.725468 5:-0.853062 6:0.934212 7:-0.957155 8:0.977191 9:-0.98942 10:-0.6 11:-1 12:-1 13:1 14:-1 15:-1 16:0.0917687 17:-0.153296 18:-1 19:-0.685384 20:-0.996556 21:-1 
-896.1860993796337 1:-0.957512 2:-0.0641839 3:-0.653896 4:0.0548783 5:-0.583732 6:0.846443 7:-0.719231 8:0.878331 9:-0.953144 10:-0.6 11:0.573104 12:-1 13:-0.9213 14:-1 15:-1 16:0.0248646 17:-0.322804 18:-1 19:-0.781204 20:-0.998749 21:-1 
-45.50362216722392 1:-0.935484 2:-0.443661 3:-0.536399 4:-0.327078 5:-0.423584 6:0.790164 7:-0.597768 8:0.828222 9:-0.934695 10:-0.6 11:0.870091 12:0.60528 13:0.0451071 14:-0.2 15:-1 16:0.0901276 17:-0.394883 18:-1 19:-0.822777 20:-0.99927 21:-1 
-1595.361432667171 1:-0.94807 2:0.202794 3:-0.832346 4:0.443149 5:-0.841066 6:0.962045 7:-0.916161 8:0.976308 9:-0.994155 10:-0.6 11:0.765098 12:0.834531 13:-0.776712 14:-0.6 15:-0.666667 16:-0.178746 17:-0.376257 18:-1 19:-0.746636 20:-0.99814 21:-1 
-182.2867172379506 1:-0.957512 2:0.104697 3:-0.752555 4:0.443052 5:-0.791334 6:0.934603 7:-0.901758 8:0.963637 9:-0.988164 10:-0.6 11:0.75844 12:-1 13:-0.864907 14:-1 15:-1 16:-0.075735 17:-0.504834 18:-1 19:-0.757121 20:-0.998344 21:-1 
-930.6860173609193 1:-0.981117 2:-0.000804357 3:-0.435136 4:0.515821 5:-0.630558 6:0.763628 7:-0.864593 8:0.898059 9:-0.931867 10:-0.6 11:-1 12:-1 13:1 14:-1 15:-1 16:-0.408703 17:-0.207737 18:-1 19:-0.815428 20:-0.999193 21:-1 
-342.036468132307 1:-0.965381 2:-0.961226 3:0.403642 4:0.306337 5:-0.330147 6:0.457179 7:-0.820344 8:0.829086 9:-0.855306 10:-0.6 11:-1 12:-1 13:1 14:-1 15:-1 16:-0.215191 17:-0.454918 18:-1 19:-0.841907 20:-0.999447 21:-1 
-2048 1:-0.877262 2:0.884103 3:-0.998314 4:0.411997 5:-0.98833 6:0.99957 7:-0.957699 8:0.998988 9:-0.999987 10:-0.6 11:-1 12:0.917281 13:-0.196875 14:-1 15:-0.666667 16:-0.0451287 17:-0.691005 18:-0.818182 19:-0.523257 20:-0.987627 21:-1 
-814.3537096674478 1:-0.929189 2:0.868448 3:-0.996571 4:0.850241 5:-0.993924 6:0.9996 7:-0.995555 8:0.999584 9:-0.999996 10:-0.6 11:0.897574 12:0.895882 13:-0.470893 14:-0.2 15:-0.666667 16:-0.0583991 17:-0.640514 18:-0.555556 19:-0.197761 20:-0.92887 21:-1 
-2048 1:-0.935481 2:0.870577 3:-0.99639 4:0.445906 5:-0.978849 6:0.9991 7:-0.932972 8:0.997351 9:-0.99992 10:-0.6 11:-1 12:0.749412 13:-0.195627 14:-1 15:-1 16:0.0320064 17:-0.623659 18:-0.555556 19:-0.570828 20:-0.991144 21:-1 
-55.83194400772 1:-0.979543 2:0.563843 3:-0.900374 4:-0.148981 5:-0.642679 6:0.906921 7:-0.282395 8:0.780848 9:-0.940379 10:-0.6 11:-1 12:-1 13:-0.198038 14:-1 15:-1 16:-0.110234 17:-0.153296 19:-0.876305 20:-0.999683 21:-1 
-1402.309857153991 1:-0.970103 2:0.597959 3:-0.935829 4:0.154294 5:-0.81609 6:0.966446 7:-0.705826 8:0.937139 9:-0.988085 10:-0.6 11:-1 12:0.860196 13:-0.198992 14:-1 15:-0.333333 16:-0.134339 17:0.10355 18:-0.5 19:-0.763511 20:-0.99846 21:-1 
-636.3866808563504 1:-0.756094 2:0.745223 3:-0.995768 4:0.496208 5:-0.988268 6:0.999547 7:-0.983648 8:0.999393 9:-0.999993 10:-0.6 11:0.846766 12:0.904367 13:-0.49359 14:0.6 15:-0.666667 16:0.0379136 17:-0.84791 18:-0.8 19:-0.324153 20:-0.960637 21:-1 
-33.79838249250579 1:-0.86782 2:0.764587 3:-0.99398 4:0.876767 5:-0.994763 6:0.999629 7:-0.998148 8:0.999667 9:-0.999998 10:-0.6 11:0.916858 12:0.693017 13:-0.861039 14:1 15:-1 16:-0.127725 17:-0.813597 18:-1 19:-0.154185 20:-0.914393 21:-1 
-2048 1:-0.837916 2:0.135755 3:-0.931549 4:0.58721 5:-0.955019 6:0.995805 7:-0.983884 8:0.998038 9:-0.999841 10:-0.6 11:0.802987 12:0.833887 13:-0.860644 14:-0.2 15:-0.666667 16:-0.0818296 17:-0.72426 18:-0.555556 19:-0.570369 20:-0.991114 21:-1 
-2048 1:-0.929188 2:0.476722 3:-0.945337 4:0.974213 5:-0.99568 6:0.999379 7:-0.99985 8:0.999707 9:-0.999997 10:-0.6 11:0.882072 12:-1 13:-0.866721 14:-0.6 15:-1 16:-0.279455 17:-0.706119 18:-0.777778 19:-0.697327 20:-0.996923 21:-1 
-1965.441479215184 1:-0.959088 2:-0.130154 3:-0.59892 4:0.139234 5:-0.586592 6:0.833693 7:-0.76078 8:0.886943 9:-0.952534 10:-0.6 11:0.571607 12:-1 13:-0.605961 14:-1 15:-1 16:-0.11023 17:-0.139236 18:-0.6 19:-0.743014 20:-0.998066 21:-1 
-960.5658960545591 1:-0.970102 2:-0.336661 3:-0.266486 4:-0.493187 5:0.108231 6:0.310394 7:-0.0587534 8:0.31348 9:-0.553397 10:-0.6 11:-1 12:-1 13:-0.184614 14:-1 15:-1 16:-0.222185 17:0.0897242 19:-0.845965 20:-0.99948 21:-1 
-224.1430057846069 1:-0.981118 2:-0.23614 3:-0.116976 4:-0.212897 5:0.171621 6:0.0508117 7:-0.126018 8:0.170019 9:-0.296951 10:-0.6 11:-1 12:-1 13:-0.171377 14:-1 15:-1 16:-0.263365 17:-0.273814 18:-0.5 19:-0.843965 20:-0.999463 21:-1 
-1069.797828696039 1:-0.932334 2:-0.263967 3:-0.664664 4:0.547192 5:-0.837151 6:0.951045 7:-0.955791 8:0.984134 9:-0.995091 10:-0.6 11:0.822593 12:-1 13:-0.867146 14:-0.2 15:-1 16:-0.223077 17:-0.376011 18:-0.428571 19:-0.730476 20:-0.997791 21:-1 
-362.6665379862922 1:-0.859954 2:0.992134 3:-0.999871 4:0.569877 5:-0.998738 6:0.999738 7:-0.980531 8:0.999728 9:-1 10:-0.6 11:-1 12:0.886178 13:-0.217908 14:-1 15:0.333333 16:0.0708008 17:-0.771595 18:-0.666667 19:-0.464304 20:-0.981925 21:0.486336 
-2048 1:-0.924466 2:0.823133 3:-0.994506 4:0.654196 5:-0.984453 6:0.999232 7:-0.978069 8:0.998826 9:-0.999966 10:-0.6 11:-1 12:0.897417 13:-0.217035 14:-1 15:-0.666667 16:0.0881786 17:-0.612863 18:-1 19:-0.515784 20:-0.986991 21:-1 
-1381.622813521085 1:-0.959086 2:0.497951 3:-0.923034 4:0.692047 5:-0.935557 6:0.988683 7:-0.970328 8:0.993688 9:-0.998897 10:-0.6 11:0.548738 12:-1 13:-0.85725 14:-0.6 15:-1 16:0.0662775 17:-0.24372 18:-0.5 19:-0.597837 20:-0.992773 21:-1 
-2048 1:-0.900865 2:0.589642 3:-0.976574 4:0.45186 5:-0.957182 6:0.997033 7:-0.957339 8:0.996532 9:-0.999783 10:-0.6 11:0.696045 12:0.734906 13:-0.818795 14:-0.6 15:-0.666667 16:0.0513903 17:-0.619069 18:-1 19:-0.508412 20:-0.986341 21:-1 
-2048 1:-0.932334 2:0.496591 3:-0.951155 4:0.391355 5:-0.919149 6:0.990941 7:-0.926294 8:0.99022 9:-0.998904 10:-0.6 11:0.669578 12:0.896108 13:-0.59207 14:-0.6 15:-0.333333 16:0.0895277 17:-0.480791 18:-0.714286 19:-0.660176 20:-0.995674 21:-1 
-507.9261593033251 1:-0.888275 2:0.673429 3:-0.986721 4:0.778699 5:-0.986964 6:0.999198 7:-0.99376 8:0.999397 9:-0.999984 10:-0.6 11:0.893744 12:0.794272 13:0.214409 14:-0.6 15:-1 16:0.0822411 17:-0.753435 18:-1 19:-0.412241 20:-0.975427 21:-1 
-225.3312745026529 1:-0.971675 2:-0.318962 3:-0.28588 4:0.647281 5:-0.742371 6:0.84218 7:-0.947808 8:0.962197 9:-0.975907 10:-0.6 11:-1 12:-1 13:-0.858381 14:-1 15:-1 16:-0.100146 17:0.193761 18:0.333333 19:-0.781548 20:-0.998754 21:-1 
-224.6617281434283 1:-0.97325 2:0.212519 3:-0.74226 4:0.393454 5:-0.731035 6:0.900138 7:-0.842942 8:0.931385 9:-0.973446 10:-0.6 11:0.788814 12:-1 13:-0.112835 14:-1 15:-1 16:0.115247 17:-0.104692 18:-0.5 19:-0.752792 20:-0.998262 21:-1 
-2048 1:-0.940203 2:0.0860247 3:-0.810857 4:0.934645 5:-0.981374 6:0.995658 7:-0.998892 8:0.999424 9:-0.999926 10:-0.6 11:0.864219 12:-1 13:-0.861576 14:-0.6 15:-1 16:0.186702 17:-0.468118 18:-0.666667 19:-0.690314 20:-0.996711 21:-1 
-1253.793217932349 1:-0.977971 2:0.152903 3:-0.65268 4:0.164748 5:-0.53627 6:0.784253 7:-0.652768 8:0.810404 9:-0.907843 10:-0.6 11:-1 12:-1 13:-0.633551 14:-1 15:-1 16:-0.226724 17:-0.134476 18:-0.5 19:-0.809682 20:-0.999128 21:-1 
-975.0135472442039 1:-0.892994 2:0.26915 3:-0.929994 4:0.3709 5:-0.917738 6:0.990924 7:-0.946655 8:0.992958 9:-0.999232 10:-0.6 11:0.910756 12:0.884157 13:-0.502119 14:-0.2 15:-0.333333 16:-0.0637611 17:-0.652668 18:-0.6 19:-0.629324 20:-0.994376 21:-1 
-854.9195294439889 1:-0.842641 2:-0.415573 3:-0.813119 4:0.0311877 5:-0.826326 6:0.97389 7:-0.910117 8:0.983963 9:-0.997529 10:-0.6 11:0.788617 12:0.735215 13:-0.438376 14:0.2 15:-0.666667 16:0.0155154 17:-0.741669 18:-1 19:-0.762415 20:-0.998441 21:-1 
-14.14965727739654 1:-0.981117 2:-0.733651 3:0.634248 4:0.0998685 5:0.145545 6:-0.223566 7:-0.54851 8:0.434647 9:-0.36869 10:-0.6 11:-1 12:-1 13:-0.857749 14:-1 15:-1 16:-0.0919477 17:0.532507 18:-1 19:-0.855515 20:-0.999552 21:-1 
-410.9716583177273 1:-0.826903 2:0.990697 3:-0.999859 4:0.109264 5:-0.998299 6:0.99973 7:-0.928186 8:0.999686 9:-0.999999 10:-0.6 11:-1 12:0.828815 13:-0.185372 14:-1 15:-0.333333 16:-0.027596 17:-0.768019 18:-0.2 19:-0.637536 20:-0.994747 21:0.00613491 
-18.07781188423345 1:-0.959087 2:0.987238 3:-0.999807 4:0.996093 5:-0.998847 6:0.999747 7:-0.999766 8:0.999727 9:-1 10:-0.6 11:-1 12:0.870315 13:-0.166407 14:-1 15:-0.666667 16:-0.291231 17:-0.424747 19:1 20:1 21:-1 
-264.1673131040745 1:-0.940205 2:0.993789 3:-0.999932 4:0.747951 5:-0.998762 6:0.999741 7:-0.98497 8:0.999728 9:-1 10:-0.6 11:-1 12:0.828974 13:-0.183265 14:-1 15:-1 16:-0.127092 17:-0.535529 18:-0.75 19:-0.518262 20:-0.987205 21:0.341513 
-576.5634066886096 1:-0.948073 2:0.880615 3:-0.99643 4:0.367159 5:-0.973131 6:0.998852 7:-0.893046 8:0.995456 9:-0.999845 10:-0.6 11:-1 12:0.893676 13:-0.182632 14:-1 16:-0.0300284 17:-0.460282 18:-0.714286 19:-0.738445 20:-0.997969 21:-1 
-1509.313404004847 1:-0.719899 2:0.820418 3:-0.998124 4:0.807513 5:-0.996456 6:0.999719 7:-0.99786 8:0.999702 9:-1 10:-0.6 11:0.906285 12:0.916927 13:-0.282411 14:0.2 15:-0.666667 16:-0.0760777 17:-0.897941 18:-1 19:-0.0218597 20:-0.856718 21:-1 
-1850.318516400333 1:-0.935482 2:0.594949 3:-0.965298 4:0.524623 5:-0.943952 6:0.994373 7:-0.950799 8:0.994116 9:-0.999426 10:-0.6 11:0.721747 12:0.734015 13:-0.706846 14:-0.6 15:-1 16:-0.196199 17:-0.571982 18:-0.5 19:-0.668396 20:-0.995978 21:-1 
-2048 1:-0.919746 2:0.282212 3:-0.910053 4:0.359094 5:-0.89071 6:0.984349 7:-0.926246 8:0.987472 9:-0.998178 10:-0.6 11:0.722587 12:0.590068 13:-0.729736 14:-0.6 15:-1 16:-0.0439703 17:-0.517826 18:-0.666667 19:-0.636554 20:-0.994704 21:-1 
-1238.210082621953 1:-0.908733 2:0.63052 3:-0.978587 4:0.927638 5:-0.993502 6:0.999399 7:-0.999154 8:0.999665 9:-0.999996 10:-0.6 11:0.831056 12:-1 13:-0.865179 14:-0.6 15:-1 16:-0.0278372 17:-0.669523 18:-1 19:-0.516555 20:-0.987058 21:-1 
-625.4151045939279 1:-0.878833 2:0.380588 3:-0.953504 4:0.698157 5:-0.9686 6:0.997171 7:-0.988715 8:0.998611 9:-0.999901 10:-0.6 11:0.929396 12:0.766778 13:-0.797622 14:0.2 15:-0.666667 16:-0.0998217 17:-0.650165 18:-0.636364 19:-0.579222 20:-0.991677 21:-1 
-131.5886643172482 1:-0.842641 2:0.363125 3:-0.960283 4:0.994067 5:-0.998711 6:0.999744 7:-0.999955 8:0.999724 9:-1 10:-0.6 11:0.83551 12:-1 13:-0.870055 14:0.2 15:-1 16:-0.16225 17:-0.742319 18:-0.714286 19:-0.661698 20:-0.995731 21:-0.935088 
-85.55794124439291 1:-0.988985 2:-0.382849 3:0.525403 4:0.87378 5:-0.814217 6:0.768664 7:-0.986956 8:0.980599 9:-0.974983 10:-0.6 11:-1 12:-1 13:1 14:-1 15:-1 16:-0.0414522 17:0.151926 18:0.333333 19:-0.806682 20:-0.999093 21:-1 
-2048 1:-0.935483 2:0.784346 3:-0.99071 4:0.432089 5:-0.965592 6:0.998099 7:-0.931901 8:0.995796 9:-0.999797 10:-0.6 11:-1 12:0.760382 13:-0.21555 14:-1 15:-0.333333 16:0.0348127 17:-0.510249 18:-0.75 19:-0.661057 20:-0.995707 21:-1 
-490.8374467345558 1:-0.952791 2:0.601837 3:-0.95857 4:0.503727 5:-0.929185 6:0.991475 7:-0.933485 8:0.990519 9:-0.998858 10:-0.6 11:-1 12:-1 13:-0.23996 14:-1 15:-1 16:0.154635 17:-0.643133 18:0.2 19:-0.633268 20:-0.994557 21:-1 
-123.2741854940159 1:-0.984264 2:0.55528 3:-0.883951 4:0.216416 5:-0.721748 6:0.917243 7:-0.627241 8:0.869867 9:-0.959585 10:-0.6 11:-1 12:-1 13:0.985915 14:-1 15:-1 16:-0.10026 17:-0.2019 18:-0.5 19:-0.867261 20:-0.99963 21:-1 
-1385.819008982118 1:-0.966955 2:0.347754 3:-0.851106 4:0.774945 5:-0.929937 6:0.981826 7:-0.9819 8:0.994215 9:-0.998501 10:-0.6 11:0.627067 12:-1 13:-0.850589 14:-0.6 15:-1 16:0.0140356 17:-0.273891 19:-0.725767 20:-0.99768 21:-1 
-1494.330185042346 1:-0.979543 2:0.248331 3:-0.723718 4:0.357514 5:-0.680109 6:0.866558 7:-0.792619 8:0.898341 9:-0.955732 10:-0.6 11:0.553154 12:-1 13:-0.850123 14:-1 15:-1 16:0.322688 17:0.214037 18:-0.333333 19:-0.779143 20:-0.998718 21:-1 
-2048 1:-0.946498 2:0.559617 3:-0.954769 4:0.467253 5:-0.924975 6:0.991102 7:-0.931569 8:0.990379 9:-0.998859 10:-0.6 11:0.820425 12:0.713168 13:-0.439492 14:-1 15:-0.666667 16:0.0570428 17:-0.468118 18:-0.75 19:-0.648883 20:-0.995228 21:-1 
-2048 1:-0.918175 2:0.407105 3:-0.943419 4:0.496737 5:-0.934326 6:0.99275 7:-0.958154 8:0.994443 9:-0.999403 10:-0.6 11:0.844169 12:0.745128 13:-0.705418 14:-0.6 15:-0.666667 16:0.241582 17:-0.608186 18:-0.777778 19:-0.603857 20:-0.993103 21:-1 
-612.782164333659 1:-0.954366 2:0.330735 3:-0.880535 4:0.762529 5:-0.942169 6:0.988256 7:-0.9847 8:0.996108 9:-0.999235 10:-0.6 11:0.863767 12:-1 13:-0.673675 14:-0.2 15:-0.666667 16:0.155644 17:-0.50664 18:-1 19:-0.694131 20:-0.996828 21:-1 
-145.9939612741001 1:-0.979543 2:-0.151833 3:-0.341781 4:-0.14893 5:-0.111808 6:0.424316 7:-0.326454 8:0.488089 9:-0.653105 10:-0.6 11:-1 12:-1 13:-0.245957 14:-1 15:-1 16:-0.717837 17:-0.207615 18:-1 19:-0.827204 20:-0.999314 21:-1 
-264.5561140016194 1:-0.962233 2:0.309819 3:-0.85181 4:0.577863 5:-0.876765 6:0.969947 7:-0.943126 8:0.98349 9:-0.995861 10:-0.6 11:0.767733 12:-1 13:-0.848353 14:0.2 15:-1 16:-0.607472 17:-0.509726 18:-1 19:-0.715359 20:-0.997422 21:-1 
-425.2289330298915 1:-0.963808 2:0.264714 3:-0.825459 4:0.382922 5:-0.801246 6:0.946428 7:-0.873771 8:0.959896 9:-0.988773 10:-0.6 11:0.865645 12:0.557748 13:-0.89007 14:-1 15:-1 16:-0.716297 17:-0.411274 18:-1 19:-0.760782 20:-0.998411 21:-1 
-1331.02761298521 1:-0.918175 2:0.331786 3:-0.927668 4:0.349181 5:-0.903881 6:0.988065 7:-0.929344 8:0.989577 9:-0.998697 10:-0.6 11:0.694605 12:0.711487 13:-0.82053 14:-0.6 15:-1 16:-0.267289 17:-0.593986 18:-1 19:-0.655311 20:-0.995486 21:-1 
-572.6323247599304 1:-0.962234 2:0.0635876 3:-0.728914 4:0.400811 5:-0.765107 6:0.922898 7:-0.886319 8:0.956015 9:-0.984985 10:-0.6 11:0.663769 12:-1 13:-0.846127 14:-0.6 15:-1 16:-0.323434 17:-0.356162 18:-1 19:-0.784306 20:-0.998795 21:-1 
-2048 1:-0.930762 2:0.301308 3:-0.907963 4:0.896474 5:-0.980922 6:0.99707 7:-0.997918 8:0.999365 9:-0.999944 10:-0.6 11:0.803741 12:-1 13:-0.853217 14:-0.6 15:-1 16:-0.391799 17:-0.583208 18:-1 19:-0.673463 20:-0.996157 21:-1 
-24.67249982243005 1:-0.938631 2:0.189378 3:-0.862308 4:0.858324 5:-0.966993 6:0.993619 7:-0.995687 8:0.99876 9:-0.999806 10:-0.6 11:0.749621 12:-1 13:-0.850018 14:0.2 15:-1 16:-0.304595 17:-0.555038 18:-1 19:-0.684154 20:-0.996516 21:-1 
-10.0278271331138 1:-0.988986 2:-0.430064 3:0.489553 4:0.973146 5:-0.96459 6:0.95926 7:-0.999054 8:0.998405 9:-0.998367 10:-0.6 11:-1 12:-1 13:1 14:-1 15:-1 16:-0.0180605 17:0.0277059 18:-1 19:-0.797056 20:-0.998972 21:-1 
-30.1371465401355 1:-0.970101 2:-0.379096 3:-0.29232 4:-0.0508763 5:-0.271051 6:0.576064 7:-0.578236 8:0.712318 9:-0.825157 10:-0.6 11:0.80495 12:-1 13:-0.58539 14:-1 15:-1 16:-0.400123 17:-0.00748384 18:-1 19:-0.825236 20:-0.999295 21:-1 
-231.0452282955623 1:-0.971676 2:0.953282 3:-0.998818 4:0.281053 5:-0.98088 6:0.999189 7:-0.772548 8:0.994139 9:-0.999819 10:-0.6 11:-1 12:-1 13:1 14:-1 15:-1 16:-0.430622 17:-0.0223626 18:-0.5 19:-0.657928 20:-0.995588 21:-1 
-854.9595678663567 1:-0.856804 2:0.902095 3:-0.998877 4:0.114203 5:-0.986915 6:0.999587 7:-0.914188 8:0.998597 9:-0.999984 10:-0.6 11:-1 12:0.918156 13:-0.175257 14:-1 15:-0.666667 16:-0.163382 17:-0.730593 18:-0.666667 19:-0.627257 20:-0.99428 21:-1 
-200.6623697829598 1:-0.973248 2:0.610977 3:-0.933696 4:-0.153764 5:-0.7323 6:0.947866 7:-0.394697 8:0.862147 9:-0.972016 10:-0.6 11:-1 12:-1 13:-0.186718 14:-1 15:-0.666667 16:0.0233153 17:-0.450616 18:0.333333 19:-0.815374 20:-0.999192 21:-1 
-575.2519879366728 1:-0.954366 2:0.314306 3:-0.864383 4:-0.316992 5:-0.646356 6:0.920443 7:-0.483257 8:0.863694 9:-0.968017 10:-0.6 11:-1 12:0.585561 13:-0.190995 14:-1 15:-1 16:0.0990128 17:-0.0976672 18:-0.6 19:-0.811288 20:-0.999146 21:-1 
-2048 1:-0.892994 2:0.400159 3:-0.950853 4:0.462993 5:-0.939607 6:0.994222 7:-0.959356 8:0.995306 9:-0.999569 10:-0.6 11:0.764661 12:0.711988 13:-0.776126 14:-0.6 15:-0.666667 16:-0.0792412 17:-0.747795 18:-0.75 19:-0.593768 20:-0.992543 21:-1 
-1354.246392345127 1:-0.93391 2:0.111059 3:-0.833192 4:-0.0825348 5:-0.724803 6:0.941326 7:-0.74579 8:0.936409 9:-0.985896 10:-0.6 11:0.697032 12:0.587842 13:-0.35973 14:-1 15:-1 16:-0.0873711 17:-0.515759 18:-0.333333 19:-0.740426 20:-0.998011 21:-1 
-230.1899376624266 1:-0.966954 2:0.5132 3:-0.910862 4:0.763695 5:-0.940842 6:0.987656 7:-0.978548 8:0.994508 9:-0.998865 10:-0.6 11:0.76298 12:-1 13:-0.867219 14:-1 15:-0.666667 16:-0.161674 17:-0.357631 18:-1 19:-0.662052 20:-0.995745 21:-1 
